0.8673472019512456	-0.9017438158568171	-0.4944787535042339	-0.9029142938652416	0.8644013132535154	2.2118774995743475	0.5328132821695382	-0.27173539603462066	0.5023344963886675	-0.5169836206932686	-0.5605013381807765	-0.019291781689849075	0.12806443451512645	1.852782957725545	-0.8277634318169205	0.11009612632217552	-0.2511757400198831	0.3697140350317453	0.07211635315125874	-1.503429457351051	0	0	0	0	0	0	0	0	0	0	0	0	0	0	0	0	0	0	0	0	1.5641682355362416	-1.3967353668333795	1.1054978391059092	-1.1067299135255761	-3.2113596499239088	-0.07401454242444336	0.1509756176321479	0.7692782605345824	-0.31015257323306406	-0.6027068905147959	-1.2796722102183824	0.9973171556575041	0.302422509042974	-0.036445994527206725	0.14197425838484184	0.5212726564680514	0.8967478231916237	-0.5135298961952287	-0.7647985048765796	-1.5414263839472457	0	-0.0801624859452718	-1.0912192142639132	-0.5805165450434235	-0.3154372460983286	-1.3614476249361172	-0.11445720023473198	0.1658369675157237	-0.40843803219265074	-1.009783518501397	-0.5438048486401967	-1.2267247260093483	-0.5417157197543718	-0.6864935365141717	-0.7129319615024848	-0.3270588960867544	0.5148361669491318	2.4174733478680444	-0.3079736599439786	1.2453033858573443	-0.049950231303361896	0	0	0	0	0	0	0	0	0	0	0	0	0	0	0	0	0	0	0	0	-1.054777824036921	-0.9871768159072896	1.4821723679733616	-0.5227721501159824	-1.580700774609182	0.1318423302974782	0.44735795730457095	-0.39621068468866266	0.36677325581305237	0.6216732554478005	0.18258799290295424	2.0635324726445594	-1.414528098053257	0.13447542179098826	-0.7504205071080338	0.17077794617277833	-1.5849216228195329	-1.975000495993712	0.07641795896613793	0.7993351658657596	0
0.8672085820153105	-0.9016498013724591	-0.49646040912681805	-0.9028404948177093	0.8646926868223435	2.211877442204177	0.5326152790634827	-0.2797569395284427	0.5028559806777592	-0.5160843062351869	-0.5591619866977869	-0.054095120809081146	0.12033688655749647	1.852782916697741	-0.8277806903080546	0.09567164420955925	-0.26202209057299675	0.37223631825587244	0.09631773967551889	-1.5034309507137384	-2960939530526673e-20	18873834063039226e-21	-0.0004769081374237414	1477819150212144e-20	6251058287197068e-20	-13579091597720848e-23	-4787488957362765e-20	-0.001855942749833507	0.00012563351405348334	0.00021705726606794073	0.0003246530482581997	-0.007805029005017621	-0.0017471159599765642	-8657365799141524e-23	-3872467123797536e-21	-0.0032544623591059594	-0.002500070992999641	0.000594461781393636	0.005441284459901867	-45827269220064995e-22	1.5562918081002113	-1.3888562742482666	1.1131642078665387	-1.0988507425235459	-3.219235813193172	-0.08190064674969354	0.14325023200950482	0.7758362762933537	-0.317832582485847	-0.5950036642647578	-1.2719143169602438	0.9979938448294269	0.2983659493353269	-0.044332438617784395	0.14984656011902864	0.5176943998835724	0.9030746471259313	-0.5208093741590704	-0.7672474285673598	-1.533539529191927	-0.007884919719235503	-0.0586886801374302	-1.091175360060609	-0.5818883767833546	-0.31238129119277314	-1.3614262569089979	-0.11685438360115498	0.15935713294854303	-0.40722113257771353	-1.0098082058521112	-0.5445453696220787	-1.2267290380492148	-0.5442095095239184	-0.6858487349346413	-0.7129836141590846	-0.3230048101631052	0.514587446660024	2.41747481259753	-0.2958331521087755	1.2453017215492184	-0.06738950083759004	0.00528049692794823	22450581687614116e-21	-0.0004247488978482036	0.0008096027718180646	15335619089922855e-21	-0.0005930543489213547	-0.0016233250125768132	0.00033781141632153474	-11482832707792596e-21	-0.00022343370257039497	-26090588003990514e-22	-0.0007513652413746754	0.00021684786135415987	-177664398720359e-19	0.0010798176157390989	-7360372748107699e-20	32861998432034894e-22	0.0032054967146726778	-10308499231635444e-22	-0.004272791785087887	-1.0530163636158665	-0.9816108519127316	1.4876001474412044	-0.5180531120733833	-1.5751279502835358	0.1342658636063808	0.44409445330527914	-0.39108993798339997	0.37233474475623185	0.6270623950694364	0.18815839232861054	2.068919105692071	-1.4090302240088748	0.1399843700441677	-0.7456361386594219	0.16542702141016757	-1.5904985841054993	-1.970326204168573	0.0708471381260657	0.8004581657316634	-0.005578369607041724
0.8670926089034505	-0.9015765968653431	-0.49867261269760577	-0.9027832848576869	0.8649385199757605	2.2118772452573943	0.5324056253697816	-0.2887546588332617	0.5034547181413831	-0.5150817399279469	-0.5576768239085325	-0.09397742863720969	0.11079218283554099	1.85278275115961	-0.8277969938557806	0.07730120294789514	-0.27396637859685113	0.3751519964094818	0.12328356456070436	-1.5034398403009834	-3137333262503301e-20	13937633875091839e-21	-0.0009708100749804415	10723153115799308e-21	6745938365121e-17	-655486486195527e-21	-9409962858522735e-20	-0.003885934646285747	0.00025906487852657195	0.0004395276680740287	0.0006478649819118317	-0.01662923490076019	-0.0038680239425183793	-4423170729184374e-22	-5178194552746292e-21	-0.007328631999788842	-0.0051908064882121956	0.0012550286453517053	0.01142235696511932	-20841152300161742e-21	1.5468663841556634	-1.3794286778694356	1.1223679563058935	-1.0894230837845813	-3.228661047466388	-0.09132750726156284	0.13398477366786812	0.7838427765494673	-0.3270485554326298	-0.5857642466184262	-1.2626141584292452	1.000323306434372	0.29371115094784517	-0.053760377534374904	0.1592684081047598	0.5138836970265639	0.910863083422702	-0.5295787453954254	-0.7711490605754924	-1.5241099384568852	-0.017307541864959607	-0.029956811427643452	-1.0911015139470293	-0.583793277900065	-0.30833252994951127	-1.3613848354906244	-0.1199317395495916	0.15085555577234797	-0.40560294497656346	-1.0098490855634061	-0.5455725958498934	-1.2267370826484718	-0.547602948983872	-0.6849177044496008	-0.7130618576418282	-0.3175677439468433	0.5142563815732557	2.4174794461562894	-0.27861956694176293	1.2452989010130804	-0.08871473046032774	0.012461235220965084	6885273514922971e-20	-0.0010563113239124582	0.0019176680160283518	5425907370053588e-20	-0.001370905355448514	-0.0037986432691760512	0.0008065628934337931	-3423696825084202e-20	-0.0005531374707299008	-881281267617196e-20	-0.0018402877206880248	0.0005584323186796215	-4732547994647332e-20	0.0025764838000936485	-0.00017728464939616623	16017133400949232e-21	0.007874647626055963	-32672920783822875e-22	-0.00960997873104746	-1.0513887616295707	-0.9744367153304229	1.4945739205029012	-0.5120541646236553	-1.5679415398864278	0.1374000858592058	0.44007754420449396	-0.38454074517878883	0.3795014625453047	0.6339818667256607	0.195340269090636	2.075838304536381	-1.401959558297468	0.14707159487193963	-0.7395575341774996	0.15856204541247715	-1.5976945150924933	-1.96446948159385	0.06366449516135012	0.802384875026156	-0.012779928292772517
0.867388334915564	-0.9017862300566287	-0.4955313780699322	-0.9029475336956501	0.8643123900303551	2.21187695620908	0.5326954987058873	-0.27793905247026035	0.5025713284644564	-0.516530366348725	-0.5599307617811448	-0.051499366824090516	0.12268978650067147	1.8527825399490538	-0.8277572379834168	0.10076093573790222	-0.260018244639132	0.3713081448692977	0.09409948894751212	-1.503451070820402	8564522309932216e-20	-7461546428824139e-20	-0.0001323065502757229	-5882612193047541e-20	-0.00017935347670857142	-19817600085801816e-22	-15088153774122046e-21	-0.001265875253502679	22592096601018705e-21	48999201062182836e-21	23011206800474613e-21	-0.006817353997260609	-0.0011142285715235287	-1297271491267708e-21	9540379076116107e-21	-0.001922621513441151	-0.0018287524881813845	0.0002918354093919995	0.0046517711952134815	-484105835993522e-19	1.5585478804074429	-1.3911160638936844	1.1110346305742393	-1.1011106526686192	-3.2169799584676184	-0.07961229008186609	0.14540061717062364	0.7739629872342084	-0.3157026038060911	-0.5971397731659894	-1.2740794380053586	0.9956219619187733	0.2989135615822796	-0.04204641026869295	0.1475955144702576	0.5176058939915696	0.9011937973284924	-0.5188234430592604	-0.7653183290568268	-1.5358221047476672	-0.005581723092092702	0.011416242175268442	-1.0910807537161933	-0.5848303718488918	-0.30431625881049706	-1.36136133500459	-0.12395405753784873	0.1398843016788085	-0.4042972098883421	-1.0098598329146145	-0.5461916966284175	-1.2267403483294939	-0.549588676393106	-0.6845175889958997	-0.713094736008982	-0.3121911880677846	0.5140513205740985	2.4174902634196633	-0.25876190483882844	1.2452978571767983	-0.11547663264659402	0.021251933850894904	0.00011380489203510841	-0.0013491557102378558	0.0028080489086480982	0.00011830094852739635	-0.0022309032738819217	-0.006152944239204312	0.0011078277609016347	-52661635422770854e-21	-0.0007165663368779124	-1727008839188736e-20	-0.002366316904982031	0.0007076055888463086	-6097479274083134e-20	0.003771796597251382	-0.00022912979951125704	56088672191154175e-21	0.012239789782437005	-60016760492659754e-22	-0.015315431570348016	-1.0503017589462154	-0.9659687705792716	1.50296095776555	-0.5044916798716514	-1.5594689528836985	0.14174451336225735	0.43492496480068643	-0.37645822372210996	0.3879674316956218	0.6423371774413601	0.20381073722961957	2.084195906616428	-1.3935263354793839	0.15551200255671654	-0.7319263964638281	0.15024225564006316	-1.606178319905264	-1.957184207696561	0.055193720280682576	0.8058058247026428	-0.021282105523357055
0.8672108495291899	-0.901642443660042	-0.49599141466121144	-0.9028340897970442	0.8646821070976276	2.2118771236554817	0.5326450124317685	-0.2792661796929068	0.5026975926790302	-0.5163070054568976	-0.5595376056651693	-0.0581219208541264	0.12118676674417249	1.8527828368156565	-0.8277760558449381	0.09785783432041233	-0.2617877408121046	0.37175765826919505	0.09849548848469038	-1.5034213775986707	-21456861973873862e-21	1198407065583196e-20	-0.0003514446428214057	9492050018800486e-21	4377312072082661e-20	-24649547586122664e-22	-4064245119656131e-20	-0.0016497913762924666	8348787535641226e-20	0.00015926772624080343	0.00022954510083407134	-0.00829520463047843	-0.0014617163305987988	-1400926694420417e-21	-18098919152659385e-22	-0.002583996696778843	-0.0023220378613823087	0.00045430597056359033	0.005650028009003973	-3845837776768922e-20	1.5570042425460777	-1.3895686936119533	1.1124971627614677	-1.0995631635291458	-3.218523226140001	-0.08119561385506212	0.14392402465229165	0.7752359338319165	-0.3171679794256219	-0.5956690121509643	-1.2725939332079736	0.9959910908234092	0.2981352505175259	-0.043628224982460724	0.14913436808900832	0.5169452478582475	0.9024341291188179	-0.5202113709352671	-0.7659496490353027	-1.5342445695495621	-0.007159605541201918	0.0199825330603318	-1.0911604670407342	-0.5840604499043696	-0.30406497644498903	-1.361397309469444	-0.12472099438115165	0.13775514664331598	-0.40443710322791426	-1.009814534068815	-0.5458422642175049	-1.2267312222699536	-0.5484621434380312	-0.6850729351447686	-0.7130381855003981	-0.31190478502577484	0.5141348951901054	2.417497013835582	-0.2561495925865138	1.2453001220369977	-0.12000718668399968	0.022432526000509472	986310386635502e-19	-0.0009658563422899455	0.002660105878146086	0.0001369903242416727	-0.002313451065432248	-0.006362226931183603	0.0009676450178610207	-40209641896429416e-21	-0.000531787711613087	-17692060070291737e-21	-0.0017743585312398973	0.00045971331940916567	-36399188239892845e-21	0.0035464460304286244	-0.0001819075343155065	8670954086029309e-20	0.011909058828285331	-6211732795360153e-21	-0.015819715357035066	-1.050419320633755	-0.9648345917499812	1.504225258441191	-0.5031305801223048	-1.5583476150913649	0.1426381723009027	0.43395366919286066	-0.3750997547103078	0.3891096275478793	0.6436221026463429	0.2049365098433498	2.085478518172381	-1.3923071789577446	0.15672014230532774	-0.7305615101403389	0.14893931899900767	-1.6072986424579663	-1.9558613097729167	0.05406874352895896	0.8066606207242656	-0.022416478881938772
0.8668514787670674	-0.9013511189273047	-0.4966378331866222	-0.9026043349612043	0.8654301250403761	2.211877497229662	0.5325675904958369	-0.2800122801237925	0.5028793892975978	-0.5159751148154395	-0.5588920990139966	-0.060582218501750384	0.12060285130283	1.852783452329187	-0.8278144381176844	0.09673645327798641	-0.2627108964500862	0.3721482108042952	0.10014230082901343	-1.5033630557305044	-0.00024043793023114656	0.0001890689165955356	-0.0007532100866065015	0.00014913770351894772	0.0004996441898841153	-3162161206371684e-21	-8867598330506815e-20	-0.0020662462204043682	0.00019645190960802355	0.00036536781624125407	0.0006293305612196244	-0.009137278852781	-0.0016854704686977808	-14672608329845779e-22	-25250075706842085e-21	-0.0029924824294768762	-0.0028219896521431416	0.0006928253418488382	0.006251955042486253	-14207464792682323e-21	1.5561893427692046	-1.3887462150105994	1.1131680921970626	-1.0987404351981227	-3.219337549444292	-0.08209009709901693	0.14323272897108377	0.7757471989965342	-0.317842682992114	-0.5949867023004275	-1.2718886468845378	0.996150242644331	0.2978435623548726	-0.04451961176876352	0.14993965416819258	0.5167025819849089	0.902928423897728	-0.5208001631809618	-0.7662001806997526	-1.53336162707105	-0.008045884030973123	0.017334716458637746	-1.0913290475989919	-0.5817340802790784	-0.30597755290362316	-1.3614751887882268	-0.12422673830836724	0.13931737531621463	-0.4055520193603244	-1.009717116147314	-0.5446835357871495	-1.2267118163425732	-0.5447535916364709	-0.6864961219742218	-0.712895987595257	-0.3146467845871402	0.5144380225858114	2.4175073471214397	-0.26409376255393313	1.2453048213596296	-0.11725331892856622	0.02019671466155231	5578907746984717e-20	6052268224103073e-21	0.0017876136754721218	0.0001570508758137902	-0.0020030300763036134	-0.005415630968512116	0.0004852069816426068	-9509327433044437e-21	-4493785879316266e-20	-16132382978832198e-21	-0.0002168928463176169	-0.0001238241051483609	2147094634821472e-20	0.002302982172676624	-539265098963386e-19	0.00013668388355168976	0.0081060104724102	-5993815643745248e-21	-0.014073737123682765	-1.0503217433966359	-0.9669541289362309	1.5024293074648611	-0.5041823385510352	-1.5604943543863214	0.14227666432116054	0.4343423227597582	-0.37649613553255173	0.38700719283866303	0.6418903134624809	0.20279922791639934	2.0837411073588017	-1.3942305052877773	0.15476967067998737	-0.7316413612721406	0.1506097796550247	-1.6051468561506306	-1.9567068948030293	0.056207710483188095	0.8062860123490561	-0.020287736866907588
0.8666608423171998	-0.9011947850088936	-0.4969474645577618	-0.902481039072557	0.8658253602390672	2.2118776486256237	0.5325310963602927	-0.2806503118969744	0.5029664266972477	-0.5158173502692497	-0.5585863876363295	-0.06423144866648953	0.11977678935549144	1.8527837899748658	-0.8278345923595567	0.09509834336436161	-0.26356036016524487	0.37238104092741847	0.10250836212299358	-1.5033295115058583	-0.0003565745021482596	0.0002830184292205084	-0.0009506776895021721	0.0002231939703741035	0.0007405144099925404	-39629780083496246e-22	-0.00011238297363103896	-0.0023034954173820526	0.000252193770725684	0.0004671542937566391	0.0008291864960929587	-0.009957981064208728	-0.0018823590537612274	-17253898027880162e-22	-3770401569880031e-20	-0.003371540932348466	-0.003117941075141076	0.0008126816061294742	0.006802322309101805	-73793452028510785e-22	1.5553238063333832	-1.387876621737955	1.1139634065549444	-1.0978706983754392	-3.2202029668736967	-0.08299994034584714	0.1424280003328899	0.7764440705309207	-0.31863962169074894	-0.5941863324664428	-1.2710774921015922	0.9963969247938208	0.2974105896746696	-0.04542792242737934	0.15080019941955722	0.5163414827338341	0.9036103093175105	-0.5215523950426368	-0.7665786491344443	-1.5324580797115643	-0.008947452615408323	0.02435866342331734	-1.091418560777848	-0.5806940783860283	-0.30609006068667804	-1.3615109749620085	-0.1248141211446692	0.13772384240485142	-0.40585714629784925	-1.009665268234544	-0.5441966078039018	-1.226702062770667	-0.5431735804038189	-0.6871892839893528	-0.7128259670791358	-0.31487592599553665	0.5145593196480551	2.4175173989546423	-0.26336866704088446	1.24530727868672	-0.12071028925331269	0.020864547869852687	47660080091818636e-21	0.00047526918249686626	0.00152334708678187	0.0001921888955516595	-0.0020256275981170827	-0.005447806679409012	0.00029173313861504714	1124842733518904e-21	0.0001838578445925816	-18500186644696408e-21	0.0005254312011847041	-0.000407504293720671	4942186464484174e-20	0.0019143142977441044	5359913218036965e-21	0.00017969671877947306	0.007201370363952122	-675858415714094e-20	-0.014227374741136502	-1.0504518452104905	-0.9663083291835318	1.5032380975106194	-0.5031719692734091	-1.559862426144898	0.1429996850309477	0.43356133147682957	-0.37554528193070386	0.387662143532019	0.6427259837651423	0.20343578526096545	2.0845766632546754	-1.3934839237698111	0.15550375133932046	-0.7306330513426026	0.14975039697025258	-1.6057802193986035	-1.9556955352974608	0.055572006434402986	0.806981797193458	-0.020940783821186477
0.8663108443489916	-0.9009084564594642	-0.49738096668735715	-0.9022553052439853	0.866550141511638	2.2118779484815048	0.5324751380355908	-0.28072127199418284	0.5030909168001974	-0.5155840120074582	-0.5580906182690021	-0.06436650375455426	0.11977763144564188	1.8527844054687195	-0.8278718578648303	0.09506955312095326	-0.2636095511175871	0.372525849010295	0.10253613640400733	-1.5032703308560647	-0.0005696199448641534	0.00045520989892821847	-0.0012967403184685653	0.0003588816889612532	0.0011817351358670567	-51687910123086355e-22	-0.00015454710803350342	-0.0025457969683361503	0.00035051113831703097	0.0006475025616438274	0.0011903085923232312	-0.010211671782122695	-0.0019565519068912955	-20693138424547524e-22	-6069794643515284e-20	-0.003500767542166304	-0.003392704785963541	0.000987659954772888	0.006993724322789944	8419693556166049e-21	1.5551285818339913	-1.387673942891258	1.1140379206693654	-1.097667747205592	-3.220398153643816	-0.08327501207511076	0.14233986620010067	0.7764583001987946	-0.3187162666227215	-0.5941048726396753	-1.2709793572313852	0.9964122706237373	0.2973946504807074	-0.045700191760635445	0.1509863188366218	0.5163265401607904	0.903623546109561	-0.5215834998819813	-0.7665964745134771	-1.532194238049883	-0.009209936623436398	0.02446017050846928	-1.0915848421260044	-0.5783095189020532	-0.3078002271105321	-1.3615795251089364	-0.12458073280123369	0.1385423281432054	-0.40692819848520323	-1.0095680565488696	-0.5430259599417351	-1.2266838084320641	-0.539360114466716	-0.6886242896665485	-0.7126820487278668	-0.31734330081252193	0.5148630476336472	2.417532817371049	-0.2700425134816703	1.245311820151169	-0.1194438313629868	0.019156433549636365	2322580761878243e-20	0.0014551426496413511	0.0006886564258764673	0.0002409432224735388	-0.0017636556126883222	-0.004641308865128664	-0.0001823179845940365	24585191301395842e-21	0.0006710579965180543	-20821199164728654e-21	0.002113140444324665	-0.0009719528945317713	0.00010526931334817472	0.000724826300427287	0.0001331061265847329	0.00024729924394191195	0.0036761152927097516	-7588594797363678e-21	-0.012760666155931098	-1.0504222913992065	-0.967927650697146	1.5019532955434216	-0.5037548622018441	-1.561507636173514	0.14293611241432497	0.43363383287955526	-0.37644597779973493	0.3860599163358549	0.6415030932472203	0.20179929281448508	2.083355899682619	-1.394906720230489	0.15405608698205606	-0.7312450723040907	0.15091642620248868	-1.604135176684292	-1.9561223124767488	0.05721009317274746	0.8069025285699388	-0.01932673442340016
0.8661276090903138	-0.9007570953529711	-0.49756762990264386	-0.9021359637400408	0.8669282599343462	2.211878019174395	0.5324506052305712	-0.28088814417300845	0.5031446566268717	-0.5154826818582039	-0.5578693526472102	-0.06604545709461178	0.11942587529562819	1.8527847030582123	-0.8278911232945855	0.09433254192617307	-0.2638381997577393	0.37260160321817837	0.10356236990469733	-1.5032382779099729	-0.0006774750348747143	0.0005420455320355594	-0.0014605945854915421	0.00042727576520571977	0.001404133306659594	-6317465364809087e-21	-0.00017477366182163626	-0.0026702098276349846	0.0003971976634249713	0.000733569158910527	0.0013653942964710038	-0.010581102556391608	-0.002043376037053367	-25384612249834187e-22	-7235730874246885e-20	-0.0036711088526496212	-0.003540795543490217	0.0010685467030098284	0.007235953539077499	7950841489929243e-21	1.554741479716596	-1.3872829088172838	1.1143677548469462	-1.0972765604460895	-3.220785405112924	-0.0837048962326226	0.14200426973870545	0.7767537693103865	-0.31904692168905924	-0.5937722439791857	-1.2706394653397466	0.9965373162155596	0.297193792073715	-0.046128917975786256	0.1513687505638862	0.5161584153306242	0.9039151648007678	-0.5218939512818163	-0.7667783160568725	-1.531769914105638	-0.00962868508580998	0.031516533986705814	-1.09166847139648	-0.5772101605226275	-0.3079793136830988	-1.361605924279442	-0.12516736771102385	0.13695585674263988	-0.4072650678627034	-1.009518299711376	-0.5425113916969609	-1.2266753877888037	-0.537670441355766	-0.689329503695741	-0.7126107354460817	-0.31767253088382563	0.5149916088143787	2.417546154308153	-0.2697539720235821	1.2453139578749726	-0.12284436354912705	0.019788821955203945	29401721734603768e-21	0.0019231647379237494	0.00040968075652064094	0.00029584712289481706	-0.001781167678875079	-0.004659471843780526	-0.00038011832438345394	29371894564391655e-21	0.0008995425109033406	-2595281390527174e-20	0.002867173045159808	-0.0012366254716055754	0.00013123365939987657	0.0003158413886841817	0.0001923922105438677	0.00030075681344068607	0.002682610457738623	-914542354222887e-20	-0.012877602532288862	-1.0506014051716024	-0.9673115195313526	1.502737487331349	-0.5027537618217647	-1.5609036685293682	0.14366834852909544	0.4328479330282136	-0.37551461330788555	0.38668477744152385	0.6423141033601866	0.20240705847048432	2.0841703844008834	-1.39419114293012	0.1547602123278552	-0.7302478054762699	0.15008240867831316	-1.6047445701203351	-1.9551150156387804	0.056603064398694565	0.8076148694907578	-0.019960470754755173
0.8658313590548573	-0.9005141104080627	-0.49785694093171795	-0.9019444671190989	0.8675386027102049	2.211878165077443	0.5324106581173926	-0.28064410645154736	0.5032289299286649	-0.5153207667919554	-0.5575011572299615	-0.06497824922178769	0.11972434391508834	1.8527851704845493	-0.8279225923784435	0.0948750989175363	-0.2634818681239914	0.37262132528010705	0.10277420295691851	-1.5031895967973778	-0.0008506397948676265	0.000681236819790367	-0.0017321228196244855	0.0005368795857213473	0.0017605312887418458	-7805563540998169e-21	-0.00020827486994343065	-0.0028016644729195093	0.0004746874983437437	0.0008763616499725721	0.0016558664324072899	-0.01051658411427903	-0.0020353080067288805	-3111276127415173e-21	-9116075119913565e-20	-0.0036457583809034904	-0.0036772453904891467	0.0011912097655788685	0.007205632084259164	11753621382526377e-21	1.5548760571812643	-1.387411141959728	1.1141384215533352	-1.0974045410234892	-3.2206512108840157	-0.08363717801258898	0.14222452355142698	0.7765147512255014	-0.31881879036344235	-0.5939973352300492	-1.2708527260931728	0.996464888396546	0.2973213512150005	-0.04605931090617693	0.15122664550247567	0.5162600748885227	0.9036823208940276	-0.5216431484373595	-0.7666665737687912	-1.5318462446195977	-0.009546425839258327	0.03205051433012033	-1.0918030202964433	-0.5750863028330894	-0.3094624609131919	-1.3616520394308573	-0.12500421562488492	0.13754729233576984	-0.40820178752153297	-1.0094378812968972	-0.5414763755233537	-1.2266615608353935	-0.5342393802207529	-0.690565893310191	-0.7124862168327011	-0.3198126327418486	0.5152586440144761	2.417563719999046	-0.27550774829718805	1.2453174372672466	-0.12194748002447107	0.018380071521783902	2743577554343545e-20	0.0027633984128185647	-0.0003083934663330532	0.00036374940647531447	-0.0015590183107556232	-0.003978599732928049	-0.000786764259684786	41681619443811054e-21	0.00131604976642426	-3162026618379632e-20	0.004251514203653169	-0.0016928331444274213	0.0001763252040583437	-0.000704818815017238	0.0003012909009270764	0.0003722552136194557	-0.0003216218273982686	-10890085546499213e-21	-0.011636397064959112	-1.050594890557596	-0.9686492867736145	1.5016939294172458	-0.5031944862992187	-1.562261314700878	0.14366609176396625	0.43285489567868485	-0.3762305310333626	0.3853610962091903	0.6413223547713797	0.2010557644444762	2.083187812012593	-1.3953631579127193	0.15356894474573932	-0.7307171703138712	0.15102827333295346	-1.6033924135871114	-1.955439236636408	0.05795556805796372	0.8075981156433929	-0.018640898530580326
0.8656592505117233	-0.9003720767485773	-0.49801198175275163	-0.9018325208547315	0.8678921669702251	2.2118781359063773	0.5323894236720605	-0.28069486271395155	0.5032739162895876	-0.5152346416091694	-0.5573053313881124	-0.06608142752256321	0.11950978580871217	1.8527853888233712	-0.8279406908568606	0.09440501151197193	-0.26355580142104446	0.37265996368480964	0.10341780067891676	-1.5031617415016405	-0.0009442722014666836	0.000755806068477242	-0.0018775556122651532	0.0005955595487700174	0.001952320973377943	-9222873420326989e-21	-0.00022634534744977116	-0.0028932027789521624	0.0005162135601220341	0.0009531270816850408	0.0018130509429310582	-0.010756869179444295	-0.0020905604126255153	-3766406620352395e-21	-0.00010137613920761069	-0.003755399935741532	-0.003783028676889874	0.0012585575070667568	0.007360714969224485	34345664104932146e-22	1.554624473616978	-1.387155854496534	1.1143379090225194	-1.0971490996510507	-3.220903139012583	-0.08392743024762966	0.1420202903971369	0.7766951586960799	-0.31901886668850143	-0.5937957039983448	-1.2706448639866996	0.9965497181879023	0.29718890539319137	-0.046348929228977376	0.15147392275206611	0.516148227011437	0.9038615806609612	-0.5218289062068593	-0.7667875835790977	-1.5315602575684337	-0.009823459759413495	0.038616870389124536	-1.091872839601387	-0.5740249306929052	-0.3096686738634169	-1.3616656500954374	-0.1255542202778624	0.13605675377933718	-0.40853406037132606	-1.0093947066102011	-0.5409804684148761	-1.226655329688171	-0.5325915439480996	-0.6912223617712979	-0.7124196696920807	-0.32017975526029957	0.5153824478122253	2.4175794480539525	-0.2755262084237438	1.245319003639622	-0.12507358583899503	0.01895168597331045	48610864292678554e-21	0.0031878583715157934	-0.0005727928060792543	0.0004352080030204075	-0.0015738611663332997	-0.003993468032312273	-0.0009702579868849024	397254754562372e-19	0.0015236713161542077	-39283219332470476e-21	0.004949185470067921	-0.001914399077799186	0.00019794075709800876	-0.0010916208708757888	0.00035514904341780334	0.0004319559465037271	-0.0012845502338354581	-13183586879720445e-21	-0.011727904118506959	-1.0508115225584216	-0.9680838688589876	1.5024175237604875	-0.5022615766793485	-1.5617051105103474	0.14435819653260196	0.4321175663946573	-0.375368431744096	0.38593399976776493	0.6420703949721074	0.20161450924007307	2.083942479383502	-1.3947081683839715	0.15421431179423334	-0.7297892017692402	0.15025988796830508	-1.6039579813178593	-1.954498772010598	0.05739736559084682	0.8082795446633037	-0.019233512930164117
0.86540990527077	-0.9001679110031686	-0.498250013758704	-0.9016716778042927	0.8684033913443858	2.2118781427726906	0.5323562357425698	-0.28044986677473044	0.5033433336956381	-0.5151007970474786	-0.5569979352500808	-0.06501769658464361	0.11980265314374233	1.8527857056397687	-0.8279671852177917	0.09494135567550217	-0.26320292042251997	0.3726651297531668	0.10264066447045672	-1.503123653387633	-0.001080423775873998	0.0008642140213982089	-0.0020992291292050314	0.0006808551847890974	0.0022306811912985816	-10875213056217659e-21	-0.00025373786964135315	-0.002991969962478494	0.0005795211852796805	0.0010699201851897282	0.0020507512673947448	-0.01066110683931895	-0.002073205771143282	-4503723772746917e-21	-0.00011626633408856579	-0.0037140038497265136	-0.0038825209856162735	0.001357049243344605	0.007306410719096507	-28428801376788653e-22	1.554777656020191	-1.3873036846074391	1.1141054837639062	-1.0972967027439124	-3.220750564883478	-0.08382853224050721	0.14224540787512488	0.7764591858963	-0.31878730554300855	-0.594024904800817	-1.2708643481516888	0.9964766070256256	0.29731617332404636	-0.04624899431137826	0.1513145152057601	0.5162499214484304	0.9036317577193552	-0.5215797878981486	-0.7666757956859254	-1.531665220553515	-0.009709066691033823	0.0389331875681795	-1.091975534118243	-0.5721888679167952	-0.31095707704849557	-1.361691029030947	-0.12540227059148426	0.1365879940317296	-0.40933983873709673	-1.0093313708602127	-0.5400901510325101	-1.2266457321645545	-0.5295907358377568	-0.6922531963126376	-0.7123154640261248	-0.3220345469737856	0.5156110788853792	2.417598017686461	-0.28055919987701333	1.2453214147788625	-0.1242154532838867	0.017730894617188967	6525311749725732e-20	0.0038807860449605043	-0.0011780920731007008	0.0005159231469911682	-0.0013821827125888686	-0.0034110688178397392	-0.0013091858586983091	42369491083877665e-21	0.0018668950339377974	-4744263802800476e-20	0.0061128294163287555	-0.0022651913510477986	0.00023253015361000885	-0.0019490518597152873	0.00044467790026516237	0.0005032472130850713	-0.0038049981094383997	-15627851381136602e-21	-0.01065841372556348	-1.0508070884647538	-0.9692467715246516	1.501503948943553	-0.5026648997065649	-1.5628820760728324	0.1443473838149418	0.43213291675900806	-0.3760082814470244	0.38478209162818716	0.641199056234854	0.20044165491375554	2.083084867544715	-1.3957365291404158	0.15317146671412502	-0.7302199877868808	0.15109508073540212	-1.6027907296184343	-1.954814947740591	0.05857105758236595	0.8082557808414912	-0.01809857421807791
0.865250155157591	-0.9000365576018516	-0.49839799200215773	-0.9015681922728227	0.8687301512743978	2.2118780136955807	0.5323359899277404	-0.2804812428711327	0.5033862486799192	-0.5150186669763088	-0.5568114771507869	-0.06591919279588229	0.11963218111546174	1.852785837278006	-0.8279840304331628	0.09456187411029747	-0.26324868188150624	0.3726994887202982	0.10315861388490974	-1.503100646238576	-0.0011585088118997449	0.0009253971526176161	-0.002230454913017627	0.0007289461102709603	0.0023894270424990385	-12519677385684366e-21	-0.00027001002653455445	-0.0030725117798247035	0.0006169950015104381	0.0011391850211931115	0.0021920445567703032	-0.010859134404194453	-0.0021186011381179996	-5325809031512045e-21	-0.00012489747409984432	-0.0038041450088793683	-0.0039747841890158675	0.0014178689986117676	0.00743401725904988	-18725282077094045e-21	1.5545675409372168	-1.3870901288261661	1.1142666110440222	-1.0970829968014897	-3.2209611503456053	-0.08407252657723248	0.1420798500130562	0.7766032948101003	-0.3189489351150659	-0.5938618637092119	-1.2706954276473605	0.9965465163351087	0.29720782731372286	-0.04649289598501001	0.15152068683125056	0.5161581041663308	0.903775183792819	-0.5217279301085164	-0.7667749227762843	-1.5314240899096832	-0.009938140215728237	0.04485000470128637	-1.0920294015428984	-0.5712017559113178	-0.31117403483199657	-1.3616913415742362	-0.12590345189080598	0.13522549015551788	-0.40965438873954546	-1.0092960689224324	-0.5396296042488644	-1.226641870742383	-0.5280427099951664	-0.692841669085758	-0.7122556917027424	-0.32241316907930495	0.5157259196012736	2.4176156887374223	-0.28079863938185784	1.2453223412316277	-0.12701093301719976	0.01823641756198932	0.00010089581048911074	0.0042469520046921885	-0.001417912670816741	0.0006019383443357114	-0.0013952908738482082	-0.0034257933193287894	-0.0014723044019691897	3370260769301375e-20	0.0020467902909721203	-57415287260985634e-21	0.006729047997400754	-0.0024374605136333175	0.00024915317701667427	-0.0022991483276314476	0.0004913807491890641	0.000567432257982852	-0.004692411319305518	-18605821710903248e-21	-0.010731669938131712	-1.0510446434539868	-0.9687383705186314	1.5021550860291093	-0.5018193662105372	-1.5623796573991187	0.14498241000190848	0.43146113715794354	-0.3752312402346194	0.3852964897596283	0.641871753700411	0.20094527519787903	2.083766460919921	-1.3951508583518804	0.1537492857669082	-0.7293800982107336	0.15040496160546088	-1.6033062108971228	-1.953961940766193	0.058067767581048986	0.808887535813532	-0.018643003544613627
0.8650348924630149	-0.8998608157786234	-0.498610384518334	-0.9014297946679922	0.8691695352897328	2.2118779036258567	0.5323065685878083	-0.28027494275010034	0.5034480699465202	-0.5148997589897643	-0.5565399261332915	-0.06500401525464794	0.11988384980252716	1.8527860307587891	-0.8280069397364888	0.09502304679949214	-0.26294949209165386	0.3727080756868961	0.102490117974549	-1.5030708926621088	-0.001266125064684588	0.001009952439209343	-0.002417647862231112	0.0007954090259677326	0.00260788430881882	-1432728473562638e-20	-0.000293100951341284	-0.003156570320650431	0.0006704553785698202	0.0012378134527826928	0.0023920680034443926	-0.010774906276113667	-0.0021032334910994687	-6209156231671905e-21	-0.00013678739947453223	-0.0037677098484683834	-0.004059250650794507	0.0015017818853230315	0.007385902415722738	-3346375412689376e-20	1.5546960235259553	-1.3872139856887769	1.1140689661896508	-1.097206648090013	-3.2208333891661525	-0.08398869841252374	0.14227113368394645	0.7764009384049327	-0.31875197843147296	-0.5940568204546923	-1.270881861524154	0.9964837335692517	0.29731740391307787	-0.04640873150704856	0.15138690274451	0.5162457246044849	0.9035780556191987	-0.5215148865354745	-0.7666789619584001	-1.5315119302218079	-0.009837852746426247	0.045005086345187024	-1.0921063096340755	-0.5695958637819418	-0.3123084848004483	-1.3616995020962246	-0.12576134132983452	0.13570748834974447	-0.4103573299419163	-1.009246451405549	-0.5388540331763547	-1.2266357136891706	-0.5253878277042966	-0.6937115657492623	-0.7121675087425717	-0.32404255713803914	0.5159242793515257	2.417635290670152	-0.28524885965785357	1.245323853448403	-0.12619317094056764	0.017166995141143407	0.00013338398304454425	0.004820053732415756	-0.0019341214736729234	0.0006942812605415314	-0.0012280871064494143	-0.002921681326806605	-0.0017576760590036914	28252655016630626e-21	0.00233103783145188	-6774122214939213e-20	0.007712290612863708	-0.002704001640725019	0.00027528015625369535	-0.0030278444099750067	0.0005654451646758521	0.0006392730808221607	-0.006830866739397444	-2167908651682688e-20	-0.00980010992572429	-1.05104050847625	-0.9697615772598788	1.501344782929701	-0.502190928862213	-1.5634121838479909	0.14496572582276634	0.4314820020207095	-0.3758090570861083	0.38428176540046527	0.6410964658024767	0.19991501756495464	2.083007693296855	-1.3960640187225208	0.152824995825494	-0.7297778192763493	0.1511512426397375	-1.6022870597294674	-1.954267893560947	0.059098557961731274	0.8088589888177421	-0.017656264725980395
0.864888355550559	-0.8997409000363468	-0.498755726463773	-0.9013353621054605	0.8694680109752906	2.2118776795326496	0.5322869186496049	-0.28030759292534824	0.5034901246509867	-0.5148196161986027	-0.5563602091911095	-0.06578258304712285	0.1197374846048665	1.852786076369602	-0.828022453835003	0.09469635427499729	-0.262994115032402	0.3727449612660331	0.1029366033804407	-1.5030528420722218	-0.0013284762115369528	0.0010576374572862492	-0.002535280537155842	0.0008328297593202678	0.0027334833884325874	-16168162886945175e-21	-0.00030761415593092323	-0.0032306238050157443	0.0007040366151229456	0.0012998116808355005	0.0025176176372798975	-0.010948987470285523	-0.002143392474229843	-7181469647464335e-21	-0.0001438130985757798	-0.003847134211886059	-0.004143966770138709	0.001557421103641724	0.007498604311822674	-5640351703276085e-20	1.5545075882651416	-1.387022395181286	1.1142112650296447	-1.0970149149044586	-3.2210223640681703	-0.0842060290989575	0.14212458092558689	0.7765255482267266	-0.31889472771185395	-0.5939127429935059	-1.2707321290779574	0.9965442476450834	0.2972237828979525	-0.04662649274115877	0.15157175667404	0.5161663242475051	0.9037019680191225	-0.5216439758800671	-0.7667645770043959	-1.5312960756901444	-0.010038831046024384	0.05027601280815598	-1.0921438168863438	-0.5687017202721304	-0.31252230018774463	-1.3616868845983405	-0.1262140311873704	0.13447229358043836	-0.410646547226701	-1.0092193547335706	-0.5384372814379291	-1.2266342012349067	-0.5239712887170149	-0.6942246600969857	-0.7121153340952672	-0.32441156648904956	0.5160280788153773	2.4176545765091886	-0.28562113567795444	1.245324129956804	-0.12867528637510395	0.017618506303926716	0.000182550073912684	0.005121638366666146	-0.002144190856780326	0.0007931403914059321	-0.0012410564021239298	-0.0029404622593625996	-0.0018978120137058186	1320229623153469e-20	0.002480419778084002	-7979712338237193e-20	0.008235088424065614	-0.0028259907900407915	0.00028678297001447604	-0.0033338896865245608	0.0006043369516679928	0.0007068510125186375	-0.007616575736062996	-25285236458619042e-21	-0.00986637233323789	-1.051286797178863	-0.9693012231509431	1.5019297625025105	-0.5014302410565579	-1.5629545861134455	0.14554236257309677	0.43087587542187605	-0.3751122716320159	0.3847465638628107	0.6417000592977312	0.20037250172442692	2.0836215454093976	-1.39553938483532	0.15334333169630424	-0.7290230679997445	0.15053302645627864	-1.6027611153792718	-1.9535007125769588	0.05864119320593952	0.8094376968403453	-0.01816068276208319
0.8646991947251935	-0.8995870400170631	-0.4989523807423398	-0.901214244501725	0.8698525088118088	2.211877466851724	0.5322599780128933	-0.2801404193393248	0.503547223640849	-0.5147102358428003	-0.556112988257484	-0.0650061665793	0.11995089006295652	1.852786165007224	-0.8280426379117772	0.09508759101812651	-0.2627480587223158	0.3727600762760495	0.1023692749608667	-1.5030299160521097	-0.0014130168605871252	0.0011228184649972638	-0.00269638778224483	0.0008839969973019666	0.002903690756051615	-1812975168879801e-20	-0.0003274179141506975	-0.003305723037825141	0.0007500393007800871	0.0013846313633057526	0.0026886922759278803	-0.01088038126381647	-0.002131348233135105	-8201253129422454e-21	-0.00015329224309120078	-0.0038178377304291695	-0.00421990028276583	0.0016309657281618445	0.0074600811494792375	-7858699960272214e-20	1.5546093399510288	-1.3871200811307252	1.1140476067378644	-1.0971124138741335	-3.22092138211581	-0.08414122291942969	0.14228248408104927	0.7763547232117783	-0.3187316466518865	-0.5940740532994502	-1.270885705161701	0.9964911393488114	0.29731680418484413	-0.04656195144377155	0.15146539454030664	0.5162407489543449	0.9035354426655452	-0.521465248608151	-0.7666833713656379	-1.5313631696878964	-0.009956558780566983	0.05034114265945269	-1.0921990133060815	-0.5672870201916952	-0.3135291044531796	-1.361680140353537	-0.12608368276455673	0.13490471296146678	-0.4112654485098837	-1.0091811887582383	-0.5377562041216296	-1.2266309599997223	-0.5216056767240594	-0.6949637941640496	-0.7120402713190085	-0.3258545723344998	0.5162016804281631	2.4176752647568662	-0.28957722542063347	1.2453248573791387	-0.12791419084971067	0.016681314894559172	0.00022915571386677647	0.005593366048696277	-0.002587119302375197	0.000896524301955701	-0.0010947604215266636	-0.002502306245283906	-0.00213915665945268	6667792898656328e-22	0.0027153153566860616	-9209817937770796e-20	0.009064903299495003	-0.003022388708302124	0.00030580650809910185	-0.003956927862195719	0.000665572631643252	0.0007798959462116059	-0.009441329232802513	-28946987357509134e-21	-0.00905244234394812	-1.0512836726597694	-0.9702032556238904	1.5012099462289592	-0.5017687612739881	-1.5638619103302218	0.14552500701353518	0.4308968462460933	-0.37563230770368233	0.38385089637160424	0.6410096366982967	0.19946587089644538	2.082949206021802	-1.3963513463209174	0.15252266936373232	-0.7293863321257992	0.15119983451900337	-1.601870483505663	-1.9537898680660837	0.05954809706355992	0.8094094097548745	-0.01730287991487431
0.8645653327950996	-0.8994781116767401	-0.4990967718900506	-0.9011285051102748	0.8701240368145021	2.2118771550080205	0.5322407428012366	-0.2801799495672003	0.5035889003763576	-0.5146312220240629	-0.5559385395359094	-0.06568626314373083	0.11982256485949476	1.8527861295903418	-0.8280568813853595	0.09480197193127238	-0.26279888255284206	0.37280140855896815	0.10276060334891532	-1.5030165735537815	-0.001460520498953514	0.0011577814365035365	-0.0028015262613881042	0.0009113651223167126	0.0029981905587399805	-2014366770704339e-20	-0.0003402991413867818	-0.0033750791360873875	0.0007800399236702673	0.0014399203572307401	0.002799575177587085	-0.01103651040354391	-0.0021677923844853333	-9308967615449172e-21	-0.0001588038982511162	-0.0038894394503318132	-0.0042993419464338765	0.0016822058048969865	0.007561973180297649	-0.00010796750883939745	1.5544364476979657	-1.386944309840409	1.114176919302572	-1.0969365091214536	-3.2210948427095607	-0.08433825106419836	0.14214903218163072	0.776464893273304	-0.31886137396390235	-0.5939430532863696	-1.2707492107512264	0.9965440405139737	0.29723498621668903	-0.04675989589402095	0.15163503801462264	0.5161713892908598	0.9036447698380942	-0.5215808298657478	-0.7667581351999013	-1.531166316648427	-0.010135996638866447	0.05501160889471296	-1.092220894645897	-0.5664895428553063	-0.31373372381630943	-1.3616554752743406	-0.1264906059259966	0.1337902986293501	-0.4115275318479305	-1.0091619787457644	-0.5373845842569354	-1.226631651006879	-0.5203285048618318	-0.6954028826170915	-0.7119956184523276	-0.3262047959081479	0.5162941680045516	2.4176959297823393	-0.29002744514849693	1.245324511794972	-0.13011117005660372	0.01708832234566498	0.00029068181803364217	0.0058307153588416484	-0.0027669287822797146	0.0010067728801803424	-0.001108283824557766	-0.0025264686645127517	-0.002256527891987078	-2026358983600655e-20	0.0028345650984106063	-0.00010601943859786682	0.009493106926118051	-0.0030966714985909472	0.00031242515728954447	-0.004218301157852355	0.0006968080265406268	0.0008502122167096831	-0.010119085467194972	-3312424858076991e-20	-0.009117484814946132	-1.051530014109155	-0.9697845688602025	1.5017347716881428	-0.501087122917533	-1.5634429398979928	0.14604583625879355	0.43035254546333407	-0.3750092858706229	0.3842725336563613	0.6415503765446335	0.19988350092441154	2.0835008230239476	-1.395880858199453	0.15298813486913262	-0.7287106713603495	0.15064691317149148	-1.6023089860801947	-1.9531029083650746	0.059130388498314264	0.8099359718442138	-0.01777287432856023
0.864397111381367	-0.8993418901234901	-0.4992832687593028	-0.9010213171184509	0.8704646038070586	2.211876850416773	0.5322155281451957	-0.2800486260426401	0.5036429141256213	-0.514528239017621	-0.5557087272453303	-0.06502596403539826	0.12000360834591958	1.85278612636713	-0.8280748951518924	0.09513441691457854	-0.26260088335111953	0.3728239309320203	0.10227861181704852	-1.5029994556941626	-0.0015256538051731097	0.0012066087538936765	-0.0029418862131840792	0.0009496224590967622	0.003127963420513523	-22254126393465973e-21	-0.0003574665376913985	-0.003444219594651605	0.0008201085250286815	0.0015137179862978775	0.002947341868967576	-0.01098273463987869	-0.0021590921944855315	-10456289535629709e-21	-0.00016626659085245226	-0.00386705278437099	-0.0043699818203920444	0.0017478976687798848	0.007532929832041619	-0.00013682128708895208	1.554514048782104	-1.387018297218701	1.1140429176371351	-1.0970103261822906	-3.2210180194686724	-0.08429116274798236	0.1422776898752356	0.7763208926815781	-0.3187278744269933	-0.5940749370000844	-1.2708739099811261	0.9964989735383721	0.2973141403100298	-0.04671360204877229	0.15155336787549545	0.5162347737961345	0.9035042173078704	-0.5214316291990543	-0.7666892190773912	-1.5312141976899578	-0.010070444234441565	0.05502645472932016	-1.0922572119618308	-0.5652401726227992	-0.31463143755062134	-1.3616355203890378	-0.12637236030069873	0.13417575195599393	-0.41207522564553495	-1.0091337034449366	-0.5367844471214994	-1.2266309531499688	-0.5182149735067222	-0.6960315583802115	-0.7119317223417193	-0.3274888729134823	0.5164467241557467	2.4177176938471834	-0.29355554578913023	1.2453245372466533	-0.12941204040218696	0.016268584345837875	0.00035004132558073516	0.006213627556416467	-0.0031474437267663656	0.001120531218048235	-0.0009803000802389818	-0.002145371647097742	-0.0024603457630366465	-3912220954903383e-20	0.003026670016255124	-0.00012012857029766113	0.01018761396916369	-0.0032327003832139725	0.00032529185750067774	-0.0047515458227137194	0.0007470141433778585	0.0009247656256941969	-0.01167792036179564	-3733529224528759e-20	-0.008406326329311162	-1.0515283588020565	-0.9705797887697062	1.5010949185420945	-0.5013934637919646	-1.564239930305794	0.1460302397545872	0.43037116473026665	-0.37547624212827535	0.38348183866795793	0.6409353950616342	0.19908582332642025	2.0829045697323005	-1.3966029206398114	0.15225918291412469	-0.7290402608582747	0.15124247380244885	-1.6015317171329595	-1.9533722762378627	0.05992811212671704	0.8099103205551065	-0.017029005164332547
0.8642747826133182	-0.8992429824997394	-0.49942777895255797	-0.90094350469476	0.8707117057137552	2.2118764586135735	0.5321965654140103	-0.2800966610864188	0.5036845324810515	-0.5144497409260831	-0.5555382175579926	-0.06562003646132487	0.11989052268741239	1.8527860164264451	-0.8280879881787353	0.09488415989942715	-0.262660089295313	0.3728703168306212	0.10262247550862927	-1.502990434939605	-0.001559608232623223	0.001229962035799624	-0.0030359129459355434	0.0009678193913264762	0.0031941989280364355	-24422543107222096e-21	-0.0003688871536676252	-0.003510012782862828	0.0008469249284229437	0.0015630267168843582	0.003045066089972983	-0.011124026455838055	-0.0021925939413651417	-1168642333223395e-20	-0.00017039827028139226	-0.003932316856131126	-0.004445514527637295	0.0017954276068863663	0.007626093291910898	-0.00017202182033692346	1.554353770177513	-1.3868553926358032	1.1141618183237394	-1.0968472978631398	-3.221178868184717	-0.08447121133188135	0.14215472253258093	0.776418931525436	-0.31884716372025623	-0.5939544126324068	-1.2707480020640591	0.9965452020259302	0.2972426388279345	-0.046895009403612936	0.15171069062883527	0.5161742282193685	0.9036012294415333	-0.5215361522221144	-0.7667545115721818	-1.5310331352648079	-0.010231810434199594	0.05915486658597657	-1.0922646722158844	-0.5645357156109249	-0.31482489570774497	-1.3615998624999288	-0.12673700882729977	0.1331736361344896	-0.41231114057872653	-1.0091217865198998	-0.5364559126196672	-1.2266336564069056	-0.5170731320572742	-0.6964018277698667	-0.7118941110471995	-0.3278173904882201	0.5165284725764651	2.417739560665928	-0.2940499870468771	1.245323613916222	-0.13135352589255955	0.0166383020564316	0.00042274346737351966	0.006390230681590036	-0.003298639673659576	0.0012409306829993384	-0.0009945834773168372	-0.002174818996882145	-0.0025564327644912576	-6538349393799762e-20	0.0031176222394261478	-0.00013571671175811555	0.010525366724406082	-0.0032632500523497245	0.00032741165702805235	-0.004970720398654149	0.0007711075195533713	0.0009974059153247802	-0.012251142651366932	-4202929041409531e-20	-0.008472759545127693	-1.0517688299515948	-0.9701982767171652	1.5015648382427997	-0.5007842783010384	-1.5638553492446288	0.14649927020047535	0.4298835662810495	-0.37492045550140096	0.38386492064249217	0.6414188755761498	0.19946794934597833	2.0833989891250586	-1.3961810830962953	0.15267701344200063	-0.7284369504748835	0.15074884933034724	-1.6019385984284975	-1.9527588418198143	0.05954572718136326	0.8103874569240048	-0.017468332530049948
0.8641238471721505	-0.8991213870183281	-0.4996076744031824	-0.9008478678427233	0.8710160770687134	2.211876071142303	0.5321725809837609	-0.2799975856351107	0.5037365123829697	-0.5143511201696833	-0.5553211914653682	-0.06505469608222098	0.1200446523348404	1.8527859315589097	-0.8281042224906554	0.09516814122018996	-0.2625048739136847	0.3729004189389952	0.10221110820660148	-1.5029783584406589	-0.0016080640210783552	0.0012646945839985923	-0.0031592842576572003	0.0009949510344163391	0.0032893311781634076	-26673966925935397e-21	-0.00038388034741195556	-0.0035750544443183614	0.000882133967649082	0.0016277749771750755	0.0031735494914482587	-0.011083398172821501	-0.0021869751058272865	-12952222364296681e-21	-0.00017613565698065158	-0.003916145326570896	-0.0045128029712770195	0.0018549692129817383	0.007605683894509129	-0.00020688125464952866	1.5544103478744298	-1.3869087319929028	1.1140531525882544	-1.096900482010949	-3.2211230513844797	-0.08443965025676127	0.14225833122867806	0.7762973495097047	-0.3187389465884874	-0.594061122428748	-1.270847920438656	0.9965066560431093	0.2973104452261131	-0.04686471431705985	0.15165048078762033	0.5162286023827933	0.9034823284673797	-0.5214119018141395	-0.7666955963186578	-1.531064173183138	-0.010180828603713988	0.05914044002439766	-1.092284332519594	-0.5634321379744054	-0.31562810983956097	-1.361568100708851	-0.12663020676082068	0.1335166502229247	-0.41279738890938067	-1.0091021919172114	-0.5359264871113706	-1.2266352043387871	-0.5151835895217525	-0.6969352548989303	-0.7118399096124869	-0.3289640196302666	0.5166627817958783	2.4177623504163437	-0.29720454530652524	1.245323006553618	-0.13071495861484642	0.01592304110395008	0.0004936441932088757	0.006694109916044229	-0.003625075733233655	0.001364311615634395	-0.000882764992728939	-0.0018435592160910403	-0.0027276794631911406	-8991407070572745e-20	0.0032720043585029845	-0.0001514737441986561	0.011098641055065825	-0.003346494445467657	0.0003348639273106278	-0.005426315620894004	0.0008116648782728613	0.001073571383240509	-0.013581024548993403	-4674843958431825e-20	-0.007852091809625011	-1.0517687439847334	-0.9708992636694089	1.5009953167373244	-0.5010607731376828	-1.5645549905407952	0.14648623330165716	0.4298990870809013	-0.37533961652370545	0.3831668394474976	0.6408705217059257	0.1987664008231619	2.0828693253965986	-1.3968235180068835	0.15202906559289384	-0.7287351659184651	0.15128109712024038	-1.601261439446391	-1.9530078333332148	0.06024712150405236	0.8103651995216438	-0.01682520489393672
0.8640117866534144	-0.8990314233590035	-0.49975298350637787	-0.90077713005739	0.8712414833804389	2.2118756069696537	0.5321537838308049	-0.28005430948278026	0.5037782836108138	-0.5142727067752577	-0.5551535347423603	-0.06557170563572885	0.11994501847289615	1.8527857538427785	-0.8281162958903814	0.09494936186775443	-0.26257281941225397	0.37295192210191325	0.10251264866814892	-1.5029732424094915	-0.0016298355357809192	0.0012776040731012404	-0.0032435534799141255	0.001004899427948544	0.00333022974211508	-2898132579309599e-20	-0.0003940126163169094	-0.0036380798317781834	0.0009061556575012741	0.0016718276839924958	0.0032596480851928107	-0.011211945758096293	-0.002218026507424879	-1429324101044424e-20	-0.00017902784611866112	-0.003976040540779568	-0.0045853500360349955	0.0018993731009340567	0.0076914674853845785	-0.00024731544934204416	1.5542608431236298	-1.3867568278783406	1.1141631477670322	-1.0967484637534288	-3.2212731110729265	-0.08460499112305281	0.14214431427826899	0.7763847111870186	-0.31884930965711994	-0.5939495507159361	-1.2707310389252369	0.9965468990116672	0.2972481929415617	-0.04703181318310846	0.15179728378183766	0.5161759743977066	0.9035684746875985	-0.5215068292209579	-0.7667524146027729	-1.5308967454457434	-0.010326512976845717	0.06278731044742127	-1.0922787129988025	-0.5628140253948269	-0.31581020500742474	-1.3615225228889911	-0.12695633527523914	0.13261753255081687	-0.41300916360499945	-1.009096889762313	-0.5356376666561005	-1.226639720170065	-0.5141679713875135	-0.6972431382048091	-0.7118087172199082	-0.329270672471562	0.5167346808497801	2.4177852756949134	-0.29772158421210304	1.2453215555499262	-0.13242954455024816	0.016261357957885164	0.0005763917374527013	0.006814701441001666	-0.003750087855542227	0.0014937797859588182	-0.0008978214712087223	-0.0018777128162721034	-0.0028043961075929157	-0.00012096706615656293	0.003337030131450505	-0.0001685495396767072	0.011352340443431495	-0.0033376218016869267	0.0003329119041168534	-0.005606885863857492	0.0008292535905950504	0.001148244751269418	-0.014057039740570728	-5190810721982032e-20	-0.007921080519914647	-1.0519995286316213	-0.9705512208720279	1.5014152763123747	-0.5005172642995924	-1.5642013634510876	0.14690799133658117	0.4294627103745747	-0.37484465439520837	0.3835152035611021	0.6413020347816347	0.19911657505944724	2.0833114445955294	-1.3964454880114123	0.15240388928940854	-0.7281973488806962	0.15084110761224404	-1.601639851356434	-1.9524609641750938	0.059896526652439296	0.810796480334852	-0.017236897426846372
0.8638753788365462	-0.8989221694413164	-0.4999286066960244	-0.9006912405498358	0.8715154823810132	2.211875144677361	0.5321306914612419	-0.2799839080647566	0.5038289251977374	-0.5141770805151458	-0.5549460760741982	-0.06508304600867475	0.12007695744672427	1.8527855959735982	-0.828131043757606	0.09519380328394464	-0.2624553205451177	0.37298938448011737	0.10215914143490915	-1.5029655853387844	-0.001663792172654015	0.001300053698396506	-0.0033527456357808397	0.0010223364022180254	0.00339532214212543	-3136445065916275e-20	-0.00040718071226198197	-0.0037002219372257333	0.0009373095618534337	0.0017290101321257969	0.0033719035792702666	-0.011182579888173113	-0.002215130122443995	-1566846219187717e-20	-0.00018327016850814168	-0.003965261744807193	-0.00465048795759898	0.001953979637152702	0.007678614385570373	-0.00028758355302716226	1.554299466945174	-1.386792530533537	1.114075890806323	-1.0967840249114376	-3.221235216221819	-0.0845866268449664	0.14222671956840413	0.7762816964407517	-0.31876246089958093	-0.5940349708929643	-1.2708099541415023	0.9965135715351362	0.29730683217830284	-0.04701513616630786	0.15175538749870046	0.5162230971539028	0.9034674582621413	-0.5214034675880828	-0.7667015364533782	-1.5309134211696303	-0.010287828631159025	0.06275493949624125	-1.0922836009838892	-0.5618399426014739	-0.3165311499841662	-1.3614801930715164	-0.12685987597437245	0.13292327940760082	-0.4134419720286938	-1.0090849600854717	-0.5351705077974335	-1.2266432589412057	-0.5124787543032895	-0.6976936511116354	-0.7117630049184946	-0.330297775894504	0.5168530354093045	2.4178090218890596	-0.30054956306161323	1.2453203776591766	-0.13184699624019786	0.015638780921448592	0.0006577133723294784	0.007047912547590099	-0.004029327701697853	0.001625998419954778	-0.0008002855020986562	-0.0015900829376872773	-0.002947154564532473	-0.00015058404330210433	0.0034579577866433514	-0.00018580053478544972	0.011816508896859248	-0.0033744160588090374	0.00033557759710906205	-0.005994829356353844	0.0008613118150930061	0.0012260231345040391	-0.015188461086165837	-57093128770524826e-21	-0.007380175899733185	-1.0520008951093291	-0.9711693248354787	1.5009072450997007	-0.5007668771794879	-1.5648153535873892	0.1468975441885331	0.4294751806935464	-0.3752214097836474	0.38289857669161503	0.640812107567659	0.19849959881609439	2.082839678283793	-1.3970177671098503	0.1518271580624886	-0.7284671689161678	0.15131757252603906	-1.6010508497639142	-1.952690295497751	0.060513171914293215	0.8107775945037018	-0.01668257158134101
0.8637723944444297	-0.8988401285444213	-0.5000750699550487	-0.9006267693386593	0.8717217431382278	2.2118746152995534	0.5321119889312728	-0.28004888211249024	0.5038709676447518	-0.5140984876672913	-0.5547804807661596	-0.06553063809541458	0.11998937879243549	1.8527853569992792	-0.8281422192523171	0.09500332300768255	-0.2625315995241188	0.37304578322856174	0.10242255815155701	-1.502963969281638	-0.0016746801874002928	0.0013036284960145712	-0.003428458790542807	0.0010249134386541242	0.0034136390593709435	-33797066974230424e-21	-0.0004161802780717862	-0.0037610306024879565	0.0009588827830405716	0.001768455508728874	0.0034477724397353345	-0.011299967867257427	-0.0022440785290925628	-17109913462807506e-21	-0.00018505573304169123	-0.004020495234488435	-0.004720672141242058	0.0019957252218138558	0.0077579967439815765	-0.0003327082507315482	1.5541593965502944	-1.3866502620594636	1.114178041505596	-1.0966416514305926	-3.221375816382005	-0.08473901693108957	0.1421205757623548	0.7763595031502302	-0.3188649613841914	-0.5939312820093374	-1.270701004264264	0.9965484159980333	0.29725292003540804	-0.04716964240041822	0.15189297601421617	0.516177613533284	0.9035438701968811	-0.5214898672858506	-0.7667507272906007	-1.5307579825384021	-0.010419689505386824	0.06597829063844744	-1.092266237030958	-0.5613004956011853	-0.3167023660656221	-1.36142572682002	-0.12715126855951753	0.1321176044005529	-0.4136319293650776	-1.0090855917562578	-0.5349176513000007	-1.2266493941055014	-0.5115784563083744	-0.6979457120483936	-0.7117375826613217	-0.33058353082241565	0.5169160542229698	2.417832882861204	-0.30107476430860985	1.2453184499263426	-0.13336140106745586	0.01595073340836418	0.000749449380186841	0.007117592720446875	-0.004130759774104935	0.0017635664689945932	-0.0008160682584453969	-0.0016282879185347287	-0.003006483459933102	-0.0001859187762544909	0.003499549721272946	-0.0002042013264154175	0.011993349329680068	-0.0033303321631015063	0.0003299769480106398	-0.006140635847295682	0.0008730515766178206	0.001302502422155066	-0.015575869480712648	-6267056369268654e-20	-0.007452255042778308	-1.0522197509975013	-0.9708513438850018	1.501282068205878	-0.5002823625240856	-1.564489536594425	0.14727665677692858	0.42908460175031415	-0.37478104314022265	0.38321576513603245	0.6411967874608623	0.19882107873572524	2.0832343663773174	-1.3966790137864702	0.15216333779516578	-0.7279881181747526	0.15092577030547652	-1.6014036749925518	-1.9522031213162097	0.060191128068677206	0.811166956464683	-0.017069420476580492
0.8636483453953651	-0.8987414102218104	-0.5002479353358635	-0.9005492011443185	0.8719699359656298	2.2118740855370165	0.5320895556467236	-0.2800037045397565	0.503920729459233	-0.5140049340304301	-0.554580310898905	-0.0651031936709929	0.12010316523241153	1.8527851337196466	-0.8281557091379216	0.09521580497527611	-0.2624470394653444	0.37309014310366256	0.10211602139019052	-1.5029602048834503	-0.0016959482200020425	0.0013153084324619973	-0.0035256485917838586	0.0010338508360071158	0.003452496384399829	-3630214251849251e-20	-0.00042779693346603833	-0.003821043813072929	0.0009866057502814674	0.0018192289595558202	0.003546207899698229	-0.011279994552187334	-0.002243514354847841	-18585716748872116e-21	-0.0001879926817969731	-0.004014268933474984	-0.004784384575813693	0.0020462879151474296	0.007751562402641132	-0.00037784051699650756	1.5541829218166232	-1.3866711372779956	1.114108703143772	-1.0966623975559122	-3.221352980031424	-0.08473160343235644	0.14218521423060745	0.7762717410623565	-0.31879599863005764	-0.5939988760084085	-1.2707623064443294	0.9965192142648759	0.29730423955318364	-0.04716429264850669	0.15186647878408843	0.5162189743134612	0.9034575054509179	-0.521403849635633	-0.7667062347285102	-1.5307626732269672	-0.010391120686525942	0.06593403709421794	-1.0922580144142409	-0.5604415653983938	-0.31735162348408164	-1.361373950609011	-0.127063895200003	0.1323912595339346	-0.4140181364746611	-1.0090804385665695	-0.5345054354109527	-1.226654698018486	-0.5100684443797304	-0.698323774139067	-0.7116993253613437	-0.3315065547603827	0.5170204199258907	2.4178575085643716	-0.30361747136463385	1.2453167592383438	-0.13282900267539274	0.01541003802946519	0.0008401491895021016	0.007287627134762584	-0.004368714767202308	0.00190384250725531	-0.0007311250198071667	-0.0013788189207749834	-0.003124261365346062	-0.00022008647045501886	0.0035907814834646944	-0.00022280014982792548	0.01235940842519265	-0.0033261707978273726	0.00032840730865705924	-0.006469485449181208	0.0008976097046505665	0.0013818425008942543	-0.016534837549419985	-6827945018743746e-20	-0.006981531147543611	-1.0522223369149735	-0.9713968628513898	1.5008274791200173	-0.5005082393784056	-1.5650284827167136	0.1472684808685205	0.4290944191818668	-0.3751206037090343	0.3826704651171782	0.6407577536427831	0.19827819512564832	2.0828126299301464	-1.3971898397575793	0.1516488881087251	-0.7282327417861805	0.151353462793653	-1.6008919829572505	-1.952414204865682	0.06073352506414204	0.8111510595452652	-0.016593036735801217
0.8635533789614036	-0.8986663792573613	-0.5003956550325599	-0.9004902742195027	0.8721593050554434	2.2118734976397514	0.5320709075441229	-0.2800762163357862	0.5039630878359086	-0.513926034243556	-0.5544162544318174	-0.06548837559401342	0.12002642041414016	1.8527848396127267	-0.8281660935140883	0.09505077325786235	-0.26253092314127335	0.3731510583588457	0.10234509893414911	-1.5029617115023	-0.0016971421870125801	0.0013105656065584765	-0.003593830243490036	0.0010298606340998718	0.003450736465849543	-3884762098468421e-20	-0.00043579865625117427	-0.0038800067191910453	0.0010060262301344733	0.0018546245842557879	0.0036130647434329424	-0.011387505402516061	-0.00227062086273292	-2011799455211389e-20	-0.00018879256097083843	-0.004065392948034425	-0.004852614367929048	0.002085738115373829	0.007825303199403255	-0.0004271555937556638	1.5540512181914174	-1.3865374141004392	1.1142038571151982	-1.09652857789443	-3.2214851830001288	-0.0848724949723584	0.1420860883952121	0.7763409656224918	-0.3188914850665587	-0.5939022188070782	-1.270660422226119	0.9965491972808445	0.2972578339989118	-0.04730762020368104	0.15199589150042145	0.5161799213245305	0.9035251715910897	-0.5214826092169843	-0.7667485698413145	-1.530617875413487	-0.010510700799002402	0.06878752947180777	-1.0922301769815466	-0.5599730247067729	-0.3175126592870588	-1.361311564146301	-0.12732424073383886	0.1316695521443671	-0.41418856861103226	-1.009086354478877	-0.5342848298257102	-1.2266622712978204	-0.5092722854685209	-0.6985262542150742	-0.7116790475210714	-0.33177277246918385	0.5170755051892671	2.4178821961705164	-0.30414092755785926	1.2453144043455948	-0.13416780979601578	0.015700021515026006	0.0009398941438755015	0.00731145936140601	-0.004449089643791628	0.002048630028789025	-0.0007475809944676485	-0.001420496094881077	-0.00316810266341364	-0.00025922828137826495	0.003611371709156708	-0.0002423775966130787	0.012466692549025314	-0.0032508204378831657	0.000319559051355938	-0.0065842487628925755	0.0009041304747939439	0.001459935796844866	-0.016842350443464334	-7422978201958176e-20	-0.007056969103191037	-1.0524281755098737	-0.9711056675063315	1.5011618886325366	-0.5000762806029582	-1.564727448052214	0.14760946848807568	0.428744462894862	-0.3747288480193953	0.38295988458646174	0.641100589101377	0.19857411569971806	2.0831647098970327	-1.3968860348059653	0.15195062487807168	-0.7278059958602459	0.15100460304051436	-1.6012220088317084	-1.951980122821619	0.06043691469946305	0.81150253992142	-0.01695775295010425
0.8634399387187992	-0.8985767308451444	-0.500566721057342	-0.9004198698949403	0.8723853676326867	2.211872907162209	0.5320489731701866	-0.2800530104880018	0.5040122659282377	-0.5138339390536497	-0.554221751020894	-0.06510923318828192	0.12012547303025886	1.8527845577159274	-0.8281785081333743	0.09523766239525569	-0.2624748788576508	0.37320171232900107	0.10207634763599208	-1.502961382901335	-0.0017072623146154476	0.001312769235973713	-0.0036807448623823987	0.001031319836539863	0.003466581588411746	-4146489722860598e-20	-0.0004460835799584284	-0.003938376079183047	0.0010308141806070136	0.0018999125546573193	0.0036996237063184625	-0.01137517490180865	-0.002272002134885265	-21685891932244046e-21	-0.00019058428449197448	-0.004062916783520519	-0.0049153143731397	0.0021329223319265945	0.007824180461307118	-0.0004766533663823521	1.5540622213868625	-1.3865460009457236	1.114149381885385	-1.096537046814061	-3.221474825199789	-0.08487397124014112	0.14213598076732187	0.7762656340527605	-0.31883735727211077	-0.593955025882653	-1.2707071002215973	0.9965232161549249	0.2973033776108618	-0.047311496267838454	0.15198217038849426	0.5162167627216487	0.9034507137037867	-0.5214108777890442	-0.7667090913048252	-1.530612758474222	-0.010490252249899927	0.06873436262945383	-1.0922103337142164	-0.5592163226237833	-0.31809951804300596	-1.3612513654267466	-0.12724467462979538	0.13191601772633957	-0.41453413469914263	-1.0090871861717257	-0.5339210575677309	-1.2266691378117924	-0.5079221656877628	-0.6988409500203961	-0.7116473376505567	-0.33260523329632	0.5171676059965193	2.4179076228479204	-0.3064349536566745	1.2453122547235107	-0.13367924789092517	0.015231314828767098	0.0010390038138408007	0.00742515185556468	-0.004650933962232307	0.0021962102120025103	-0.000673702054941553	-0.001204321766226836	-0.0032639751973626723	-0.0002974549759846837	0.0036762821573859696	-0.0002621871711502363	0.012744809730735484	-0.003210554985655467	0.00031424608144494715	-0.006861470770594082	0.0009220740072284241	0.0015407603292997224	-0.017651408299972027	-8022173142506101e-20	-0.006647799848768722	-1.0524316873879682	-0.9715879382937915	1.500753466128899	-0.5002815320877073	-1.5652009654223098	0.14760309298791338	0.42875216944300204	-0.37503611314970975	0.3824767293894406	0.6407055927099001	0.19809582563680272	2.0827859386577394	-1.3973433593115931	0.15149033337881584	-0.7280286148187639	0.1513899676498382	-1.6007777854499357	-1.952174736048117	0.060914581774359544	0.8114890884436059	-0.01654944580658403
0.863352073120881	-0.8985079128497508	-0.5007156185690853	-0.9003658565728819	0.8725597949072513	2.2118722669505684	0.5320303628353863	-0.2801322485343382	0.5040549314577576	-0.5137547066086082	-0.5540589259598142	-0.06543860390947481	0.12005843122717416	1.8527842141662036	-0.828188192918854	0.09509541426197604	-0.26256552960633517	0.37326668479318564	0.10227464490590703	-1.5029656665449482	-0.0016998343458836448	0.0013006276508665004	-0.0037422567788881747	0.0010214887129844895	0.003446991268383194	-4411184188534904e-20	-0.0004532025386776456	-0.003995735443510745	0.0010483309484069128	0.0019317305654847595	0.0037585140270620086	-0.011473895063578064	-0.002297473575187347	-23300103783864654e-21	-0.0001905069297768758	-0.004110385548574614	-0.004981848806914007	0.002170354990958392	0.007892900658184822	-0.0005296995712166788	1.5539379786888197	-1.386419897292186	1.1142382762097072	-1.0964108545200868	-3.2215995347860646	-0.08500461768849824	0.1420431345723381	0.7763271723398577	-0.3189265664259013	-0.5938646633641411	-1.2706115374646654	0.996548843288544	0.29726369206668585	-0.04744486324968195	0.15210428912024812	0.516183465113851	0.9035105477965368	-0.5214827944506754	-0.766745294648215	-1.5304774438040267	-0.010598887453641192	0.07126666587896122	-1.0921732060826626	-0.5588112685224597	-0.318251086905233	-1.3611819560871958	-0.12747749465592143	0.13126910036277104	-0.4146871721033382	-1.0090977817224418	-0.5337292055911667	-1.2266779819165763	-0.5072193926590206	-0.6989995987995092	-0.7116316214842675	-0.33285334322014054	0.5172156401978576	2.4179330383702724	-0.30694975206145775	1.2453095197558481	-0.13486487039414288	0.015503191097549808	0.0011458549359887335	0.007407973690441655	-0.004712592355790873	0.002347411883204977	-0.000690791273357009	-0.0012490122074203939	-0.0032940874775150876	-0.00033996603975363076	0.0036781626528336973	-0.00028280575679363564	0.012789610804210571	-0.003107560665223432	0.0003025220137055971	-0.006948645789757974	0.0009239620834717473	0.0016202976769578504	-0.0178873383355841	-8650309305091687e-20	-0.0067267592310196155	-1.0526242473997958	-0.9713203497655319	1.5010520465498782	-0.4998960255355904	-1.5649217645554914	0.1479102609991811	0.42843799976719377	-0.37468728435763354	0.38274168153891475	0.6410113907207315	0.19836923495329387	2.0831001262570843	-1.3970703624489453	0.15176167302663637	-0.7276480597036451	0.15107903797845798	-1.6010877394430232	-1.9517875076203164	0.060640373057063636	0.811806667515181	-0.016894689543395094
0.8632478048472326	-0.8984261237530823	-0.5008854632269185	-0.9003016600005552	0.8727667403872614	2.211871621976163	0.5320088182218855	-0.28012801543122584	0.5041037099126823	-0.5136636698336634	-0.5538689331566303	-0.06509710898504821	0.12014561597795272	1.852783879787279	-0.8281996809910123	0.09526200028760984	-0.26253397982979254	0.3733229627836573	0.10203601490750214	-1.5029683722635436	-0.0017001363410429605	0.0012944756776678084	-0.0038202909364980766	0.001016354672679682	0.0034425948005141556	-46831838641185135e-21	-0.0004623351540370928	-0.00405275619616488	0.0010705847809343502	0.0019722829545821396	0.0038347917424318037	-0.011467631870214767	-0.002300437484473153	-2495203794158636e-20	-0.0001912907160697722	-0.004110925849246439	-0.005043747412541964	0.0022146649001268995	0.00789606424860386	-0.0005831062081480211	1.553938732137276	-1.3864184371447597	1.1141960252378469	-1.0964092864502946	-3.221599382885018	-0.08501315438220719	0.14208089775468474	0.7762618934146034	-0.3188846370153113	-0.5939053130259159	-1.2706461863714296	0.9965253417894729	0.29730473395060614	-0.047456099099749266	0.15210103472300124	0.5162168102268303	0.9034456903679887	-0.5214227411635542	-0.7667097040192105	-1.5304644527961273	-0.010584794574713244	0.07120562442132024	-1.0921430862015866	-0.5581450537952147	-0.31878374868230475	-1.361114270432939	-0.12740449864004083	0.13149289778354084	-0.41499733894480734	-1.0091038878933187	-0.5334080566487576	-1.2266862284299638	-0.5060113841113228	-0.6992589047612914	-0.7116056544426949	-0.33360714392182944	0.5172970026786906	2.4179591891465306	-0.3090275517125804	1.2453069613398497	-0.1344138307969798	0.015097442182461018	0.0012524796774487233	0.007471590457278519	-0.00488289256267003	0.002501582464581797	-0.0006265929047929483	-0.0010617899287178533	-0.0033707746971435126	-0.0003818011527451713	0.003719801967923046	-0.00030369872698031116	0.012989224518875808	-0.0030355078429678013	0.0002939075150559801	-0.007180810274917632	0.0009360820930239565	0.0017025172491906093	-0.018566169575092224	-9283917024779093e-20	-0.006371370099190748	-1.0526283616943912	-0.9717478137708183	1.5006832483990127	-0.5000836216972555	-1.5653385464494927	0.14790515650435293	0.42844418540904766	-0.3749667860473847	0.38231237071539975	0.6406542337946566	0.19794695111045188	2.082758011362705	-1.3974814111176879	0.15134818734234629	-0.7278517436486748	0.15142794727894882	-1.60070208157669	-1.9519676004517357	0.0610619150986531	0.8117950547329089	-0.01654552485351557
0.863166252027253	-0.8983628289269611	-0.5010353405742511	-0.9002520142948621	0.8729279005511774	2.211870935186542	0.531990245693697	-0.28021316159831944	0.5041466378130567	-0.5135841494266651	-0.5537071917498817	-0.0653769224560591	0.12008720538056974	1.8527834920466346	-0.8282087440122292	0.09514000720191161	-0.2626305597863291	0.3733915020987284	0.10220692404327053	-1.502975118926928	-0.0016850466315156175	0.0012757602518809039	-0.0038758566365850134	0.0010013345823132855	0.0034071783845874377	-4956971085105494e-20	-0.0004686692133802608	-0.0041086651905419495	0.0010864070723044619	0.0020009219236955204	0.003886609475697271	-0.011558511435482394	-0.0023244453489724487	-26639933229959436e-21	-0.0001904328351365668	-0.004155128345904526	-0.005108744314815543	0.0022502923348064205	0.007960292447178894	-0.000639462807233652	1.553821148985263	-1.3862991343481208	1.1142793334534873	-1.0962899021614627	-3.221717400586231	-0.08513466866540557	0.1419936604320441	0.776316592107439	-0.3189682415233537	-0.5938205737803695	-1.2705562718562582	0.9965470929963735	0.2972710208244371	-0.04758058597286057	0.1522166409663819	0.5161886260618532	0.9034985570420969	-0.5214885596315031	-0.7667404604808086	-1.5303375959825538	-0.01068367345229517	0.0734603583218576	-1.092097755972533	-0.5577965921985553	-0.3189264990136289	-1.3610386629392845	-0.12761310353927405	0.1309120373928857	-0.4151349051000013	-1.0091186081918646	-0.5332417478632412	-1.226696190384864	-0.50539199216156	-0.6993789315704365	-0.711593967244432	-0.3338385038874807	0.5173387890511836	2.4179852425204498	-0.30952883368916967	1.2453038903338918	-0.1354665656690975	0.01535460584838206	0.0013656088936587127	0.007417924413670165	-0.004927959131605898	0.0026584606361879475	-0.0006442931985824143	-0.0011091555505110863	-0.003388756001739979	-0.00042728024623980073	0.003705091362384451	-0.00032523475019892044	0.01297821681157326	-0.0029081595914925403	0.00027964803531911934	-0.007243536990563485	0.0009338737946563314	0.0017833444473217734	-0.01873821699440119	-9941271012544334e-20	-0.006453977089459352	-1.052807957318315	-0.9715007674076879	1.5009503933175452	-0.49973885511237837	-1.5650783258927912	0.14818253603107345	0.42816134572033426	-0.37465554598865297	0.3825560340130128	0.6409275719727253	0.19820079414176872	2.0830388475074124	-1.3972352901068357	0.1515929932028875	-0.7275116644441996	0.15115020697074483	-1.600994614460144	-1.9516214066951751	0.06080717801882962	0.8120825571986953	-0.016873885924715417
0.8630699613163295	-0.898287886914476	-0.5012042830616283	-0.9001932259074661	0.8731182310084898	2.211870241437017	0.5319690176123838	-0.2802251864001655	0.5041951238274981	-0.5134939201255754	-0.5535208885366918	-0.06506438254694276	0.1201649017526702	1.8527831107512711	-0.8282194281426548	0.09529063920698456	-0.2626199063040063	0.3734527182883911	0.10199208583150488	-1.502980503576002	-0.001676688576212257	0.0012622320957289238	-0.003946152414268038	0.0009903806344757754	0.0033849451865152133	-52383356149047357e-21	-0.00047679795464694217	-0.004164508136641607	0.0011064553315036645	0.0020373557072610143	0.003953931827581071	-0.01155693672878172	-0.0023286641084224835	-28368312089071207e-21	-0.00019032756843472866	-0.004158034947954499	-0.005169925166357655	0.002292115337822094	0.00796682533897493	-0.0006963605721114597	1.5538136205380757	-1.3862895691583481	1.1142470551253323	-1.096280237964668	-3.2217254884713875	-0.08514868239658849	0.14202153269832135	0.7762593821981036	-0.3189362598822268	-0.5938513126721705	-1.27058111511883	0.996525471575493	0.2973086002850384	-0.04759756487384018	0.1522218554521047	0.5162193068871058	0.9034413812375708	-0.5214379833158	-0.7667078433878225	-1.5303184080039653	-0.010674415193002721	0.07339124612950236	-1.092058573295985	-0.5572101964751405	-0.3194122135548084	-1.3609643438944943	-0.1275455134157859	0.1311172724336337	-0.4154142965691924	-1.0091293501602365	-0.5329580001261365	-1.226705652146088	-0.5043097497974206	-0.6995898853551036	-0.711573027200814	-0.3345241428296626	0.5174107690673444	2.4180120438136083	-0.31141914449941	1.2453009695587356	-0.1350469732545265	0.01500361065821864	0.001478925751103468	0.00743720296848511	-0.005070756563238667	0.002818553133174962	-0.0005885257696257739	-0.00094701224316012	-0.003448671203417763	-0.00047231212514837995	0.0037262183137969454	-0.00034709358962163063	0.013108063915479458	-0.002808171131051309	0.0002681292535792606	-0.007436443302351412	0.0009408784511523061	0.001866864792358885	-0.019304055509613657	-0.0001060562315366339	-0.006145375551704115	-1.0528123388578636	-0.9718810254397309	1.5006153656783032	-0.49991157185915897	-1.5654462010586743	0.14817816253004798	0.42816660032090165	-0.3749114279575055	0.38217309488833956	0.6406026842605864	0.19782678419049568	2.0827277815384653	-1.3976065913244289	0.1512196916475222	-0.7276992993322107	0.15146797314447974	-1.6006594993714447	-1.951788979491909	0.06118034333106513	0.8120721644005234	-0.016575806917268905
0.8629940453288033	-0.8982295194560375	-0.5013548703531217	-0.9001474761234161	0.8732675611333182	2.211869513355191	0.5319504940673615	-0.2803154629690183	0.5042382469274913	-0.5134142019804252	-0.5533601957505017	-0.06530054224817632	0.12011410243260226	1.8527826836480528	-0.8282279355085237	0.09518650200265971	-0.2627216294909904	0.3735243338508229	0.1021388349340759	-1.5029894293080595	-0.001654794910792147	0.0012376814428449884	-0.003996381657070564	0.000970755252419675	0.0033354879572964607	-5520239487654099e-20	-0.00048243050580213455	-0.0042190599062328004	0.0011207595348589076	0.002063152933469757	0.0039994422311960594	-0.011640822884798872	-0.0023513556646919745	-30122236760135098e-21	-0.0001887752494767494	-0.004199313612809292	-0.005233475539828384	0.002326100677014612	0.008027024398979584	-0.0007556429510468364	1.5537019713144211	-1.3861763266470781	1.1143254065073713	-1.0961669204270361	-3.2218375414253018	-0.0852620683575507	0.14193928014600035	0.776308045813866	-0.31901488787720544	-0.5937715705978605	-1.270496224535525	0.9965438013844515	0.29728015168680855	-0.04771414578647088	0.15233165834856227	0.5161956288683484	0.9034881019787111	-0.5214984087121254	-0.766733799336911	-1.5301990850424594	-0.010764611266930004	0.07540717663426182	-1.0920060317656572	-0.5569120296637047	-0.31954670515744293	-1.3608832916754943	-0.12773297520392482	0.1305942824124652	-0.41553810142177805	-1.0091476905212422	-0.5328143310790465	-1.2267165929571489	-0.5037646095134612	-0.6996759647471436	-0.7115648874139126	-0.3347399862106238	0.5174470288547164	2.418038652636225	-0.31190350263124955	1.2452976032484924	-0.13598508863470687	0.01524903572945608	0.0015975766180012666	0.007351218729707514	-0.005101136649578095	0.0029804326537756455	-0.0006068311458842171	-0.0009968186931384269	-0.0034559583811901145	-0.0005203934155254466	0.0036968515482604398	-0.0003694343274377298	0.013047441690762178	-0.002659436753403123	0.0002516434905382904	-0.007477541586035326	0.0009350592662128559	0.0019488402328130298	-0.019419236236629455	-0.00011288609457332561	-0.006231745419141896	-1.0529796667078088	-0.9716516045260399	1.5008552265781114	-0.4996022604550605	-1.5652022363926983	0.14842947815189483	0.42791102815198406	-0.3746328193531585	0.382398490283909	0.6408478654375714	0.19806386877750634	2.0829795711088064	-1.3973836523756322	0.15144160797610182	-0.7273944132021781	0.15121899055767327	-1.6009371501921121	-1.951478452988318	0.060942283701534886	0.8123331956893866	-0.0168897683204844
0.8629047306058699	-0.8981605708801967	-0.5015230548804871	-0.9000934215097016	0.8734433736485824	2.2118687760949816	0.5319295347118322	-0.280341323949901	0.5042864950586595	-0.5133246331220114	-0.5531770038360848	-0.06500994371721715	0.12018426764956251	1.852782260499377	-0.828237917712594	0.09532471903877429	-0.2627286943462114	0.3735898192744527	0.10194261290151474	-1.502997176902019	-0.0016387916451170528	0.0012176380946294439	-0.004059884872820769	0.0009546611835272487	0.0032975197126543184	-5810107208773375e-20	-0.0004896794166653056	-0.004273815560405314	0.001138874443536476	0.0020959810229002397	0.004058921878801954	-0.01164275648463484	-0.002356541128151052	-3191993028113567e-20	-0.0001878846184820747	-0.0042040239734976205	-0.0052939447753721025	0.0023657383897049055	0.008036127268722427	-0.0008156497410423963	1.553687840285659	-1.38616031386465	1.1143011998484496	-1.0961508165451532	-3.2218521928243367	-0.08528021565737594	0.14195915492843203	0.7762572656751601	-0.31899095327467714	-0.5937942974794256	-1.2705131456222034	0.9965235807956144	0.2973151066610785	-0.04773549393155168	0.152343637925656	0.5162243137999328	0.9034370263805814	-0.521455469412078	-0.7667034216510864	-1.530175128026432	-0.010758903575524998	0.07532903113762875	-1.0919588818664152	-0.5563957927770685	-0.3199918690962459	-1.360803116718537	-0.1276697171118381	0.130784638502489	-0.41579079467862357	-1.0091624943086421	-0.5325633076146117	-1.2267271213621094	-0.5027931897532557	-0.6998447851333773	-0.7115483373928349	-0.33536670980964306	0.5175108299784713	2.41806603473498	-0.3136316813543263	1.245294362896696	-0.13559125056185	0.014945386092138219	0.0017168308788972143	0.0073313931587881105	-0.005220007104327752	0.0031458245508618095	-0.0005583710804720524	-0.0008563093771489605	-0.003501242948470079	-0.000568246790440822	0.003699956486313231	-0.00039215093645742795	0.013115565714795727	-0.002534952561690127	0.000237577447617425	-0.007636309717985125	0.0009375821524646561	0.0020335656116092955	-0.019887175589427156	-0.00011980277241987282	-0.005963667134348271	-1.0529839820530877	-0.9719914644331539	1.500548761131689	-0.49976264969165396	-1.5655282188102326	0.14842531268638584	0.427915914713941	-0.374868830947362	0.3820552311165953	0.6405502728248731	0.19773120626342267	2.082694596316966	-1.3977210660326909	0.15110256220462465	-0.7275686650412767	0.15151038265879008	-1.600645385168895	-1.9516354723817637	0.061274013230602546	0.8123234226393851	-0.01663554681446741
0.8628338709681282	-0.8981066157676422	-0.5016740443078369	-0.9000511598060413	0.873582109094688	2.21186801158053	0.5319110783126578	-0.2804360139912624	0.5043297336505442	-0.513244834704987	-0.5530174011888906	-0.06520797116579999	0.12014011560623147	1.8527817984615198	-0.8282459256934582	0.09523617928740596	-0.2628348466133024	0.37366403840664936	0.10206824559890845	-1.5030080255816	-0.001610859888860384	0.001187913061407831	-0.004105294811813678	0.0009309526800354317	0.0032356120021142967	-60992229530273404e-21	-0.0004946818316966651	-0.004327063487812739	0.0011518101305533868	0.0021192233667958493	0.004098782400042	-0.011720411323073814	-0.002378045638909989	-3373278576294637e-20	-0.00018571451183250028	-0.004242684772089142	-0.005356096281297748	0.0023982082206713464	0.008092708849084746	-0.0008775067593842139	1.5535814627751274	-1.3860524564806946	1.1143751840799034	-1.0960428899477275	-3.2219589456459117	-0.08538638365332375	0.1418813038985083	0.7763006539635467	-0.3190651932773498	-0.5937189664423793	-1.2704326969083122	0.9965389160268565	0.2972912585262235	-0.04784505214601344	0.15244828598651894	0.5162045729808288	0.9034783764841011	-0.5215111677105699	-0.7667251820844935	-1.5300625010921725	-0.010841391504077907	0.07714037016395553	-1.0919000275367672	-0.5561422290602513	-0.3201185760712638	-1.360717305296847	-0.12783885283980315	0.13031194906232568	-0.4159023460744447	-1.0091839984547482	-0.5324396762370941	-1.226738915267793	-0.5023140701371844	-0.6999010872215354	-0.7115433127786701	-0.3355681361045089	0.5175422056291066	2.4180931234729033	-0.31409676455197233	1.2452907386673138	-0.1364310822386198	0.015181659586333699	0.0018403142500244146	0.0072168995310189785	-0.005237398156493905	0.0033120877595271283	-0.0005772872775490688	-0.0009084023170151582	-0.0034991198669191695	-0.0006185978322124087	0.003657686953253719	-0.0004151937754751431	0.013011014451741463	-0.002367498172473011	0.00021914465403991668	-0.00765829521641256	0.000928588691009333	0.0021165581799991776	-0.019951822032848048	-0.0001268560053648665	-0.0060539071088074855	-1.0531399739670617	-0.9717769379524118	1.5007652029239202	-0.49948395854608807	-1.5652979533201332	0.14865396582304022	0.4276839426457698	-0.37461830332237667	0.3822651843025831	0.6407712861454274	0.19795416476875843	2.0829213570995773	-1.3975178851597843	0.15130497785641514	-0.7272941417623724	0.15128606717025062	-1.600910541437503	-1.9513557150706502	0.06105001106935143	0.8125613275929079	-0.01693744401739389
0.8627506874728068	-0.8980429365941023	-0.5018414967107907	-0.9000012668475293	0.8737451725425104	2.2118672356609075	0.531890358074223	-0.2804735747529998	0.5043777622895221	-0.513155852231354	-0.5528369208987458	-0.06493372077605643	0.12020434460053561	1.8527813380783955	-0.8282552913849556	0.09536483070097591	-0.2628568512599739	0.373733159697158	0.10188645004538766	-1.5030178542372679	-0.001588105172184473	0.0011621150417566786	-0.004162795853039523	0.0009103189262643673	0.003183755684971167	-639677565190647e-19	-0.0005011553919494773	-0.004380771299285709	0.001168219221571271	0.0021488756396555197	0.004151360030790198	-0.011724861291443862	-0.0023839497181244876	-3559309016277742e-20	-0.00018412947288684616	-0.004248721335719334	-0.005415814936424154	0.0024358981786923996	0.008103698770598662	-0.0009402723384942491	1.5535621452352233	-1.386031393616682	1.1143574588956333	-1.0960217429665267	-3.2219787482916984	-0.08540754319427242	0.1418947677390458	0.7762549612534804	-0.31904771535852744	-0.5937352709652294	-1.2704432758132709	0.9965197183480508	0.297324256364639	-0.04786962055480632	0.15246559445690047	0.5162317920833782	0.9034321097469045	-0.5214743409841978	-0.7666964615518174	-1.5300349726791118	-0.010838169645200135	0.07705181011831516	-1.0918458987140627	-0.555687449212736	-0.32052881112198794	-1.3606319825392084	-0.12777895455903038	0.1304906890198188	-0.41613192703975954	-1.009202348618457	-0.5322172038589155	-1.2267503762363978	-0.5014399085017051	-0.700033268586883	-0.7115305867361513	-0.3361440596398852	0.5175988935665194	2.4181210203845245	-0.3156850744700534	1.2452872180123429	-0.13605778389735712	0.014918712805284895	0.0019648137796798586	0.007162724967642873	-0.0053355000276952965	0.003482199339780095	-0.0005351300822299977	-0.0007864756003497975	-0.0035316715892223724	-0.0006689306237792137	0.0036450118863508127	-0.00043866864611558386	0.013024776778819549	-0.002221592378092941	0.0002028520606693461	-0.0077874394016883225	0.0009271958158298919	0.002202392205039216	-0.02033506821334727	-0.0001340138922108428	-0.005820769411931427	-1.0531439029390441	-0.9720824568517167	1.5004826990300375	-0.499634329100425	-1.5655882864946669	0.14864952126546838	0.4276889798134209	-0.37483779909071474	0.3819556528463357	0.6404965817875533	0.19765668551548712	2.0826581200476086	-1.3978266296760002	0.15099491935396084	-0.7274574326063312	0.15155532884734424	-1.600655718234649	-1.9515040518154236	0.061346482109620445	0.8125516135944322	-0.01672063530536511
0.8626843844271064	-0.8979929477015405	-0.5019925655227112	-0.8999621398538322	0.873874378369848	2.2118664391782863	0.5318719910403515	-0.2805720269009774	0.5044210308667952	-0.5130761055429373	-0.552678500120921	-0.06509871968502232	0.1201659399384837	1.8527808451625882	-0.8282628480357884	0.09528978794585201	-0.262966792083716	0.3738095372033097	0.1019937988535437	-1.5030303950819823	-0.0015548197031289956	0.0011278073021220017	-0.004203828410875599	0.0008829947766955453	0.0031108161045579692	-6692262902592414e-20	-0.0005055890978368355	-0.00443274269946648	0.0011799141204218006	0.002169808564937492	0.004186138190010426	-0.011796970686699073	-0.0024043816895152155	-37458286491398055e-21	-0.00018140992886408807	-0.004285038752685124	-0.005476587402809243	0.0024669519891890755	0.008157030731367525	-0.001004383339940458	1.5534604371472511	-1.3859283078461082	1.1144276236200517	-1.095918593181245	-3.2220808061824915	-0.08550731684651164	0.14182077752067682	0.7762937828709354	-0.3191181139641297	-0.5936638068216995	-1.2703667302459791	0.9965324551651451	0.29730439323744823	-0.04797295499284901	0.15256567851752534	0.5162154618512965	0.9034688119100764	-0.5215259339848717	-0.766714586367511	-1.5299282839680126	-0.010913832580755817	0.07868854821879778	-1.091781543345946	-0.555473378264069	-0.32064813753265947	-1.3605420344403238	-0.12793231718549816	0.13006139355649812	-0.41623255052950775	-1.00922660553492	-0.5321112903868624	-1.2267629096920378	-0.5010194411489064	-0.700063501178647	-0.7115282910035161	-0.3363320472744797	0.5176259548602075	2.4181485195790136	-0.3161293286201922	1.2452833700021728	-0.13681383246723305	0.0151480585759949	0.0020925022500416788	0.007023180487203641	-0.005341410249882654	0.0036522804434653174	-0.0005546689660211841	-0.0008407553507392762	-0.00352128181038668	-0.0007212497094488834	0.0035914209213479217	-0.00046232010775617844	0.012881477700310794	-0.002037808516865599	0.00018272376334003225	-0.00779254988612603	0.0009154192964595774	0.002286279417303224	-0.020354869215320683	-0.00014126026600845367	-0.005914969359307827	-1.0532896147219326	-0.9718803155635297	1.500679263985357	-0.49938188551657087	-1.5653693685377723	0.14885858368783603	0.4274773283050503	-0.3746112266590498	0.38215275856141384	0.6406970716079277	0.19786793793895469	2.0828635425044055	-1.3976400810056115	0.15118093557814677	-0.7272089059151053	0.15135195615035968	-1.6009105771402339	-1.9512506432295122	0.06113412859562012	0.8127694507117724	-0.01701261667244425
0.8626066171825699	-0.8979339216413944	-0.5021592307783418	-0.899915921465397	0.8740261908692717	2.211865629086549	0.5318514935812511	-0.28061941760197656	0.5044688332451963	-0.5129876874600863	-0.5525004659140571	-0.06483641710022957	0.12022551951032746	1.8527803517744772	-0.8282716689922701	0.09541114060795741	-0.263001325207646	0.37388170555192624	0.1018230754065105	-1.5030420525117254	-0.001526104421386332	0.0010969295674436164	-0.004255992540967884	0.0008583542095860342	0.0030467034977430096	-6996719297425863e-20	-0.000511375854799102	-0.004485409983917681	0.0011948088862738216	0.0021966475924319676	0.004232613748416674	-0.011803116478629548	-0.0024107942757678495	-39374865713990694e-21	-0.00017921069451946086	-0.0042920025272311264	-0.0055354918185451865	0.0025028829559595412	0.008169333688196565	-0.0010695851785598818	1.5534371153503075	-1.3859033613487686	1.1144150606975982	-1.0958935687066298	-3.22210458200178	-0.08553056604415234	0.1418291485943662	0.7762520886950145	-0.31910577317886923	-0.5936750086159147	-1.2703722810213764	0.9965139872314189	0.2973359579452117	-0.047999795787207214	0.15258711699507016	0.5162416291837534	0.9034263097194805	-0.521493967567275	-0.7666870678363341	-1.5298981759146284	-0.010912228218421268	0.07858804864683183	-1.0917213274736606	-0.5550722624997325	-0.32102835676274044	-1.3604522100779326	-0.12787491663419445	0.13023136256872947	-0.41644216067196865	-1.0092480392735714	-0.5319136624021302	-1.226775182044897	-0.5002303207170273	-0.7001638940344876	-0.7115188868497823	-0.3368642571161629	0.5176764699211422	2.4181768684315075	-0.317597197982169	1.245279605038261	-0.1364564074017535	0.014919905483792057	0.0022216103104764342	0.006938961516530824	-0.00542152641588844	0.0038265691127517174	-0.0005179225920347209	-0.0007347228760636933	-0.0035427798466931525	-0.0007737493188847733	0.00356497936321233	-0.0004864612037887396	0.012847579153915207	-0.0018732320257374673	0.00016449281181461631	-0.007896042281163836	0.0009106155844178464	0.0023731243470455987	-0.02066495847109364	-0.0001486295590343048	-0.005711827805181843	-1.0532928613228165	-0.9721568386774861	1.500416695622298	-0.49952428964800133	-1.5656295664379847	0.14885342347558733	0.42748297699100046	-0.37481716841701734	0.38187170408868226	0.6404413901197995	0.19760019987874494	2.082618255165885	-1.397924759033242	0.15089522504821049	-0.7273633967120876	0.15160282270314698	-1.6006870293273754	-1.9513920246092071	0.06140079508028159	0.8127592912121172	-0.016827516622954265
0.8625444390266674	-0.89788751138567	-0.5023100562164889	-0.8998796221075768	0.8741467886391606	2.2118648047403346	0.5318332401804041	-0.2807210424338372	0.5045120449511237	-0.5129081304752364	-0.5523433502124409	-0.06497304451996179	0.12019203479739822	1.8527798316986914	-0.8282788155201432	0.09534766848511034	-0.2631144802806383	0.373959827765194	0.10191473794521218	-1.5030560775157575	-0.001488078063293817	0.0010585698830010628	-0.00429302851897234	0.0008278337350601516	0.0029640006305110033	-7297794712092511e-20	-0.0005152940604458678	-0.004536115249106616	0.00120537293451658	0.002215482610106535	0.004262802210231251	-0.011870294505464086	-0.0024302550690849627	-4128626981119635e-20	-0.00017600282203465622	-0.004326221889650109	-0.005594887337892249	0.002532600131478349	0.00821974371263461	-0.0011356568181314429	1.5533395348132741	-1.3858044955604871	1.1144819065356513	-1.0957946435316852	-3.2222024899987596	-0.08562468487893746	0.14175852550339155	0.7762869945165171	-0.31917283014883896	-0.59360691393937	-1.2702991473062315	0.996524488554586	0.2973195169537249	-0.04809762344661313	0.15268316929547943	0.5162282284222978	0.9034590274614149	-0.5215420264581557	-0.7667020686319538	-1.5297967456374486	-0.010981861074160765	0.08007629126793608	-1.0916522035386096	-0.5548931112953064	-0.3211406578190433	-1.3603586906012068	-0.12801479192112752	0.12983924379228906	-0.41653302281980364	-1.0092746793360226	-0.5318234033197258	-1.2267883525698087	-0.4998619306711207	-0.7001713497329285	-0.7115189755128809	-0.3370396871965802	0.5176997214722253	2.418204713897708	-0.3180196969919258	1.245275564336031	-0.13714143546564592	0.015144201479021596	0.002352931960804835	0.006777496461805507	-0.005417296595594541	0.003999948178580312	-0.0005380963569924944	-0.0007911201390765679	-0.0035251413247540083	-0.0008277624695970752	0.003501489902752803	-0.0005106359128945638	0.012670234747192421	-0.0016752621893230107	0.0001428953577324101	-0.007886268657990737	0.0008964060977937054	0.0024577905919845417	-0.020645019554310057	-0.00015604133561146946	-0.005810045076260618	-1.0534293899676495	-0.9719648261253562	1.5005965766192602	-0.4992941869339824	-1.5654198819674794	0.14904563831439752	0.42728874176048337	-0.37461086008771277	0.3820582957046644	0.6406246335295013	0.19780192192682935	2.0828056732935294	-1.397752037585077	0.15106762969703955	-0.7271369676205832	0.1514170525581386	-1.6009335636540667	-1.951161022270828	0.061197924575861706	0.8129598188061817	-0.01711150859690527
0.8624714817235057	-0.8978326126998858	-0.5024758233978287	-0.8998366626647075	0.8742886222578296	2.2118639646489293	0.5318129590272648	-0.2807766351659318	0.5045595965391497	-0.512820292585577	-0.5521675992476464	-0.06471928640371012	0.12024799139624864	1.8527793091964664	-0.8282871521739559	0.09546350027009332	-0.26315946015897435	0.37403450167323715	0.10175243576542475	-1.5030693371008246	-0.0014541055596002334	0.0010232144733179924	-0.004340419043135982	0.0007996616606960752	0.0028890813322708067	-7608402453497766e-20	-0.0005204694462014503	-0.004587729364266051	0.0012189154511145326	0.0022398157752205774	0.004303859278521859	-0.011877467629713982	-0.0024370006822661103	-4325309038046931e-20	-0.0001732605105466386	-0.0043337842983250776	-0.00565290174962338	0.0025669231114638226	0.008232884135553656	-0.0012029959895472014	1.5533131871444883	-1.3857766303290238	1.1144734201017603	-1.0957667057020324	-3.222229264896065	-0.08564927495758687	0.1417628903025203	0.776248424741344	-0.31916454035530356	-0.5936140996875948	-1.2703007540581606	0.9965065277438069	0.2973500527460575	-0.04812596460471648	0.1527077456053556	0.5162536612843053	0.9034194544166264	-0.5215139006819458	-0.7666754028246054	-1.5297648696768371	-0.01098117794655054	0.07996240426914139	-1.0915867066217937	-0.5545387207909142	-0.321495125743617	-1.3602649564533031	-0.1279591435579354	0.1300028729931418	-0.4167254012272119	-1.0092987808376856	-0.5316473431238881	-1.2268013264642157	-0.49914693316984077	-0.7002442324678925	-0.7115124486643131	-0.33753433295517005	0.5177448900898685	2.4182334542031474	-0.3193839627693328	1.2452715880561946	-0.13679581580167022	0.014945631295457965	0.002486059663809965	0.0066671193521484606	-0.005481872542143228	0.004177902034244315	-0.000505974480261794	-0.0006986281815101256	-0.0035370690838032954	-0.0008821419846482008	0.0034630869029234424	-0.0005353574899669785	0.012594747610039083	-0.0014944820413345997	0.00012298536197189307	-0.007967596794966475	0.0008886415570251976	0.0025455460881388414	-0.020892012129254383	-0.0001635941213202745	-0.005632550617235072	-1.053431692704292	-0.9722170248050308	1.5003504617924106	-0.4994304113752409	-1.5656547691019356	0.14903938865048164	0.42729539425924706	-0.37480582167418225	0.3818011318801402	0.6403846263075126	0.19755916580262003	2.0825750782917556	-1.398016662357311	0.15080222700002516	-0.7272845466942531	0.15165276870546404	-1.6007363247112543	-1.951296996237053	0.06143955649885089	0.8129487790735224	-0.016953111259171354
0.8624130539005675	-0.8977894430352967	-0.5026260924740997	-0.8998029230547104	0.8744014129742145	2.211863116218106	0.5317948441755462	-0.2808808981252566	0.5046026661341503	-0.5127410634087518	-0.5520119297202889	-0.06483173621596812	0.12021867805359344	1.8527787653719208	-0.8282939240970012	0.09540985784645434	-0.2632753107125637	0.37411398743663626	0.10183075840316061	-1.5030846585814999	-0.0014118886325655453	0.0009812802564307748	-0.004373789637571354	0.0007663220130885433	0.0027977532370915786	-7914333086990775e-20	-0.0005239185815466641	-0.004637168212462161	0.0012284441138208431	0.002256736591555054	0.004329888528167837	-0.011940259442883606	-0.002455579398526535	-45204978148660074e-21	-0.00016961912802705077	-0.004366123046802184	-0.005710911414904718	0.0025953682100464163	0.008280661820290316	-0.0012707592571106934	1.5532192539208944	-1.3856814957664063	1.1145373959685931	-1.0956715158548875	-3.2223235064798383	-0.08573839608265348	0.1416951920468724	0.7762800026772724	-0.31922870397194486	-0.5935489283043676	-1.2702305924208357	0.9965151215628931	0.297336526054364	-0.04821892201852061	0.1528002382274693	0.5162427562051041	0.9034487870782919	-0.5215589405780909	-0.7666877409316757	-1.5296680949981394	-0.011045489619183188	0.08132470366852743	-1.0915134750741786	-0.55439040007616	-0.32160073003612577	-1.36016837946118	-0.12808755251703713	0.12964241025073522	-0.4168075335316954	-1.0093274717523857	-0.5315709022946532	-1.2268150414938102	-0.49882475336697113	-0.7002318362336739	-0.7115146146551948	-0.3376980169437994	0.517764779265803	2.4182615863356056	-0.3197842983801588	1.2452673829377663	-0.13742094866032392	0.015166424392547818	0.002620492007963433	0.006486563216664688	-0.00546869832027811	0.004354099471733863	-0.0005267903975588481	-0.000757082798358218	-0.0035130891712621777	-0.0009376000016093955	0.0033909787950438712	-0.0005599772196892182	0.012387618253306606	-0.001284250718540742	0.00010012252442234271	-0.007944714859439775	0.0008723125305537116	0.002630881235323294	-0.020836923259142184	-0.0001711458156569735	-0.005734793990851852	-1.053560116592472	-0.9720331602595395	1.500516486002524	-0.4992192041147683	-1.5654524661456635	0.14921717783640728	0.42711602914200786	-0.37461652249486377	0.3819792591436198	0.6405535204065036	0.19775326502175444	2.0827474521699316	-1.3978552989636333	0.1509634773109664	-0.7270767786366781	0.15148165386864498	-1.6009762568803685	-1.9510849283178968	0.06124427051370753	0.8131344514622265	-0.017230791830580627
0.8623443916252368	-0.8977382224085244	-0.5027908123078888	-0.8997628672451058	0.8745343500798374	2.2118622500259515	0.5317747802235964	-0.2809432805030714	0.504649929900917	-0.5126538490075074	-0.551838378332336	-0.06458394847912376	0.12027181951216272	1.8527782173508651	-0.8283018273916667	0.09552153852146252	-0.26332894664068707	0.3741906721935147	0.10167481584294771	-1.5030993160243076	-0.0013732874957123411	0.0009419868643963463	-0.004416886200057488	0.0007350445252221464	0.0027133219802879176	-8230362446897387e-20	-0.0005285471664640586	-0.004687704589516503	0.0012407722809429493	0.0022788257302583654	0.004366113919839984	-0.01194792398881604	-0.0024625133678992154	-47216256568455876e-21	-0.000166397127877755	-0.004374017355383891	-0.005767955809746416	0.0026282046865683103	0.008294251191907862	-0.001339957010823476	1.5531906831744933	-1.385651503071648	1.1145320995419445	-1.0956414552585394	-3.2223524818760256	-0.08576372800666869	0.141696438924885	0.7762438639670243	-0.3192235783828547	-0.593552985574224	-1.2702291423542567	0.9964975036274698	0.2973663375921811	-0.04824814304133417	0.15282713810921833	0.5162676916213216	0.9034114833523785	-0.5215338330352336	-0.7666616663183364	-1.5296351076983175	-0.011045179943960818	0.08119622872102492	-1.0914434268284454	-0.5540765893237443	-0.3219331205315293	-1.3600712796175776	-0.128033031025392	0.12980172370472326	-0.4169850565488712	-1.0093538670334088	-0.5314135266520866	-1.2268286170444556	-0.49817419147345676	-0.7002809798431319	-0.7115105720287286	-0.3381603992675485	0.5178053250107106	2.4182906594186577	-0.3210594459108738	1.245263225606123	-0.137083694835899	0.014992885095015153	0.0027570918012103963	0.006353529471031663	-0.005519877443902283	0.004535231989951862	-0.0004986053672164084	-0.0006760848349469788	-0.0035167553747029847	-0.0009935948862291465	0.003342230414133203	-0.0005851988390837802	0.012276024966059347	-0.0010894848469170531	7876720958181105e-20	-0.008006934289643483	0.0008619880031490711	0.0027194435164576854	-0.02102957790948201	-0.0001788558425029619	-0.0055791493536167195	-1.053561257455405	-0.9722650720217537	1.5002838552963802	-0.4993507667983141	-1.5656662194293482	0.14920953710448442	0.4271240009261878	-0.3748026991788653	0.38174202484626546	0.6403263290371662	0.197531373220413	2.082528788667399	-1.3981033240263394	0.15071490893149556	-0.7272190568000965	0.15170499486547306	-1.6008010167820572	-1.9512168390968085	0.06146499520973991	0.8131221770512941	-0.017094745695201554
