0.8673472019512456	-0.9017438158568171	-0.4944787535042339	-0.9029142938652416	0.8644013132535154	2.2118774995743475	0.5328132821695382	-0.27173539603462066	0.5023344963886675	-0.5169836206932686	-0.5605013381807765	-0.019291781689849075	0.12806443451512645	1.852782957725545	-0.8277634318169205	0.11009612632217552	-0.2511757400198831	0.3697140350317453	0.07211635315125874	-1.503429457351051	0	0	0	0	0	0	0	0	0	0	0	0	0	0	0	0	0	0	0	0	1.5641682355362416	-1.3967353668333795	1.1054978391059092	-1.1067299135255761	-3.2113596499239088	-0.07401454242444336	0.1509756176321479	0.7692782605345824	-0.31015257323306406	-0.6027068905147959	-1.2796722102183824	0.9973171556575041	0.302422509042974	-0.036445994527206725	0.14197425838484184	0.5212726564680514	0.8967478231916237	-0.5135298961952287	-0.7647985048765796	-1.5414263839472457	0	-0.0801624859452718	-1.0912192142639132	-0.5805165450434235	-0.3154372460983286	-1.3614476249361172	-0.11445720023473198	0.1658369675157237	-0.40843803219265074	-1.009783518501397	-0.5438048486401967	-1.2267247260093483	-0.5417157197543718	-0.6864935365141717	-0.7129319615024848	-0.3270588960867544	0.5148361669491318	2.4174733478680444	-0.3079736599439786	1.2453033858573443	-0.049950231303361896	0	0	0	0	0	0	0	0	0	0	0	0	0	0	0	0	0	0	0	0	-1.054777824036921	-0.9871768159072896	1.4821723679733616	-0.5227721501159824	-1.580700774609182	0.1318423302974782	0.44735795730457095	-0.39621068468866266	0.36677325581305237	0.6216732554478005	0.18258799290295424	2.0635324726445594	-1.414528098053257	0.13447542179098826	-0.7504205071080338	0.17077794617277833	-1.5849216228195329	-1.975000495993712	0.07641795896613793	0.7993351658657596	0
0.8672085820153105	-0.9016498013724591	-0.49646040912681805	-0.9028404948177093	0.8646926868223435	2.211877442204177	0.5326152790634827	-0.2797569395284427	0.5028559806777592	-0.5160843062351869	-0.5591619866977869	-0.054095120809081146	0.12033688655749647	1.852782916697741	-0.8277806903080546	0.09567164420955925	-0.26202209057299675	0.37223631825587244	0.09631773967551889	-1.5034309507137384	-2960939530526673e-20	18873834063039226e-21	-0.0004769081374237414	1477819150212144e-20	6251058287197068e-20	-13579091597720848e-23	-4787488957362765e-20	-0.001855942749833507	0.00012563351405348334	0.00021705726606794073	0.0003246530482581997	-0.007805029005017621	-0.0017471159599765642	-8657365799141524e-23	-3872467123797536e-21	-0.0032544623591059594	-0.002500070992999641	0.000594461781393636	0.005441284459901867	-45827269220064995e-22	1.5562918081002113	-1.3888562742482666	1.1131642078665387	-1.0988507425235459	-3.219235813193172	-0.08190064674969354	0.14325023200950482	0.7758362762933537	-0.317832582485847	-0.5950036642647578	-1.2719143169602438	0.9979938448294269	0.2983659493353269	-0.044332438617784395	0.14984656011902864	0.5176943998835724	0.9030746471259313	-0.5208093741590704	-0.7672474285673598	-1.533539529191927	-0.007884919719235503	-0.0586886801374302	-1.091175360060609	-0.5818883767833546	-0.31238129119277314	-1.3614262569089979	-0.11685438360115498	0.15935713294854303	-0.40722113257771353	-1.0098082058521112	-0.5445453696220787	-1.2267290380492148	-0.5442095095239184	-0.6858487349346413	-0.7129836141590846	-0.3230048101631052	0.514587446660024	2.41747481259753	-0.2958331521087755	1.2453017215492184	-0.06738950083759004	0.00528049692794823	22450581687614116e-21	-0.0004247488978482036	0.0008096027718180646	15335619089922855e-21	-0.0005930543489213547	-0.0016233250125768132	0.00033781141632153474	-11482832707792596e-21	-0.00022343370257039497	-26090588003990514e-22	-0.0007513652413746754	0.00021684786135415987	-177664398720359e-19	0.0010798176157390989	-7360372748107699e-20	32861998432034894e-22	0.0032054967146726778	-10308499231635444e-22	-0.004272791785087887	-1.0530163636158665	-0.9816108519127316	1.4876001474412044	-0.5180531120733833	-1.5751279502835358	0.1342658636063808	0.44409445330527914	-0.39108993798339997	0.37233474475623185	0.6270623950694364	0.18815839232861054	2.068919105692071	-1.4090302240088748	0.1399843700441677	-0.7456361386594219	0.16542702141016757	-1.5904985841054993	-1.970326204168573	0.0708471381260657	0.8004581657316634	-0.005578369607041724
0.8687309165684629	-0.9028444025553316	-0.4911855014225095	-0.9037857756937607	0.8615541443428945	2.211873641697298	0.5334809972588311	-0.2596819304679319	0.5019611287325588	-0.5185190741703221	-0.5630249243366036	0.007911759645126068	0.1135966779856513	1.852779464286978	-0.8276466205202055	0.06661125506287645	-0.22827411530582012	0.3684953713443702	0.030374541338112945	-1.5036418108785574	0.0009799460766193536	-0.0008049183753530266	0.0019374632510731713	-0.0006359017967413623	-0.0020324038297452923	-10723790305167987e-21	0.000294322186078586	0.0043298673792531205	-0.00041160470687302093	-0.0009508546771553467	-0.0017058933412794812	0.009665293780713718	-0.002169015494423414	-75630755211614564e-22	9618516696838285e-20	-0.007711574836159835	0.007135168285321073	-0.0010787968081385916	-0.011816658961617682	-0.00032382275941523174	1.5584395994622302	-1.3910350388879316	1.1119569487521637	-1.1010304648833196	-3.2170918550776904	-0.0794484976774757	0.14473871493653048	0.7787706622370804	-0.31649969085704377	-0.5964719282793911	-1.273536608782053	1.0430131163880816	0.30540731686732436	-0.041900180423514365	0.14774038055559877	0.5326879896174463	0.9078149919270867	-0.5205583445400254	-0.795465264024113	-1.5359373831271734	-0.005349188223080082	0.025732069504633498	-1.0905517366218331	-0.5893457039061069	-0.3015599310650037	-1.3609605870960513	-0.12240965711167076	0.13889232526950612	-0.4027351202219427	-1.010138705508363	-0.5485396949508016	-1.2268136639569096	-0.5557017347771509	-0.6812825389355404	-0.7134583253525737	-0.30668862324819995	0.5136608559499187	2.4175601027439053	-0.21926267175144953	1.245277518833638	-0.07620723884889626	0.029474122239573883	0.0005974452004025595	-0.003975974112277616	0.004730699356542823	0.0006230719536054643	-0.002458934389169449	-0.008103787969746826	0.0021644267810988303	-0.0002764482583171142	-0.002016506199552792	-9356060288403757e-20	-0.006191906835978053	0.002599535289845073	-0.00025976681138743736	0.006867965854427669	-0.000517623275970896	0.00026410337364424013	0.027116822225643506	-30580252739917735e-21	-0.009773533534426575	-1.0677825248659332	-0.9678526774602556	1.5003548175786303	-0.5088739562952929	-1.5612507520996715	0.1405675299364586	0.4416648791538673	-0.379951958243499	0.3860327549832271	0.6395877782129383	0.2019877118507989	2.081526279295273	-1.395907588224642	0.15320235472900798	-0.7364308161965973	0.1531519467473748	-1.6045105917664413	-1.9637726269693512	0.057010142857180646	0.8174892408896204	-0.019707261695972235
0.8688083510546585	-0.9029031641740911	-0.4907749630647646	-0.9038322882096481	0.8613970035901866	2.2118734196740215	0.5335460769106046	-0.25799079844242173	0.5018893780229466	-0.5187077809550662	-0.5633077097780052	0.013425853285617429	0.11333765491358323	1.8527792884047825	-0.827640292822908	0.06480911599337212	-0.225573438168859	0.3681445765323093	0.025032198966623547	-1.5036501704584806	0.0010289264101683148	-0.0008446526134823669	0.0020909522445579985	-0.0006672808496387591	-0.0021328937622436435	-11517064291715132e-21	0.000316305884784215	0.004809970772805087	-0.0004443218022259834	-0.001024097106395174	-0.0018258327172422653	0.011149954796077737	-0.0021528769109747355	-8082608349452458e-21	0.00010090206114793668	-0.00797184547526258	0.007867439275725292	-0.0012031596819842899	-0.013186751134585017	-0.00034297188736554196	1.558856094214177	-1.3914530810506684	1.1116029978196378	-1.1014485617980792	-3.216675392548753	-0.07901856992475126	0.14511304035475958	0.7787440853399913	-0.31613698950025515	-0.5968443987440065	-1.2739205085347667	1.0461720888519235	0.30608076832082587	-0.04147128187723689	0.14732596873022402	0.5339859396985694	0.9079156060597581	-0.5202844582078043	-0.7973197854411548	-1.5363648137467525	-0.004912751539758467	0.033912798622810957	-1.0905317495165654	-0.5896027334589493	-0.3007948251548096	-1.3609396660988486	-0.1229697710430137	0.13690988383513447	-0.4025001927386251	-1.0101487481227	-0.548696337181729	-1.2268169016850243	-0.5560910006297104	-0.6811407006720439	-0.7134749322603436	-0.3055214813919108	0.5136305366448576	2.417566910321686	-0.21207595115584452	1.2452765764149494	-0.07795516330424632	0.031431598376132484	0.0006295920614166976	-0.0041007320590152165	0.004941356749633612	0.0006650120582223749	-0.0025989945407762123	-0.00859197663810839	0.002240075131059661	-0.00029004690354669853	-0.0020820237732268503	-9929392918130162e-20	-0.006376712977118307	0.0026858579111081323	-0.0002692145181751382	0.007185888965702706	-0.0005317812935279949	0.00028685850405638	0.028883427035276632	-32473603504860065e-21	-0.010229133338535137	-1.069157257202997	-0.9667035758198328	1.5014741901142266	-0.507962500673674	-1.5600972009815628	0.14122445812383794	0.44133335765430814	-0.37890994848493403	0.3871799771323389	0.640698404481385	0.2031392808820955	2.082642178935123	-1.3947769746797953	0.15433589015824675	-0.735521322084422	0.1520524981740227	-1.6056723585062862	-1.9631297306133182	0.05585827620734524	0.8189101378252001	-0.020879289938135957
0.8641766899150276	-0.8991536568896391	-0.49878364745840204	-0.9008742142196883	0.8713972985127018	2.2118756280993623	0.5329847727020983	-0.25293334775602233	0.5047602179370845	-0.5146936650254685	-0.5547993659315777	0.047764836823286944	0.0937446297716448	1.852784709753674	-0.8281793757494058	0.0015645847285539888	-0.21231140767304196	0.372575796802295	-0.017201585663359196	-1.5029647854484374	-0.0016025436144168255	0.0012678044147892312	-0.0030595797037879257	0.0010007410096609108	0.003518268522683358	-27121227452617298e-21	-0.00019520409430509762	0.0025815139934434665	0.0011288912178311706	0.0015346988211984503	0.0032528351934276558	0.0152796274920357	-0.007538396253999888	-13982035197231276e-21	-0.00019098432973550962	-0.02366064822208009	0.006802557170009437	0.0017717715688858353	-0.01966629899471769	-0.00019383225528220478	1.5472253641923173	-1.379726012115489	1.1213818195957912	-1.0897196578764954	-3.2282697360087345	-0.09162579067564747	0.13511768285357456	0.7891923817305967	-0.3259348933130777	-0.5869864262808203	-1.2637466430202635	1.0972386490405506	0.3123518777719152	-0.054049382616277356	0.1588205021953693	0.5550490373087787	0.9191936336382431	-0.5294240787704239	-0.8274759019811168	-1.5238814840261203	-0.01736620586607338	0.13470352292324855	-1.0932043274538588	-0.552140944126056	-0.323994741157488	-1.3620829846651357	-0.12446544358592797	0.12843098829811606	-0.41994513323834987	-1.008607572428407	-0.5302029298900847	-1.2265228577015705	-0.4961414556452545	-0.7052182442557593	-0.7112316758565362	-0.3374290050482879	0.5189451099724687	2.4177429142903923	-0.21477135110839793	1.2453493819198154	-0.06807403330483025	0.02391839048100642	21051475215125076e-21	0.011371134250890497	-0.008179463508280388	0.0010725225089785785	0.0006613437915559913	0.000540815892561556	-0.005708927054708587	0.00016840668647561828	0.005713232448486776	-8472943830268734e-20	0.018453449388858265	-0.007023347646980268	0.0006371816782695381	-0.011276307510834114	0.0016809470712874288	0.001064320211764657	-0.013688811300424326	-3698766780100428e-20	0.014728182322002346	-1.0953133743742036	-0.9850830288757707	1.488259714796373	-0.5103822620443362	-1.5788962187174973	0.14726802011031392	0.4424288411443012	-0.3856622109092225	0.369067169275785	0.6285983943175588	0.18448118430598945	2.070350330866528	-1.4098687096440958	0.13870377474038914	-0.7383034814078911	0.16306949961786824	-1.5868252287710212	-1.964086683372062	0.0745417509527812	0.8409830761064409	-0.0023883588478729664
0.8601764056091205	-0.8960628308298609	-0.5087805643484481	-0.8984541655528437	0.8794214129766356	2.2118656012621325	0.5320970019495878	-0.26198311201329344	0.5080808532553999	-0.5094122815465525	-0.5441005384473464	0.07567782622799432	0.08053117744951388	1.8527801381580948	-0.8286751113413657	-0.0403618498199593	-0.22713136608794604	0.37882782492774614	-0.031423946119639466	-1.5028350623535511	-0.0027479286795296176	0.0020592852860124495	-0.007676571571424859	0.0016170678294179226	0.005777256226532129	-698310066865949e-19	-0.0006394151125154515	-0.003314498220273534	0.002546740440984326	0.0038768829330734942	0.0077429226255622575	0.014106482948150414	-0.012406518981744422	-4102081422628776e-20	-0.0003429244337122987	-0.036512123718857	-0.0014883506935708	0.004978692013841052	-0.01720278378765042	-0.0008910163077123238	1.5407331276127403	-1.3731491843668449	1.1259659048551118	-1.0831390084018906	-3.2347809529700955	-0.09863068438427268	0.1303356220352537	0.7911488032054009	-0.33050596139026095	-0.5824095950944772	-1.2588398497076356	1.1077360448679299	0.32170506145767885	-0.061089619710954834	0.16521308591652326	0.5839302440064793	0.9196683795207667	-0.5328222196184794	-0.8248758992101524	-1.5168357019383447	-0.02404390977986017	0.1060584161693297	-1.0928463350349142	-0.5397559074835121	-0.33925243145279116	-1.3609540476346444	-0.12841427791102014	0.11240793937586616	-0.42887323516520937	-1.0085900452378103	-0.5234582801801116	-1.2266383028032577	-0.4800606240848051	-0.713229883955322	-0.7105604084862565	-0.360784852764468	0.5212043893394367	2.4181598455947295	-0.18186093130029213	1.2452961380821783	-0.09108433023143384	0.006810038221195209	0.0017146186264144596	0.013481779758608372	-0.013684086783313862	0.003533716845116674	0.0011705930878846017	0.0011664468627381095	-0.008391528864580987	-0.00044848934240379894	0.00714934865819712	-0.00039268511525369665	0.02217191778035619	-0.007086158908265982	0.0006087867393414229	-0.01933583434240762	0.002200050729665195	0.002275523146139421	-0.02029423354963547	-0.0001611342866947985	0.018742157548506028	-1.1437165408732235	-0.9888648321280231	1.4857303971897884	-0.507271822515747	-1.5825163350569902	0.1528098150934419	0.44392371443593726	-0.3851379800973373	0.36526615052113637	0.6265250468134016	0.18076864497614092	2.067997292743707	-1.4129660763314065	0.1354163146110018	-0.735119689982939	0.1646185944201287	-1.5837186813129596	-1.963706969075257	0.07824201099864558	0.8502748031073836	0.00018600527510986148
0.8516774894113239	-0.8899021529064373	-0.5289287273594677	-0.8937282113950501	0.8930777105321221	2.2117910324387555	0.5304193509086356	-0.2953389898975391	0.5161697058283921	-0.4958411006597153	-0.5135471905064252	0.1344728222826097	0.04415782382234816	1.8527282997085526	-0.8298744234643192	-0.15468599516717507	-0.29359417737911764	0.39205446101316427	-0.005975712406909951	-1.5040631872269081	-0.0011551247596321608	383236956482411e-19	-0.014434485827056184	-3245312439171958e-20	0.000791516657989739	-0.00031012858769917547	-0.001176321671672809	-0.018838140721654885	0.005175314648420428	0.00830653321926089	0.01694495671594261	0.009269617975426022	-0.02604146170211316	-0.00021167703899025787	-0.00029652141931093884	-0.07209177065425665	-0.027111619329390036	0.01101817365308097	0.0025280667206359526	-0.00580113822339002	1.5354626190440364	-1.3676866768638583	1.1277809181715452	-1.077658304596002	-3.2403122045443986	-0.10394005097150796	0.12902505761045255	0.7839035748697144	-0.33169617420430175	-0.5820072560504668	-1.2579906384987145	1.0687815099246971	0.36208889482298007	-0.06670618408225823	0.17036424012488355	0.7043265636149677	0.9059712626771486	-0.5318119759998882	-0.7592722102484072	-1.5109055993489393	-0.027680924887267783	0.10598202781827962	-1.084556837702571	-0.51792512082962	-0.3313772491008167	-1.351662304618879	-0.12128160247808467	0.1225543685483592	-0.43091898221551506	-1.0120631580699155	-0.5171248633144777	-1.2279803963184683	-0.40917346393379966	-0.6982021202307691	-0.7121005355895602	-0.33217110001379035	0.5230750007098264	2.4202251411935114	-0.09907739910320694	1.244804479920752	-0.03505459428370488	0.013614149490007131	0.013204472893915008	-0.002236692582060407	-0.004530033380290621	0.017292709946560153	0.0021112304146929106	0.001350259402684558	-0.0031170763903531082	-0.005151827396032425	-0.0005086080384049049	-0.0022400956672971642	0.012103641277231719	0.016519791022876058	-0.0017259824863370536	-0.0010362275700869852	0.00028922236069947615	0.00778885257355558	0.0190395690417565	-0.0009032264969306808	0.028966575035875602	-1.2089441379806474	-1.0019236546770791	1.470720463011255	-0.5299311146550477	-1.5936654367699006	0.15061164856764447	0.4533072046695351	-0.40403481803149277	0.35149757282726146	0.6107681181245228	0.16877609579091374	2.0554996530510024	-1.430069133355521	0.11894236217166287	-0.7614044340631999	0.18202984143402273	-1.5757290817264191	-1.9866097089289736	0.09010792353085942	0.8633270161278405	0.005771889885552365
0.8431644896794921	-0.8838673309286981	-0.5487800004718634	-0.889130273777888	0.9058055957259575	2.2117001647687404	0.5288290911876362	-0.33016097685006557	0.5246969786548953	-0.48129014955442556	-0.47961776674653384	0.21190977867526467	0.0034227907598941704	1.8526636376195056	-0.8311205089083809	-0.28848986519700764	-0.36686293497459843	0.4051828304379009	0.017315746785563014	-1.5057643732645924	0.0017500915211627179	-0.0031887600042924667	-0.020252276451863525	-0.0026446827249669183	-0.0073083678552985564	-0.0005983555871890965	-0.0015821652410482764	-0.03454925417686004	0.007700677070455306	0.012623891305230475	0.02627491047160925	0.008073028570327793	-0.04132563824156707	-0.00041766453688430784	-0.00012890499140054683	-0.11243287975341665	-0.053920330024338006	0.0168097869403991	0.022617735172463526	-0.011823744844692341	1.5332520266432899	-1.3652802858677837	1.1266996447926105	-1.0752307372510561	-3.2428454342468895	-0.10585637398345987	0.13090804167813472	0.773349543137533	-0.3298055231469416	-0.5849861774425974	-1.2606398501741185	1.0213800723840867	0.41187663130790625	-0.0690025450729132	0.17248235062555817	0.8499874367573099	0.8882390771055659	-0.5278748624416063	-0.6810968473947087	-1.5082026188080166	-0.027594390129683857	0.111643365124122	-1.0742150439229636	-0.49770817528696043	-0.31382402738895465	-1.340366666842804	-0.11902819523835179	0.11447084667333604	-0.4284127484985224	-1.0164968415487983	-0.5140667618919454	-1.2296335461035475	-0.3101157096373056	-0.6761448302133879	-0.7145034056389679	-0.2925332132198535	0.5242817564603575	2.422664782111475	-0.098583554448362	1.24420653984128	0.007804252561577123	0.028529393886145588	0.027080789304139576	-0.023282576192327917	0.009630598251554406	0.03374487668451054	0.0012162557140803342	-0.004924186973593796	0.005037500671018527	-0.010855528862940498	-0.011269257220945903	-0.0044504198140008396	0.0028216510006528403	0.046469875512814854	-0.004709003493367347	0.02388294223541289	-0.0024032849358898737	0.0143026901880247	0.04939968209133028	-0.0017963482521706562	0.03235546278232428	-1.2970581220152984	-1.0000812341806429	1.4695813299551377	-0.5437298320760853	-1.5894722959838263	0.15573118030543256	0.458909936271904	-0.41205853468715864	0.3524627074379153	0.608216316516258	0.17195261423700586	2.0589232764010035	-1.4336653998839655	0.11619582045473434	-0.778232506339766	0.18699624920877533	-1.583718344836632	-1.985469813059093	0.0867784596794086	0.8945576051407635	-0.005062611573430355
0.8435098427664809	-0.8842183861393595	-0.5503107617177192	-0.8894057042344187	0.9051675042838575	2.2116822500677036	0.5288455979098595	-0.3348330089643195	0.5251597240219562	-0.48133285402087883	-0.4806245186269804	0.2068492187197053	0.011108899969632529	1.8526479425930025	-0.8311053163806137	-0.3076511305217221	-0.37958601253755714	0.4061336478016774	0.011420035628834299	-1.5062582963358913	0.003308066852139147	-0.004569575981608655	-0.019810388420816966	-0.0037303531094313256	-0.010476949777313066	-0.0006513993618094553	-0.0014647107381207647	-0.03569685981892983	0.007567681448107082	0.012115168920923873	0.024821720270738267	0.0059891428024279846	-0.03958375296796734	-0.0004581594231831019	3402884648153948e-20	-0.11697595967020902	-0.05722599278521135	0.01679831456877045	0.022121940782319164	-0.01299753201472842	1.536058885344934	-1.3681016541459383	1.123663359004342	-1.078054609216823	-3.240009220607458	-0.10263724466430692	0.13378584457763296	0.7691855622024306	-0.32683511450616687	-0.5877585536126742	-1.263216933761199	1.0271281351760575	0.41184063268041504	-0.06585888432989509	0.16966443918759147	0.8498550429375084	0.8825643326525664	-0.5247192063057836	-0.6754109241928721	-1.5112509499139575	-0.024014637751507736	0.11266743238210591	-1.0725453120799884	-0.4953841486623433	-0.3137323582776385	-1.338544438679567	-0.1187757368481294	0.11442159367585328	-0.42897753844529407	-1.0171439297053935	-0.5132965644375901	-1.2298782963169639	-0.3047080519146376	-0.6732474741074203	-0.714747258498002	-0.2901421675815794	0.5244635930418365	2.423035512493171	-0.09943956108598068	1.2441030872406487	0.006871542672944067	0.029637471635038597	0.02933691892514468	-0.02697838463271384	0.01104672858312717	0.036426439614293274	0.001190094197005198	-0.005179420305154625	0.0060634785574587334	-0.011731408171771693	-0.012885526120509893	-0.004791916830173858	-0.0016076812117714195	0.051159703953970674	-0.005117603183176097	0.026554455338083517	-0.0028643400203343843	0.015381962691987217	0.05128603417756616	-0.0019466766604497256	0.03215008485745532	-1.3035221214576322	-1.0006921741911534	1.4683582008753275	-0.5455813874600831	-1.589711697273965	0.15614186071238723	0.45896579267053444	-0.41361339492756644	0.35176217497614864	0.6069425357557084	0.17158440705113226	2.057604997946104	-1.4351006460537605	0.11494037009107141	-0.7805907085753501	0.18844360961735937	-1.5840940519668971	-1.9858274028334384	0.08712846920368403	0.8951405243178375	-0.005924036168407225
0.8488398648007786	-0.888437008009176	-0.5462093350382504	-0.892681152344269	0.8963610280755762	2.2116376482084497	0.5304544699282845	-0.3444625631727842	0.5234262078823644	-0.48926601079764964	-0.4997490861810267	0.2158531619119938	0.01928355803083459	1.852609048557703	-0.8305904616945258	-0.37725880770392733	-0.4206936826289033	0.4025210967754875	0.028163911335094962	-1.5078592452075354	0.009829077239032886	-0.010063860792054565	-0.014751615258843501	-0.00803840836602912	-0.02292417319810555	-0.0007949110433365797	-0.00041193621432201555	-0.03521307656097462	0.00584550852995086	0.007119492263377878	0.013091823708361424	0.01417146037484018	-0.03235722087521799	-0.0005608807122009242	0.0007008314253921667	-0.13003315924871744	-0.06585611381002353	0.013679897501955076	0.0203714549693747	-0.01649402505169884	1.5461073759526751	-1.3783044692634145	1.1140748501547946	-1.088272930078094	-3.2297650204582955	-0.09079085797997734	0.14215322294524976	0.7574926997293292	-0.31802011743193315	-0.5950889356473956	-1.2699203944872668	1.0370205715948222	0.4182053190945391	-0.05422449605786603	0.15962943870963878	0.8362805262068583	0.8638110323443599	-0.5164774778019194	-0.6683720096281919	-1.5226113986767904	-0.01105843548842853	0.12228322776315069	-1.0683439912690627	-0.48966537054294784	-0.31794158520199717	-1.3337702850507436	-0.11923474450062721	0.1128772582270576	-0.4333132737043549	-1.0184568798437572	-0.5091943896506147	-1.2304339391850774	-0.3124162765534061	-0.6682727531997733	-0.7147335225354557	-0.2892858116735502	0.525264664330464	2.4240029653427104	-0.10740764905913147	1.2438238550930174	0.0006971312377358329	0.031549731645750465	0.03550179490854214	-0.036579033884917234	0.012621850561914939	0.04395884582722362	0.0011824453198875401	-0.0050531935586461355	0.007530644924503904	-0.013927445781562815	-0.01614695891676723	-0.005689609898270984	-0.02201081292478081	0.06297975652226011	-0.005902630178654418	0.03097531321567619	-0.0039803711068116965	0.018674125369404514	0.05375459664715996	-0.0023693884817430626	0.032200133356884264	-1.3254253317450686	-1.0045089374716754	1.4630111204545628	-0.5491070947824318	-1.592600081506643	0.157727621218926	0.45928857681465074	-0.4172871912252672	0.3479384090740789	0.6021668206502367	0.16849144232135618	2.048935837545496	-1.4408293544180444	0.11006843564932141	-0.7862818391582483	0.19299109634070852	-1.5828760113928129	-1.9900208174493614	0.0901984258401298	0.8965932231150773	-0.006243189969623088
0.8520921564513172	-0.8910550934084188	-0.5402715714043846	-0.8947552919560976	0.8894097226833574	2.211626227027378	0.5314067243765812	-0.34129168067091453	0.5217490955478762	-0.4929346096460796	-0.5060925677904815	0.21475962180077082	0.016191559203870397	1.8525999678104152	-0.8302618512385646	-0.3913904735135389	-0.4233032661107767	0.39870300885522847	0.03564420586721573	-1.5085218729176075	0.01280238037542386	-0.01255084719266788	-0.010697756149068663	-0.010008188001375824	-0.029245733014707894	-0.0008388978069789561	0.00019211855504548746	-0.03201170607510386	0.0046858404281628924	0.004671432927781908	0.008427826937439334	0.01868606334018732	-0.030157586906029262	-0.0005884875472648512	0.0009978144150474997	-0.1315162826741781	-0.06449875977344172	0.011187638275944597	0.01772695407656605	-0.017748469782252856	1.5486223469780727	-1.3808911930845849	1.1127154471688836	-1.0908581498859549	-3.2273092661675116	-0.08745600172654051	0.143464093646042	0.7568506959838502	-0.3167774457114324	-0.5962419319842276	-1.271320231456941	1.0421635295350031	0.4186061113947476	-0.050958442763521544	0.15721728882365246	0.8315756054797955	0.8613925948144121	-0.5160872469760471	-0.6676411016202504	-1.5257796095288563	-0.007315129785298011	0.11762226394078829	-1.0670063197147475	-0.4881183733407417	-0.3196864796825523	-1.3323283923203815	-0.11896529420507777	0.1133555501910423	-0.43376524676665446	-1.0189457817685317	-0.5090485406346893	-1.2306085976697216	-0.2968082290872823	-0.6664393594471582	-0.7149453686998425	-0.29196269607926106	0.5253053204590322	2.4242671945386047	-0.10380396337233008	1.243738291040145	-0.0007832348130594848	0.032035176668724595	0.037503242703928116	-0.03960656297400969	0.013469611767755393	0.046422054631145494	0.0010939064651729828	-0.005378730668509819	0.008486272296041649	-0.014635519643062702	-0.017603239380569152	-0.005967418875096847	-0.02160489082580215	0.06694380843701747	-0.006213461337517315	0.031987992210058463	-0.004443437880309034	0.0198770044968731	0.05613706795449689	-0.002514335791258805	0.0313892898993883	-1.3263107892872856	-1.0046893412861961	1.4625009727990055	-0.5498167134376244	-1.592497943432236	0.157838418458697	0.4589496488414999	-0.4182287206096638	0.34777582719731304	0.6014571962844497	0.16856784093069643	2.049672456658752	-1.441693699265583	0.1094276349767582	-0.786818183335346	0.19387338438514223	-1.5834970053015314	-1.9897398945537257	0.09012029820392979	0.897856634555818	-0.007460019844311973
0.8761516285886433	-0.9114272546070517	-0.4944350939797043	-0.9111296384960925	0.8271609288985418	2.2114699358284877	0.5371190673934264	-0.30054042940174497	0.5115937899358809	-0.5078913010682041	-0.5211963731747045	0.17864569690729123	-0.028393473416561812	1.8524697083124886	-0.8278248352270026	-0.4300156721790794	-0.39900582230973247	0.3726072682014523	0.062451446383325115	-1.5156865911879704	0.04101087090087313	-0.036740951467021596	0.02579726447871797	-0.02925184555806664	-0.09414243747981232	-0.001374137846966994	0.004863652882541288	-0.0028757479112523944	-0.004789669471778847	-0.012080140398507659	-0.020669498474467033	0.03766218308088472	-0.02196837209200766	-0.0009522635807096218	0.003902987408070233	-0.13285607383900624	-0.043450089671426766	-0.008812013893535933	-0.0013603605054967084	-0.03187301355325093	1.5593328070001686	-1.3920752276209836	1.1124742271961483	-1.1019838637999184	-3.217963101963637	-0.06910346538465403	0.14614418530875278	0.7631615177149154	-0.3156936484438874	-0.5997560950308047	-1.277960501231578	1.0767374454995573	0.4080684853934026	-0.03342248548464499	0.1476721835701391	0.8619696791847318	0.8573950828807996	-0.5218278618225941	-0.6249048303887696	-1.5421875548406474	0.015519136233747545	0.11101435469778517	-1.052568615639056	-0.45592657057064845	-0.33785740529454544	-1.3161230354004552	-0.11945390097385912	0.10122773737531324	-0.44568264814350134	-1.0242526926912185	-0.49912408541333975	-1.2325908444957567	-0.27564828081881704	-0.6486574092497669	-0.7168570581742568	-0.28968335431247044	0.5283169872616372	2.427505331717506	-0.0990408302385376	1.242778472027665	-0.046718941223506026	0.031587436132722926	0.05992105133685739	-0.06816697484156065	0.02082645817744457	0.07427813045556358	0.001063106480751054	-0.007755580203071424	0.016466332704083764	-0.022677084302475656	-0.03124356558903376	-0.009143645000299544	-0.04635520936270407	0.10956768531328791	-0.009637615039882964	0.04769882775244798	-0.008678036820205931	0.03321701124996376	0.046950009493260766	-0.004166706000535597	0.028649794786204098	-1.3564770816050709	-1.016829040032124	1.4483423310752765	-0.5653696310632461	-1.6015000811084459	0.16117636632438959	0.46463180316553243	-0.4356011768156995	0.3356198169018648	0.5855604442951194	0.15909110476500904	2.0392114284594816	-1.4607468295849864	0.09263764643929692	-0.8056750010014371	0.21175287460790734	-1.580425973890095	-1.9783484377297176	0.09954578815843815	0.8934136128322032	-0.010870183355032592
0.882881508204335	-0.9172284204755493	-0.4639223862559796	-0.9163510076383784	0.7677474195567889	2.2115472527371574	0.5398519896084578	-0.3040224909820679	0.5059264532007159	-0.5147792763614016	-0.5276268661168855	0.13565583162733177	-0.03820244410867706	1.852543301615519	-0.8267977817396635	-0.4303667623216877	-0.39729234582089423	0.3636819047982012	0.05984301983578164	-1.5140584546863556	0.044430215623261035	-0.03961070037065049	0.04618345479095468	-0.03185566780650815	-0.12518983188990912	-0.0014901887276977316	0.00666364123091937	0.007924532984179614	-0.008759467868728206	-0.017698705360880144	-0.02926297943622902	0.04398785371998606	-0.019577752370921197	-0.0009546170021352604	0.004408045091975956	-0.13039493112776637	-0.035241593775953706	-0.01776961902133157	-0.005917309809396868	-0.0324784660838915	1.5676453525240115	-1.4003918874539598	1.1144333314284216	-1.1101460553071074	-3.2140003742001	-0.06142519748437418	0.1498212183085728	0.766032412097884	-0.3140341777397322	-0.6044476222302567	-1.2842414319543292	1.065448532038875	0.4289091644415804	-0.025348239007115636	0.1408807150089353	0.8736324453136793	0.8546728744413566	-0.5244521817121076	-0.6098471584197155	-1.5507473402646217	0.025361261860054295	0.11278656213058208	-1.0515506726587818	-0.4726357276435863	-0.38289010066532864	-1.3148421848729326	-0.12531143971724	0.05162200471738532	-0.4581865700677303	-1.0238448519160095	-0.49192274160942456	-1.2325644962521707	-0.28018249865135025	-0.6354718604177232	-0.715452778869886	-0.29301189534446415	0.5285711267768137	2.4288522602734917	-0.08798656204670152	1.242687170028452	-0.02937311987517639	0.033209298206848724	0.07071281772261957	-0.08473286469309566	0.012723982082823456	0.09123057921081029	5677613034201813e-20	-0.018026622274466934	0.016898520113314282	-0.02583859373619122	-0.034171016151137004	-0.010699187789145583	-0.056413893463252096	0.12875168318659172	-0.010005754174752343	0.05113045962030247	-0.010730497951135032	0.04903942780572209	0.04067490705277678	-0.0052491741501310115	0.03931875061937673	-1.3734263319001685	-1.0262274172149952	1.4389010141533205	-0.5569506184968621	-1.61086899364536	0.16517797468790238	0.4858200602447757	-0.43761549752448947	0.32742571070881704	0.5787205017763223	0.15068720684059564	2.0340054654925064	-1.4722288406805577	0.08492953187360634	-0.8090651771261884	0.217945534343856	-1.5730854030279204	-1.976287953927667	0.10810684064611098	0.9879777074706092	-0.011858330100066422
0.8837157920383863	-0.9178563520638688	-0.4586853110632686	-0.916957563540466	0.758315931553083	2.21158256881459	0.5401261517317469	-0.30419092244994356	0.5051413898684532	-0.5149455501061838	-0.5273095003731518	0.13464867601879643	-0.03485402115263559	1.8525681761814037	-0.8266037426760792	-0.42998372419093034	-0.3982437726683455	0.3626165713284569	0.060695912305168694	-1.5126250297233355	0.043597267133295356	-0.03879164791238725	0.04898545204133249	-0.031245651602073866	-0.12657672544143342	-0.0015185500919904366	0.00682985977021781	0.009313704059219259	-0.009258608697852342	-0.01811181685392831	-0.029712321435018667	0.043602656534893196	-0.019348119843892467	-0.0009518585501134806	0.004385691177533658	-0.13058538327846378	-0.03454372341486327	-0.018909750304204387	-0.004678096223583648	-0.03162271256935265	1.5681430309992281	-1.4008878691120141	1.1155132924192421	-1.110625294837372	-3.2138313811826524	-0.061791902316572465	0.14962455058979507	0.7673667111965584	-0.31456716720363975	-0.604485395902318	-1.2845072125540529	1.0646398243829311	0.4242466110197059	-0.025468413470208215	0.14056885847125397	0.872858207379798	0.8549464154581133	-0.5256305086223985	-0.6042999236074456	-1.5509248790632346	0.025623352057396576	0.11285786168465228	-1.0526199462078727	-0.47296784745832643	-0.37923078088680057	-1.3155612932936138	-0.12757025894836518	0.05759007614283446	-0.4602608682258074	-1.0235426023417638	-0.48864662690338684	-1.2325001268720044	-0.28329403959303523	-0.6420756572405549	-0.7152332791299298	-0.29709661080323424	0.5296529692547111	2.42937046333831	-0.0845155397630301	1.2427401233668396	-0.021723570663548058	0.03125484200836701	0.07395497817839547	-0.0881604983760643	0.014656856185917286	0.09706884004086042	-0.0001684985582769215	-0.015242769533078836	0.017275434693490372	-0.0269153392780435	-0.03461330661343556	-0.011255568190183068	-0.05821432785649494	0.13055387511692773	-0.010213442604665553	0.050701556973489145	-0.010943023678246616	0.055254034576926465	0.03644614073259816	-0.005622888943550484	0.04478902877681185	-1.3786419482576031	-1.0266787084158222	1.4394630866598728	-0.556953642398898	-1.6115640188973888	0.16656809953441706	0.47352272275193197	-0.4364303187035296	0.32728234669992673	0.5800310525164816	0.1503542265566305	2.0357352805530136	-1.4717935195338896	0.08527016741090511	-0.8067350828162424	0.2169441623811554	-1.5729956488075385	-1.969666041069836	0.10849509881110407	0.999725061465053	-0.015006534618514538
0.8846885894837053	-0.9183336914266729	-0.45860626084941525	-0.9174024598822332	0.7583969804557341	2.2116667189307	0.5402578902530184	-0.305570112256944	0.5048556247367235	-0.5136786374987412	-0.5213160729706248	0.145818019013615	-0.02721530154622384	1.8526247010335741	-0.8263836567390498	-0.4295417364693611	-0.3995888185988644	0.36325092746487336	0.06481381468939094	-1.5089032368916886	0.04120142673837338	-0.03642715573989809	0.048744126492398294	-0.029359904930930613	-0.11845810514791748	-0.0015993680193715867	0.006918198800293408	0.00927772865460005	-0.00942996343221076	-0.01800001632672042	-0.028013552497675804	0.04215303366617142	-0.019508279944815687	-0.0009520685263706436	0.004207016651541926	-0.1319149547553772	-0.034158252977410625	-0.01895746358916232	-0.002754677016928885	-0.029665926569003846	1.5669637671523395	-1.3997263485195421	1.116558467375279	-1.1094727499342425	-3.213791182576709	-0.06522961314270445	0.1478558808245796	0.7694128106111586	-0.31636657331605417	-0.6030860735670543	-1.2838376844863302	1.0641382816757596	0.4156436514134073	-0.028300649658637485	0.1417047425842186	0.8633711392518205	0.8573265971339901	-0.5274043328063177	-0.5980749381332671	-1.5488493312862996	0.02386013079769409	0.1121357531473021	-1.0525103010386319	-0.47143920191529776	-0.37824703320252606	-1.3150238984250828	-0.12923707147934588	0.05419081049331482	-0.46266303932932223	-1.023709931132035	-0.4837537983674236	-1.2325771273109027	-0.2839101016122201	-0.6472187452227853	-0.7153523855436155	-0.30262636840533247	0.5309535643882921	2.4307087963084184	-0.08157416654355998	1.2427065010428076	-0.018880759959325356	0.032618366024239	0.08387212217990296	-0.10091201465844288	0.020261402355726977	0.11303702707175012	-0.0007251622104622873	-0.015405680958472534	0.020925036572323766	-0.030109912033213105	-0.03872560943227124	-0.01274805203258226	-0.06826188333029998	0.14291088528484838	-0.011090276756962386	0.05490890758737199	-0.012642864961290553	0.07027894664076323	0.03249472439488713	-0.006671264383676004	0.04949208601883721	-1.3710867834655371	-1.0291507608742119	1.438580459263109	-0.5597283694103484	-1.614165457364734	0.16679665349937614	0.46074774649865646	-0.43826090436355086	0.3257265465988617	0.57976747698109	0.14873322205087394	2.0371922478085014	-1.4744193904441933	0.08357488916509674	-0.8067884625143502	0.21848609526037618	-1.5725891724209768	-1.9570604519698938	0.11026984226748933	1.0144001740057016	-0.022384789428326377
0.8885127120847242	-0.9207311646602421	-0.4631573725932902	-0.9192162056834009	0.7602162927703962	2.21175930172395	0.5412164263295957	-0.3117117843706764	0.5035962871185861	-0.5178216253440634	-0.5283697606382879	0.1463793324511268	-0.02786236626462426	1.8526774823372583	-0.8258802947117005	-0.42767665686268186	-0.39990196658165517	0.3655219922954114	0.06477957721895261	-1.5046964459903824	0.03912024037934521	-0.034044971961240504	0.04722757271068955	-0.02735989994219003	-0.10671890706834261	-0.001685451295257966	0.007259311764626012	0.008681896102149894	-0.009956097590182829	-0.01978170259396779	-0.030983063351880103	0.04097796044632888	-0.01973952897110819	-0.0009679449722132103	0.0040842319698091885	-0.13093454739460272	-0.03269265240711904	-0.01893608703915446	-0.005158784660556883	-0.02680950545135412	1.5673582479500583	-1.4002544173699727	1.1148178069441084	-1.1100616607766365	-3.2110044013906944	-0.0669261828943144	0.14685096548726423	0.7690350456514076	-0.3168142438815719	-0.6016262498724726	-1.2827580942539023	1.0645699308440144	0.41848556647178625	-0.029293751849997506	0.1409411309834128	0.8635683007617476	0.858462482766989	-0.5272449550166362	-0.5992727768798601	-1.5486922900656293	0.023748056052076347	0.10913166077642547	-1.056060790959213	-0.46565266758512996	-0.3746551465215206	-1.3189714663467929	-0.13006065539110792	0.04783753860794985	-0.4634392184938258	-1.0232520185441887	-0.4797057848098892	-1.2324077475455792	-0.2849616404496688	-0.656971111730624	-0.7156830516745517	-0.2987914972651107	0.5326061436564203	2.4313617243737533	-0.07869266900744201	1.2429734595084485	-0.016030481616535298	0.03198421249660461	0.0889945900333189	-0.1068292282689994	0.02433417978817042	0.12295136622849889	-0.0008936557036617282	-0.016539088907300832	0.022996745621854678	-0.03223303225771729	-0.04066397646464057	-0.013828814403434992	-0.07121356468624296	0.14587806332307968	-0.011826200572018568	0.058582535141449	-0.013096475332275549	0.08384074154322256	0.029272275411378883	-0.00732552941817388	0.05421683954738193	-1.3660478892238463	-1.0309489340797335	1.4390736210128383	-0.562813648884226	-1.6167628888721908	0.16634659531409718	0.4517122154207534	-0.4397479636940708	0.3241775282706205	0.580775725486922	0.14675200522467807	2.039764422755644	-1.4743866755595347	0.08275399262662954	-0.8075290964220485	0.21896677244944113	-1.5705265225594593	-1.9459694779376666	0.1123409953899838	1.0202334248398666	-0.02751597066197118
0.9131578944736729	-0.9370545750255774	-0.48316969104509044	-0.9321620096853377	0.7019958894865016	2.2125122319769592	0.5462588784987233	-0.35781413725209255	0.4986947365238365	-0.5351174183022713	-0.553763643159723	0.17072645656957833	-0.012425348808563033	1.853150871860129	-0.822572007816519	-0.4290575203164812	-0.40921550101456156	0.3883935793550392	0.04585395698514705	-1.475658967344995	0.02090561126053674	-0.01463903389843732	0.0474190955173217	-0.011636577106954014	-0.06751637590484386	-0.001979292836377644	0.009371203956932948	0.0031866729110749687	-0.012997421433327319	-0.028657152464842173	-0.04437745918843231	0.029483319937433743	-0.025711820266338795	-0.0008348939457263363	0.002888603434479447	-0.12735512645997493	-0.026536529288756765	-0.01797232795861504	-0.007055651810338693	-0.0022064941155299153	1.5665810767920745	-1.400213802463794	1.1165288775633573	-1.110263974560662	-3.205611831922753	-0.08282768906676279	0.13668820950920302	0.7726932735135503	-0.3252128806474183	-0.589979720291834	-1.2735050207899221	1.059900263566389	0.43186013682404994	-0.0401216563581332	0.14083241895776777	0.8740013420001227	0.8688805388566976	-0.5325484053968226	-0.5917916643249193	-1.543911855461505	0.01688900076658125	0.10626735504184841	-1.0878629973086396	-0.4640069634359456	-0.3602298622211892	-1.364434914187404	-0.12895186768142555	0.05611621559709329	-0.45960126882974695	-1.0155851812206609	-0.4814026742589442	-1.2291508311464985	-0.27992368106573673	-0.6721647281405905	-0.7154985643636049	-0.29399943688572217	0.5334509183569502	2.428588912280303	-0.08216424737238591	1.245851878683685	-0.044242338271714435	0.04361083184168584	0.09175744991443059	-0.12112009267334138	0.035852076288184154	0.14109761277168822	-0.0021408454888259877	-0.01686290228101444	0.02819470814305854	-0.0356754938882772	-0.04669106333429039	-0.016420179383900658	-0.08581527460325956	0.14184577938947981	-0.012765689152827699	0.07026954432803824	-0.014063930004307357	0.1530420804863749	0.03223315336166732	-0.008831063684723004	0.04907004023150163	-1.3384882748002045	-1.040291403510435	1.4399280824683156	-0.5699549680199472	-1.6337638720812386	0.16622433035706022	0.43536611931904556	-0.4428766183656931	0.3154806931755756	0.5813948301307552	0.13284910346947684	2.0447944608902997	-1.473597940486708	0.08084624374415571	-0.8094808765365747	0.22005531171024956	-1.5457489422624016	-1.9279003602822378	0.12667191008349774	1.0190772917099646	-0.041384838688024395
0.9215580194383115	-0.9426147407305607	-0.4929163503545015	-0.936548654977275	0.6852237359071459	2.212761551693688	0.5477986330541129	-0.37407471856117674	0.4976048882000589	-0.5410899375692586	-0.5638417860854433	0.17576395633883768	-0.006214690304800486	1.8533158785985293	-0.8214447236072311	-0.42430831579975187	-0.4128845355471717	0.39730831267306366	0.04023407232642347	-1.4659203994027972	0.0174026812600696	-0.010438994283697083	0.04823123171567985	-0.008194979829073941	-0.059821074381155664	-0.00222597964254391	0.010266947821160884	0.0021517713054749745	-0.014369835143309327	-0.03268621695061272	-0.05158846489255609	0.02607660425972269	-0.027150857196419603	-0.0008527196946304151	0.0027335787352267805	-0.12287789331823668	-0.023693198591302544	-0.018020501874397864	-0.0078840062008039	0.0035584874325884216	1.566042908356149	-1.399930116278816	1.1169858871985543	-1.1100549009405933	-3.2042967384447922	-0.08836067208960723	0.13305144916737763	0.773682876935813	-0.32804840014259173	-0.585662720079937	-1.2697904888485043	1.0575242858505554	0.43688712173448685	-0.04400268976440761	0.14110951258357804	0.8780640710354521	0.8718007697254577	-0.5340945784755979	-0.5887972808208719	-1.5421065342269318	0.01588043025063022	0.10915943526225351	-1.0966057414481254	-0.4644204421818199	-0.3613052774219735	-1.3783067260274722	-0.12956962953409656	0.051986141131934296	-0.45913663342563643	-1.0132478041142072	-0.4807329428562351	-1.2281329075533056	-0.2764411707472153	-0.6715326854852324	-0.715228824713314	-0.3053691003803647	0.5334078819030947	2.4271519567516857	-0.08306959870559577	1.2467318210034604	-0.04102697453835026	0.04867306412830814	0.09297934089538143	-0.12768413901323578	0.037838448998483494	0.1462457330732602	-0.0028238529991472224	-0.01916685757648301	0.02989253457960395	-0.03672789643358239	-0.048786321702756284	-0.01718193078414159	-0.09666856534658182	0.14422667608581202	-0.012975803218905945	0.07143427757101878	-0.014747125336941457	0.1751526242746747	0.036354935297331276	-0.009296242604722326	0.04929491755978125	-1.3370982470423558	-1.0421571037122093	1.4406204289802782	-0.5688629646041649	-1.6378849782447882	0.16568997070518315	0.4248815750801846	-0.4422520750405549	0.3140411410309469	0.582438358618623	0.12980618228936683	2.0449372808193798	-1.4734243122173452	0.08125906520044186	-0.807031130161898	0.21941468093916122	-1.538982483268635	-1.9210160080168313	0.12986859753686894	1.009826071048033	-0.047169677510003144
0.9297177277491874	-0.9477623528675898	-0.49894867692504985	-0.9407121354065816	0.6555110556892936	2.2131045622703667	0.5495181753661922	-0.39536755485747016	0.49550494132225453	-0.5457185986432413	-0.5689265665517885	0.18504004512802555	0.00862853670271448	1.853559415687109	-0.8201767787740938	-0.4255335855916324	-0.4165983133329441	0.406768904476267	0.03728386379677717	-1.4520424064713378	0.012862989915527381	-0.0051699576444231045	0.051779734204454905	-0.003917145621330326	-0.05453739983961208	-0.0027171003480652633	0.011401236841917524	0.0012819993367032365	-0.01651078825600691	-0.0370916273783234	-0.05855387539121423	0.02277479087376254	-0.027825463688427803	-0.0009365505162023072	0.0025290124710002507	-0.11943782902389571	-0.018905814668258712	-0.01898646557202853	-0.007337267867638363	0.009404164734307321	1.5658833359459463	-1.40001977661387	1.1181251322071484	-1.110222297683218	-3.202804678727162	-0.09604275060623911	0.1292390930549863	0.7745153154753459	-0.3315462876923836	-0.581689585555335	-1.266920375597189	1.0557516735672983	0.43802264378648403	-0.04945818184068786	0.1410466481466732	0.8816519582228595	0.8758684330654933	-0.5361671640522209	-0.5813685477564516	-1.5396226042606687	0.01581492887552331	0.10958162596174274	-1.1085129268038851	-0.459739200696341	-0.3638271583564867	-1.3973925519682735	-0.13011410126321393	0.031164182570406967	-0.4580640596768579	-1.0102287483520034	-0.4780350148920725	-1.226823617509964	-0.27610181154210006	-0.6727191831735984	-0.7153385298589391	-0.3113083674221596	0.5342375207873131	2.424564098913897	-0.08167962703552262	1.2480414528987913	-0.030606531178066127	0.052512375134172284	0.09262158184076733	-0.1313907237354773	0.03889054724574495	0.14956122565736996	-0.003337494473022565	-0.025924858687593734	0.0313073030997307	-0.03760021724710897	-0.04973165406557718	-0.01794663900545356	-0.10053999793733741	0.1438337333050002	-0.013309848549296708	0.07276546908672916	-0.01485913411512619	0.20273014267497136	0.037752740520586484	-0.009646955988123528	0.053462618030783726	-1.3296799584775627	-1.044467167043369	1.4427632087788764	-0.5675544928727364	-1.6432020954231412	0.1631953666545732	0.4116379391432112	-0.4419676944855676	0.3122216343328452	0.5851020074444147	0.12581881888403132	2.048050893432792	-1.4725534591208527	0.08203987210202002	-0.8044311892154838	0.21839839700261376	-1.5293747159597844	-1.9064413655063217	0.13403268713051025	0.994189290190169	-0.05350604475137182
0.9238940900597867	-0.9414268987119091	-0.5034696522397768	-0.935771874488934	0.6470254716733261	2.2133439277169438	0.5497879564357836	-0.39868426104688154	0.495827712898046	-0.5491229697218825	-0.5804792450109799	0.1910829883469235	0.017247087036116496	1.8538141067389808	-0.820193502140178	-0.4245627209581976	-0.4297056333047397	0.41239958381674136	0.02618082019114054	-1.4365383634862228	0.017955948319136248	-0.00919745145560169	0.05995115567037071	-0.0070008438585483345	-0.06929807046063453	-0.0045326532006999595	0.012452397675071612	0.007067051642234771	-0.01937905083001858	-0.04268864895718112	-0.0716683717308652	0.027600672618962013	-0.027327829799178503	-0.0016730064793288907	0.0031152285247610647	-0.1102932066642024	-0.012088064702734557	-0.022548276772307765	-0.00915721240577982	-0.0026622632848929424	1.5630382239167913	-1.3971364886243771	1.1204570083838332	-1.1074122638257728	-3.2045286167563485	-0.10836143255581865	0.1261592332069743	0.7770030284573495	-0.33438502359241373	-0.5781240096503409	-1.2629097218163579	1.0439178583443605	0.4322074240238407	-0.0600573314254395	0.14331224950388516	0.8843267533764266	0.8788216675170197	-0.5381057385441739	-0.5788066049397359	-1.532140436706122	0.021454522452584814	0.10869238130627591	-1.1102519283829466	-0.44381080276701385	-0.3637193131283909	-1.4042549047123325	-0.1296553733999652	0.02765170655691747	-0.4614004861508718	-1.0100991213546122	-0.47196735398973444	-1.2266051671755593	-0.277636758933006	-0.6862871891125273	-0.715969561715875	-0.31636152488943636	0.5376747265640316	2.4204003989401524	-0.08185007974950774	1.2485908736890967	-0.0276372584513828	0.05639116279068817	0.09576642221614075	-0.13439502868910755	0.0407126984602553	0.15096508759134727	-0.0035373447576681986	-0.02977907952359786	0.032459276044183374	-0.039387955324728344	-0.0511293993283898	-0.01866454559123456	-0.09553514820076557	0.1484923770183952	-0.014242862794274174	0.07141031816390109	-0.014938947069000985	0.22171107782375635	0.043769772456939506	-0.00989054492279754	0.051393976969438565	-1.318558632611526	-1.0450024063968426	1.4460587918779044	-0.5675442899072602	-1.644393534364397	0.16376224567303557	0.42767981684096945	-0.4416548578278954	0.31203538918532286	0.5882382747260635	0.1251451735117083	2.0552196167823684	-1.4719095547509617	0.08232600814916914	-0.7996920972940792	0.21733162499099884	-1.524484761704351	-1.899991448978573	0.134777118246637	0.9875034125080484	-0.06072775265399653
0.9156179570547198	-0.9327992248573461	-0.5037733394601677	-0.9290275930647289	0.6566244015863097	2.2136921088692585	0.5506080360672295	-0.39851013365791815	0.49609235668596885	-0.5521493208674021	-0.5854677246465351	0.19263556959463551	0.02410183195915267	1.8541980219093148	-0.8205954029669661	-0.4279407404601973	-0.4350990667286227	0.41327492344403377	0.02016051418879817	-1.4191132322600617	0.020674601385087938	-0.011025139543645208	0.06666453942804484	-0.008357684625295144	-0.07297765827340297	-0.0065583758117674085	0.013538744363029438	0.013290484691803866	-0.02130510269752518	-0.047387664421810215	-0.08109866944773214	0.033502041979932465	-0.025250217573352694	-0.0024822794254879556	0.0033619220471358055	-0.10564304899127393	-0.006948980195290314	-0.026384267587371425	-0.012792267568943888	-0.013076511679378861	1.561720941970511	-1.3958076934923198	1.121021924907512	-1.1061515355236757	-3.2033698737608374	-0.12054486985712506	0.12508195667972075	0.7790161626997858	-0.3349837965785287	-0.5766336838541574	-1.261610710719638	1.0375277875747835	0.43109126722736985	-0.0702725179243486	0.1438413637073299	0.8838169517540404	0.8792112879294395	-0.5395394736647251	-0.5713644183643115	-1.5257575220523356	0.027914076129272918	0.10813078318543994	-1.1083763259321355	-0.4306887269713244	-0.3721398436817744	-1.411073620764268	-0.13267949473668375	0.03296613024659901	-0.4667537945383433	-1.0106303293216972	-0.4671419312092859	-1.2263721136950536	-0.282190976383317	-0.6866686450501347	-0.7162816240039181	-0.31260832972236124	0.5395348060323459	2.4134912043012124	-0.08290855602045868	1.248918324639239	-0.023832625424493797	0.05841207124150096	0.09153178590405993	-0.13383141083028902	0.03771538853672401	0.13642645977706272	-0.00423979784155094	-0.0318864587252681	0.03174442026035403	-0.03894038490059768	-0.05117798499779316	-0.018196969175418076	-0.08887327996154823	0.1529124141732624	-0.014554731209757917	0.06915547496075006	-0.014944905074400465	0.23187542123294738	0.04925786625106071	-0.009142105024520135	0.047155984404803106	-1.31606603442289	-1.043088447259916	1.447684044391733	-0.5636194541231506	-1.6422999419721023	0.16327624747077263	0.4287387849933182	-0.4399456036319661	0.31322906404824824	0.589710623038665	0.12637098545195355	2.0593484986053534	-1.4715999527945491	0.0828335961193511	-0.7962065780456895	0.21638886963204218	-1.5186015606763266	-1.8982546675749998	0.13341879454422595	0.9853399782098333	-0.06328160334624917
0.8996750534871484	-0.9171674639155103	-0.5027148570821162	-0.9167881645368156	0.6539097642719452	2.214352722682197	0.5514518966206473	-0.40526996816026284	0.49402016529857296	-0.5533652351816281	-0.5810011870229312	0.19188009072910714	0.03145319866363647	1.8549083821653471	-0.8213788801191978	-0.43126012552608517	-0.4371951049751024	0.41416026245057336	0.018249881027242867	-1.3895353548485587	0.019131022161424958	-0.009044682512387558	0.07365668473844213	-0.006630729579230469	-0.07575765170714885	-0.00987575231201747	0.014514809283843041	0.018093337227363962	-0.024175390128929435	-0.051363055483729485	-0.08691155256506955	0.04053889088605748	-0.021365198138704983	-0.0037971736392413327	0.0032376680940523223	-0.10009609182156147	-0.0001726745662040275	-0.030775735213570524	-0.01786799229110416	-0.02603678522533774	1.5620277444502921	-1.3959246271915833	1.1187603075826935	-1.1063862110234008	-3.2001766891121366	-0.1396487726425774	0.12615966429762682	0.7761496290224491	-0.33425594262020975	-0.5782848209365904	-1.2645304401703468	1.0345035281503185	0.4389164041664949	-0.08582399294622896	0.14231309921253543	0.8833294906199182	0.8776243932665654	-0.538211681041269	-0.5692462997135754	-1.5168496529284374	0.038078314707145615	0.10907870687020353	-1.1024353171561805	-0.4108056524045126	-0.38248034653660173	-1.4196624167695815	-0.13708363301817983	0.04551971080225757	-0.4769793094154061	-1.0125154097400406	-0.45858519706744055	-1.2261912935755432	-0.2890291448045379	-0.6926073975085157	-0.7168332987441134	-0.31532956951832786	0.5434221503960486	2.4018912705200997	-0.08456774731990858	1.2489643741374923	-0.016403161848718876	0.06057691370705249	0.087173874912955	-0.13889169916892002	0.03604146798895969	0.11432746650009126	-0.0052441420971533655	-0.03325414324775298	0.032183257243309914	-0.0390637254215222	-0.053591376270039896	-0.017574797330774595	-0.08289777124905148	0.1651406041814809	-0.01532364216698181	0.06503091849842746	-0.015727636883057505	0.2488907045089545	0.05768711896764521	-0.008226409869267105	0.03985306030121507	-1.3153736155252767	-1.0386144811054534	1.4498884134258334	-0.5594340506236894	-1.6369337066245255	0.16503050254993484	0.4411659435342865	-0.4375605354826676	0.3161379075177727	0.5916909781636068	0.1300049023520837	2.066742920209512	-1.4708781274569631	0.08358700370759573	-0.7897111050143124	0.21484548982884125	-1.5112716772538513	-1.896738425692124	0.12954515422735166	0.9794429193141659	-0.07008992719368877
0.8745603755796869	-0.8916621080793399	-0.5012146965091722	-0.896672700018563	0.6387552498600187	2.215931970621471	0.553453053969047	-0.4175130685901259	0.4899529300177347	-0.5601171149097046	-0.588807354437609	0.19523592280040294	0.04575486240655245	1.8565354383835313	-0.8222300292545208	-0.4355627871261344	-0.4438575045425704	0.4172013585408906	0.010564794163182609	-1.3293397431724132	0.010897885207936943	-0.00019878508104821495	0.08622997954526111	0.0008176968465614691	-0.07547208610902245	-0.01627143131302825	0.016198266542001676	0.026738860260203966	-0.0296310541794925	-0.059168384372385995	-0.10026070137712617	0.05176853391703159	-0.015079320527585562	-0.006229423807890098	0.0026937042003657326	-0.08955558420425698	0.012634216186317262	-0.038585991619099425	-0.02645114206525987	-0.04283913302099903	1.561915391637607	-1.3955621922406924	1.1156516046949028	-1.1063095073620413	-3.1944353928220908	-0.17923683093309928	0.1263348647694493	0.7725068521899562	-0.3346202236392634	-0.5789623950429256	-1.266759239797143	1.0244229083046361	0.4422247626613142	-0.11763608304656248	0.1399265791087615	0.8877061648772087	0.8771544493335767	-0.5371811537786754	-0.5630120660819314	-1.4991598586414001	0.054091655970932434	0.11326633863097724	-1.0877747798276316	-0.39969337316179193	-0.4033117465174296	-1.439773558562271	-0.14127375662439748	0.058879728095788134	-0.5000320312486213	-1.018023080020331	-0.44584865046007516	-1.2261587943272485	-0.2954426097573932	-0.6992320670834742	-0.7194950227105977	-0.3222691596923524	0.5524018623245259	2.377124740117608	-0.08567494366538331	1.2490756641128427	-0.007814836367157912	0.05836656036786975	0.07577351847719865	-0.1624967408364649	0.03641765747759795	0.06209282868335743	-0.005486131969212422	-0.03577158659556122	0.03453536550628902	-0.0393142928506628	-0.062340621417321114	-0.016136663581462665	-0.0700087696214567	0.19332113828994832	-0.017684245381209	0.05878514773639587	-0.01743180395147468	0.2832651238274668	0.06247974957552229	-0.005826127425032586	0.03336494576364915	-1.308078583931604	-1.0288558831243588	1.447865030543738	-0.5588327206783211	-1.6249136965433646	0.17473193229857276	0.4605298184948261	-0.43721697268973	0.321603006460917	0.5916381474598047	0.13763513085851473	2.080752299067267	-1.4702848072629675	0.08287664488172927	-0.7820005728613718	0.21502593829798447	-1.4946783463069062	-1.89138845324557	0.12123888652048685	0.9590457111246453	-0.08260218048595275
0.843098929975003	-0.8587728663221227	-0.5001214026509874	-0.8706455893171199	0.6065517198046778	2.2184055816686854	0.5564515519617358	-0.4397169010327089	0.484210410120402	-0.5713179408224662	-0.6061105923750225	0.20301122253626208	0.06827994119244389	1.859065913766264	-0.8229960000441647	-0.43696092494620437	-0.4562812315278223	0.4245213900949877	-0.0028433967774904277	-1.2416142867087674	-0.0034302151615409216	0.01505183132052676	0.10427686908136817	0.013562495493318998	-0.07454036874338127	-0.025241896572711545	0.018654750031747627	0.038274289700493465	-0.037413712824974195	-0.07076122438227797	-0.12099927918608791	0.06648899585962567	-0.007357540116069789	-0.009483144181051794	0.0017487335793583913	-0.07262299164264742	0.030852511750839223	-0.04909845057500904	-0.03736902973146194	-0.06189725155059467	1.5612694724504086	-1.3946777804557355	1.1126270721996863	-1.105834189119977	-3.187180577418012	-0.23725743861009646	0.12508388221848546	0.7687417844706768	-0.3364670037843462	-0.5780281494458253	-1.2675954378202248	1.007640679757649	0.4503870011167042	-0.164065061139055	0.13711856769483702	0.8915896854585935	0.8781070902151615	-0.5367660225376037	-0.5606029757173226	-1.4736736317137207	0.07476564708577486	0.11668139409558853	-1.064589356464474	-0.3603135563246813	-0.4275474218808523	-1.4693986620162094	-0.14662719369699753	0.07745612892696077	-0.5267448629591147	-1.0263417537611852	-0.42047936004828385	-1.2260917990698812	-0.30332062317546543	-0.6938967410558805	-0.7237742061041289	-0.33175870904131155	0.5633691904440468	2.340451047636637	-0.08547567641341551	1.2492813866825607	0.0014152438001893333	0.056268820068523316	0.05870384356005244	-0.19111175508528555	0.04100098230716161	-0.01533945864063846	-0.005531849551996226	-0.038533385809633926	0.041215254433336235	-0.039359926565502044	-0.07362667062078292	-0.013827885863166146	-0.056304415328443325	0.24094722218637563	-0.021184303296755046	0.053315355892893414	-0.02097612649987649	0.33392581450282194	0.068901348108369	-0.002204735038522445	0.024287267910464677	-1.297779353716967	-1.0146214173888985	1.447070246236953	-0.5625568733443931	-1.6076591348912357	0.1831371273066049	0.4801166721605929	-0.44085024882250556	0.32982049736234575	0.5925971195195693	0.14907208988312953	2.097927009572192	-1.4716734738535435	0.08120869751158862	-0.773830544051074	0.21765185772888088	-1.4698294480000553	-1.8770294241312522	0.10884577050713519	0.9385418158062241	-0.10062662108542474
0.8346627894833429	-0.8491599011650254	-0.500805910482224	-0.8626348329550587	0.5879016109976736	2.2196016507229	0.5577616631414626	-0.4455273987893686	0.48187421318380624	-0.5768119837928742	-0.6153998907916532	0.20728143871821447	0.07692112864820029	1.8602856873577729	-0.8231328274559688	-0.4369143379750687	-0.46367870957383056	0.4278066733588772	-0.009678018496590085	-1.207194463126914	-0.010918512259089727	0.02288109670024851	0.10959135221913387	0.02020934977103853	-0.07166457634057728	-0.028217740732676907	0.019505894918783698	0.04174133408926323	-0.040166799678762105	-0.07475960109707204	-0.1278282738848122	0.06919075261260214	-0.005518031974846389	-0.010256415852198985	0.001181236129097424	-0.06675698680485359	0.03615112611717411	-0.05228137696188962	-0.041004745731694305	-0.06598383234936714	1.5607401566601093	-1.3941631081391128	1.1111286304325096	-1.1055245644311935	-3.184476227889894	-0.2604694936934539	0.12407332617953307	0.7672193415457743	-0.33758816637746103	-0.5768999073684519	-1.2669720584302513	1.0009731306579324	0.4530752264578432	-0.18258949104247457	0.1360764779632596	0.8937347430358785	0.87813612175926	-0.5365067725244148	-0.5580137081060351	-1.4636980833823938	0.08103423811523289	0.11837740259047466	-1.0560731928212725	-0.346713254945943	-0.43884669143970106	-1.4798048128536652	-0.14924873723098303	0.08241295338002677	-0.5368955982268718	-1.029413997755906	-0.41100089180504124	-1.2259346215580051	-0.3063774343882692	-0.6927066876977717	-0.7255268786251892	-0.33656402130685953	0.5674782220567496	2.326249930225386	-0.08568783309058023	1.2494185490723766	0.006128113111815981	0.05614501471186711	0.051680072542246235	-0.2006310586860906	0.04296956059899488	-0.04284934925520344	-0.005312559458156678	-0.039314435041554206	0.04418950958221737	-0.03922512295188186	-0.07738817247609969	-0.012825017302389075	-0.05015185148742875	0.257850936912413	-0.022622538863017693	0.05188563853054098	-0.022379566650490994	0.3555053916479708	0.07194481093206288	-0.0007917417509707809	0.019918094770033427	-1.2923589060093827	-1.008928922753317	1.4477441100906685	-0.5645723422215775	-1.602282514036159	0.18719362910272103	0.4871655809077068	-0.44295649678518917	0.3331079084536799	0.5938924354412171	0.1536283761010933	2.10466101499835	-1.4706793324606253	0.08068207086001218	-0.771008163955404	0.21875819846560976	-1.4594246316449493	-1.8706389878625218	0.10399181476497356	0.9269881407472743	-0.10786616571300724
0.8231845287980748	-0.8349344347456349	-0.506377234944985	-0.8504734899725505	0.5532655675101502	2.2223138568028533	0.5606693081047862	-0.4561321168956142	0.47817375885588104	-0.5894308347553375	-0.6358750880485091	0.21671465273103344	0.09582916987361181	1.8630737676858176	-0.8229455451401748	-0.43962179289900594	-0.47950138360236483	0.43594563703630607	-0.024966191884529698	-1.1409367396515067	-0.02634285445913752	0.0389686725490433	0.11957497582058917	0.03394799435486335	-0.06816938273160991	-0.03326655770985152	0.0213624684322408	0.04968577185976384	-0.04554973182326084	-0.08324534828365512	-0.1414743323529334	0.07433965238678104	-0.0027875740809337633	-0.01096478460355478	6191598255281044e-20	-0.05583181474523003	0.04676341509754244	-0.058447963627905664	-0.04815179080643456	-0.0709806604289866	1.560012085900459	-1.3935494890407671	1.1079981133268824	-1.1052917862727796	-3.1796610796280804	-0.305830068606742	0.12102405660559692	0.7656342291759443	-0.3402950116407674	-0.5734279443393353	-1.2648064376123898	0.984773398681329	0.45744001688836616	-0.21863153618586342	0.1341097883397061	0.8990575050293049	0.8788431926570376	-0.5365227848414634	-0.5498755646217481	-1.444887658918143	0.09218554486386177	0.12244212209803844	-1.0389694185580203	-0.32413547971136636	-0.4586527857130933	-1.5006503290802486	-0.1556364032079842	0.0918680734013409	-0.5549940266163144	-1.0354214968751898	-0.3937110566453269	-1.2253115136381671	-0.3142139619970178	-0.6826234248505287	-0.7293047971475045	-0.3488579645676069	0.5750731799859712	2.297523666527921	-0.08440858775290659	1.2496400416253675	0.015985436825679437	0.052863687421122546	0.034605262793203403	-0.2184259675137087	0.04752291369202457	-0.09815936570783156	-0.004262724688006371	-0.0383959227828752	0.05008201802733912	-0.03766403008908908	-0.08429469625227014	-0.009994008960034328	-0.034074133416142086	0.2902290636636282	-0.025407516433059087	0.04849544159085532	-0.024913959377548603	0.3979688158041625	0.07194629687047353	0.002132120330023908	0.013825856492692317	-1.2789335834148143	-0.9964640997517723	1.4486220203167746	-0.5701836860248776	-1.593002060077429	0.19548757504429803	0.5028612735528151	-0.44773956021946193	0.34047987226548704	0.5964728766248336	0.16369317031862413	2.118395971076245	-1.4661445640927948	0.08009200648944155	-0.7658671928928206	0.22087566608767753	-1.4375029496486749	-1.8552115602762753	0.09346185394367283	0.9035676319105991	-0.12089081822583964
0.8153767597309114	-0.8232901067720082	-0.5142931273407692	-0.8399899203677992	0.5123798923121732	2.2259520157073736	0.564322776315445	-0.46750118694119075	0.475078361419475	-0.6049105124988772	-0.6603611219415781	0.22810024944975468	0.11796881775956627	1.8668573657728458	-0.822289987208707	-0.4440134363495813	-0.5000263293907966	0.4472310748724712	-0.046267456994587314	-1.063096132849958	-0.04712629763431454	0.060386544982306334	0.13124605329710065	0.052179148224365646	-0.06462576411898477	-0.038204931909395994	0.023718644942603655	0.059892558682082195	-0.051514742854245586	-0.09330633217654653	-0.15677070517761413	0.07788808284548543	-0.002607385162228562	-0.01076835516881251	-0.0014200409402204226	-0.04407658762365557	0.05835381949408253	-0.06537678341656669	-0.05406756030937311	-0.07186645649966339	1.5599624449261118	-1.3937537206345705	1.1044564252997957	-1.1058815151665153	-3.1743667222386183	-0.35941361271265626	0.11673858599070705	0.7654013382524895	-0.3436978100280915	-0.5684197114834479	-1.2614032172536487	0.9636639892335103	0.4663161135635689	-0.2609917685520225	0.1316209653538571	0.9025324258733015	0.8795494361857656	-0.5371882003926572	-0.5386681024634329	-1.423809031818086	0.10366597093148826	0.12725156344520488	-1.019032288032182	-0.2896421439006635	-0.4781223947526025	-1.524994818121044	-0.15880534837103857	0.10461504181076293	-0.572099779058083	-1.0420874146852241	-0.36796055173655556	-1.224054925251496	-0.32422592479588536	-0.6737481000460951	-0.7338710603003851	-0.36571142803376533	0.5824366283957569	2.2626259034159437	-0.08347046429455905	1.2498721613279598	0.028078306806359317	0.0508152868780259	0.011410483503892167	-0.23602794336563013	0.054124106460765584	-0.16346418525322962	-0.0012839347448266205	-0.03580100904223813	0.05806837240680159	-0.034460204063419105	-0.09005986453496174	-0.005807211345015596	-0.017546736561221774	0.3238809259480266	-0.028493042182773057	0.04586386968279329	-0.028203600994547544	0.4494355683394675	0.07427201424387424	0.00570612156744682	0.004055555270138915	-1.2646353746138332	-0.9802171186730454	1.451195780536074	-0.5780066403130516	-1.5831179491375582	0.20234825431310405	0.528949652863664	-0.45430511660676764	0.3505653723891896	0.6020164541073902	0.176995557446415	2.1332641741359177	-1.4563147018851599	0.08023058273443441	-0.7608802878840305	0.2233484631930902	-1.4103903723983484	-1.835854740840457	0.07979525393792125	0.8747305639429837	-0.1359994415403046
0.8161505583718187	-0.8232855709192911	-0.5145982379547335	-0.8396755121074613	0.5059020961863542	2.226665481329039	0.5649640392583002	-0.4695787380022217	0.47471865204258623	-0.6072368586313674	-0.6634097366256876	0.22918751260610157	0.12058593471554521	1.8676237755818692	-0.8220633308641808	-0.44574828287994567	-0.5033920000199388	0.44934275909021615	-0.05053952768644433	-1.0510557852846716	-0.051384553532313845	0.06466531344745423	0.133296838814309	0.05584406500574054	-0.06375185237512118	-0.03869635525873044	0.024099335970398265	0.06148230179365777	-0.05237380796931995	-0.09463104854050391	-0.15818421770570548	0.07738082866992103	-0.003752653386040273	-0.010417134367170547	-0.0017485145112649141	-0.04305759603235613	0.06012385452144949	-0.06636028085479637	-0.054176648431234396	-0.07040492032723304	1.5605210120335817	-1.3943841813875038	1.1037256264276536	-1.1065770302741098	-3.173276929190299	-0.36763199624999654	0.11628090236384872	0.7653576318903325	-0.34402383966433037	-0.5679077959485092	-1.261218731590552	0.9591830306788977	0.471899018675465	-0.26735792609547143	0.1307342134654532	0.9033805849039778	0.8795905762906393	-0.5371386133985597	-0.5385631284856294	-1.421078075406031	0.10518397173216765	0.1283644695933712	-1.0154966110761352	-0.2877153487572207	-0.4793812533550726	-1.5288472945525846	-0.1601957859604962	0.10629990081286966	-0.574218379517965	-1.0431513438073732	-0.3649493714844682	-1.2237937835453128	-0.3263754826765138	-0.6693424485738231	-0.7346898942757369	-0.369975671541055	0.583671495406075	2.256820744841914	-0.08265218784894342	1.2499092175727073	0.0293039664780092	0.04934963693221888	0.007671675580827694	-0.23943136664368736	0.05589102902539809	-0.173015250603848	-0.0007731160637262872	-0.03465312079192435	0.05960996614155829	-0.033789715539211465	-0.09127465728325736	-0.004991976478830947	-0.013212594417162183	0.33071976229620675	-0.02901696409410868	0.0450679332160762	-0.02874396352047688	0.4583971940592126	0.07188997571055544	0.006250978964577295	0.0035295314650577872	-1.2613066632864784	-0.9778791237488671	1.4511046821541733	-0.5803249755335695	-1.582343764047439	0.20357472134760835	0.5311481132261793	-0.45599192162618984	0.35203044478928885	0.6024277140425214	0.17899350723166568	2.1359483573393496	-1.4550616316469307	0.08001874556973644	-0.7600141822264238	0.2240756645808028	-1.4054768246392866	-1.8311165097688273	0.07779242171718326	0.8688275125641952	-0.13825289172070807
0.8198429872070154	-0.8235831118029469	-0.5075689818124666	-0.8388933089333284	0.4902238554565607	2.229861284549616	0.5685365127447861	-0.4775910036620726	0.4719243806145481	-0.6214285481856185	-0.6841708777276212	0.2316673069901093	0.13491455895151755	1.8710853343489258	-0.8206720782874938	-0.45747540499392125	-0.5128930207464406	0.45464747787523296	-0.06946882061054567	-0.9968307141513295	-0.0738900874733243	0.08679939767161529	0.14553793953013452	0.07448757124217743	-0.0550080574974719	-0.040848223342364695	0.02583164459091713	0.06966219933247826	-0.05663851828451585	-0.10084345400937772	-0.1644186835877836	0.07831078871334111	-0.006805385351595629	-0.008815549788763297	-0.003395348770077585	-0.03905040113194636	0.07015353575531177	-0.07248264651782027	-0.055344428338892325	-0.06036776572740294	1.5637459924354813	-1.397891112520822	1.1023885542047096	-1.110318764942363	-3.1680128977682327	-0.40408446054150027	0.11336764926577572	0.7661203556934878	-0.346604093398433	-0.564959183551995	-1.2601264447851133	0.9374660588755727	0.48464512014675903	-0.29540207527214407	0.12658357699309516	0.9076523087232375	0.8813749692440064	-0.5391109320462962	-0.5266521866783426	-1.4094496010741695	0.11062812993798568	0.1335937844580761	-1.0013714950376775	-0.27464834757438916	-0.4830048235981891	-1.5486993324321239	-0.16796454432525992	0.11276719987193085	-0.5841807885197046	-1.0474105407085017	-0.35365072682420506	-1.2225656634845896	-0.338128199834041	-0.6455728499950745	-0.7379597236676974	-0.39187764014838317	0.5897101551807087	2.230816392308543	-0.07918505686688487	1.2502130857677742	0.03758226278222915	0.04207000932113531	-0.008913614853836405	-0.2542362317892523	0.06261849797104853	-0.21544672586967512	0.0006489786922144983	-0.031174183354333664	0.06541184547594403	-0.030855349771881712	-0.09750874197634406	-0.001467077715035272	0.00802613256291493	0.3629459224548018	-0.031184866647699053	0.03805225471938293	-0.03074249594949635	0.49935907890141534	0.06338227036254895	0.00863150806650464	0.0017490312150910316	-1.2493780267772132	-0.9677635556440357	1.450797717472966	-0.58819998387333	-1.5789926339093134	0.20836151021718102	0.5500852389653764	-0.46142781353519935	0.3584295201619763	0.6035389897034574	0.18741536143968823	2.149534967277444	-1.4510080866139445	0.07980681906187716	-0.7524346731807644	0.22585120802738642	-1.3834808982275688	-1.812972780986544	0.06932943403120487	0.8464948598749854	-0.14866959551320746
0.836590964667906	-0.8403662540262439	-0.5084745635673947	-0.8518351502945201	0.5037675173673242	2.228763741475817	0.5675198038552449	-0.47843593116516087	0.47510682039792074	-0.6177512631408206	-0.678399620201757	0.23185887448006662	0.13452881465426475	1.8702224647051504	-0.819913879037382	-0.4572624692642694	-0.5073762451483426	0.45756235437402065	-0.0667538031450739	-1.0234553143685967	-0.06759010138034116	0.08025793058054065	0.14624579111693017	0.06940566649487731	-0.06906304084661143	-0.039813951605635535	0.025327284736436795	0.06780760091030585	-0.05579700464447282	-0.09817721914534389	-0.15879933751029013	0.07299109770838266	-0.010695113467797876	-0.008917304931387206	-0.0030615971225592905	-0.039948234600803295	0.06949422990527548	-0.07081180031317443	-0.04681137813272976	-0.05528343597902088	1.5636326208138005	-1.3976978617709888	1.1061625353537472	-1.110174035758544	-3.1725921633512018	-0.3882953837742777	0.1130121096330575	0.7676929976071668	-0.3478760128943118	-0.5657583366241282	-1.2612281484219505	0.9394906184451876	0.48288813988258467	-0.2826115967225425	0.12731838471624965	0.9070065085031044	0.8834166179285754	-0.540324982593621	-0.5310144281810426	-1.4165903958305024	0.10553321260008167	0.1316543395058953	-1.0081886686752666	-0.28372740522367895	-0.48693034224583936	-1.5451538585148088	-0.16957843129188738	0.10983710648207114	-0.5800561559523586	-1.0448553344299014	-0.35707437713937246	-1.2224343002892777	-0.33267470105799773	-0.6684186046785602	-0.7365998702033221	-0.38170430945234546	0.5870287065885199	2.239597490860589	-0.08117780684321428	1.2502436793964693	0.03278763471267578	0.046379814300586554	-0.0017719814479192682	-0.2505715363253996	0.05972681666891631	-0.19311105202972653	-0.0010246571737757744	-0.03201285292130874	0.06409192645857367	-0.03171050865483433	-0.09532467661520533	-0.002566346456956181	-0.0018424781722040512	0.3478960140174999	-0.030285917215117475	0.04417529242857815	-0.0305273744916592	0.4909574428281895	0.07011198211823759	0.0075087704305811	-0.0004047119376606521	-1.2527017919571648	-0.9729988075739391	1.4509465454551198	-0.5845852120412839	-1.5837253838683882	0.201736770388926	0.5388142742516019	-0.46017031846861267	0.355139202647755	0.6032832434851394	0.18288039166380213	2.143857341368619	-1.450933424344291	0.07929933046172734	-0.7579413860997223	0.22605870793335378	-1.389370226428191	-1.8175082994322973	0.07410147950576065	0.8570668929491726	-0.14596971156926516
0.8430145228976103	-0.8461617235813402	-0.5074135830281741	-0.8559020666058935	0.5071298091943941	2.229092311157517	0.5677937232363369	-0.4803916129607379	0.4766428040128546	-0.6184367725056824	-0.6780973060068608	0.23139583155099042	0.13472200583950664	1.8708426099097446	-0.8193892148111418	-0.4613952534745579	-0.5077590198860167	0.4617340549114219	-0.06995683317679761	-1.015981190480464	-0.07147063102649032	0.08379571212294674	0.15170409570076707	0.07265443585688522	-0.0748416630060169	-0.04115421829498617	0.025535422968173804	0.0703514228165851	-0.05692270738893511	-0.09837925712133397	-0.15684774542162078	0.06943555829416238	-0.015483007551943637	-0.009190192327062844	-0.0034877538282789425	-0.03875226236717591	0.07352978769711464	-0.07232397153199181	-0.0406609135668822	-0.05241727750631846	1.565622071826672	-1.3996134986734563	1.1065499602412696	-1.1122500409705507	-3.171949051503027	-0.39349424978553654	0.11401080989952349	0.7671399809387137	-0.34768307283105376	-0.5678679767958958	-1.2643163096616614	0.9355700288049802	0.4892396970589842	-0.2862153321357879	0.12489737623136186	0.9081353931487466	0.8838552592236911	-0.5399001381500842	-0.5342391702091273	-1.4160803229149104	0.10756185974993449	0.13211473112291047	-1.0054065887975987	-0.27852792858629183	-0.4909664135310161	-1.5544727495291157	-0.17289312127349551	0.1146620889299539	-0.5848122574686277	-1.0457689853825805	-0.35353972401805217	-1.2223152585376251	-0.33528111562537444	-0.669762998215711	-0.7371909678427196	-0.3838050759300857	0.5886110408847414	2.2336290132300327	-0.08140403037667807	1.2505373349555424	0.03362048774093023	0.04488925280923091	-0.005283064765866448	-0.2553789804006628	0.059944635231406945	-0.20405153554664687	-0.0019811332767385977	-0.03281527273743787	0.06441562732458576	-0.031082108784777775	-0.09749874355734174	-0.0019464591475531349	0.0010461309261230326	0.3563676357973143	-0.030606755559542818	0.042429467876856045	-0.0309638603416028	0.5002704165300919	0.07153301017459676	0.008230413074886683	-0.0015907079634325855	-1.249017907067593	-0.9708891083097896	1.4504374484825844	-0.5833845903491467	-1.582139411240098	0.2026414560088118	0.5414425292612235	-0.4588590289480234	0.3568030363834574	0.6026364728302912	0.18465948656963818	2.1471614619622277	-1.4521367493889294	0.079746498621237	-0.7556035108601717	0.22563364003333344	-1.3848679890857842	-1.8165628317116314	0.07219416980170547	0.8539518583069979	-0.14860249884833715
0.8625114845537146	-0.8603341828813357	-0.5066297989939167	-0.8647596711014475	0.4925462999904324	2.23222174130934	0.5722992204628884	-0.5012014970641402	0.47797714436856786	-0.6349519672402893	-0.6986158743433555	0.23785821700282678	0.15676955541872314	1.875388899954057	-0.8167301780171922	-0.47999527743917775	-0.5222207853642498	0.4798538626856501	-0.10068090193632533	-0.9430658300185956	-0.09923109931947	0.11103310520399416	0.1795104425940693	0.09621876319238291	-0.09186409586891958	-0.04922945602911859	0.028437476631343668	0.08620520411037466	-0.06508649987190905	-0.10794588657696222	-0.16468217065443164	0.06467307236092597	-0.02838755219754215	-0.010247692918294377	-0.005664116803622172	-0.02753702300662774	0.09541240168361702	-0.0835484189864714	-0.028976675108775145	-0.039957422001390706	1.5714046732858697	-1.4055248561880125	1.1083272014447862	-1.1187296431589013	-3.16772829013245	-0.444710552880155	0.11075494440240732	0.7690218609130482	-0.3523631213875772	-0.5670756581277951	-1.2678593368443043	0.901427076810768	0.514770081035268	-0.3256003446703468	0.11734134897540341	0.9141317917664354	0.8888477071434381	-0.543303432687527	-0.5267019522150889	-1.401492799468628	0.11903345773310262	0.1378419298148747	-0.9859612348086121	-0.25246386461970893	-0.5180491338904145	-1.5956782953982078	-0.18514882512002376	0.12763331377530052	-0.6086338673257391	-1.0519728456886217	-0.33036650832046977	-1.2208409604359745	-0.3507869515216856	-0.6848322383934994	-0.7415794827273195	-0.40602505992072413	0.5993221917584213	2.1941497164703465	-0.08250716388952464	1.2513696738710103	0.04513919499037326	0.043614367535030514	-0.02253996242988156	-0.27891820114126625	0.06706622633139012	-0.2628169320340208	-0.0021500306416825233	-0.03409231987766688	0.07342237063634485	-0.02929868446215091	-0.10714802188566276	0.0017168257049402407	0.024703416453026556	0.40284727739677995	-0.03398743277464866	0.037683772493748255	-0.03508458124697948	0.5699864664578818	0.08218755002093865	0.01153002368090141	-0.016670352202543117	-1.2267496157356426	-0.958710422719107	1.4537209255180905	-0.5888070962953516	-1.5758532391674631	0.2111717136699422	0.5570058185749255	-0.4643172421274098	0.3645344596951695	0.6061391602799386	0.19452343319145526	2.1682487913940056	-1.4504961818917346	0.07838029634610082	-0.7468530862362464	0.22864352922632103	-1.35308110237303	-1.796512689470408	0.062021893071655815	0.8253691387556654	-0.1693645625302326
0.8830591402292848	-0.8775725556852189	-0.5060755882234688	-0.8767574727694083	0.4940465203622663	2.233699115725249	0.5747680353898229	-0.5111238640178302	0.48041203691363077	-0.6434493070165456	-0.7074522685772495	0.2394826003024704	0.16459247060436807	1.8780360131176395	-0.8146170672442772	-0.49308847178524196	-0.5299897222599146	0.4898422498298535	-0.11897583331193279	-0.9094033212330508	-0.11654500925084775	0.12764125199263565	0.19726049672906645	0.11053547173182969	-0.10645128192562009	-0.05376818744377021	0.03004631851612381	0.0958455726625327	-0.06954884205779033	-0.11228385243671499	-0.1656492723409842	0.05821654408938057	-0.04033116431574426	-0.010756905698706116	-0.006947539239744283	-0.022781120146153057	0.10802257748173168	-0.09032304307633665	-0.017299010680316085	-0.0269161952359582	1.5767078450282987	-1.4109341156178332	1.1103227981417232	-1.1244044371727397	-3.1657044631322484	-0.4684840057740026	0.10937923497596809	0.7707990726915801	-0.3549405962267197	-0.5677076317358023	-1.2713513184247518	0.8823388246219408	0.5320108485364838	-0.3434114628566309	0.11189852613745005	0.9163626461641059	0.8918341699835045	-0.5459629384519756	-0.5217369229833818	-1.3974589399784973	0.12391690809087198	0.14135909287960408	-0.9754238983822622	-0.2409610673447339	-0.5327454644363879	-1.6172186912734903	-0.1906684699731301	0.13406068646165195	-0.6197582060399448	-1.05484905652093	-0.32104056315425017	-1.2197393841955952	-0.36160387606094163	-0.6968630802767705	-0.7439328031709579	-0.42055081160829555	0.6046051408186699	2.1730789122386667	-0.0835353925832541	1.251784017529225	0.05160694009909509	0.04306593223344778	-0.03173813176883365	-0.28933451899163143	0.0708124674547654	-0.289492101461229	-0.0014755751589423862	-0.03370242596037934	0.07859701694644516	-0.02766943022431877	-0.11200320454896198	0.0041492912147889265	0.04114950076689591	0.42567264100687346	-0.03567793573980471	0.03492932278295972	-0.03733575537514401	0.6082769658284138	0.09006772961559414	0.01317168491474131	-0.026336329539824718	-1.2142116431714431	-0.9527698721813787	1.456126164559407	-0.5923290495663144	-1.5749133819952388	0.2160862557150062	0.564558222837319	-0.4682599377892068	0.36854947982805447	0.6079340106648056	0.1996120522048828	2.1800982167671457	-1.448050216534558	0.07752894904462516	-0.7424195455609347	0.2306830102478138	-1.3354439640193103	-1.7849859977295544	0.0569939849747052	0.8120678794358003	-0.17997995872109354
0.9601189976753426	-0.9450740275095465	-0.5044902682335518	-0.9251415995844056	0.5133306326930361	2.237008166779857	0.5818333328772541	-0.5394839113828103	0.49353976092322727	-0.6686143682617595	-0.7346940589976623	0.24356601180713977	0.19538605956734198	1.8863232543238708	-0.8072692816322788	-0.5356955797891715	-0.5481645523490563	0.5318922427942648	-0.16942995303039643	-0.8165868375852525	-0.17588546041903005	0.1835041303758962	0.2608010343520721	0.15830393012070418	-0.17108566657765684	-0.07131218955106595	0.0348803916013093	0.12782594295873834	-0.0840101012504188	-0.12392480805231512	-0.16326217794862113	0.025918441517501868	-0.08481628836445614	-0.014132608594343225	-0.011287002131272077	-0.008335419854351118	0.15185183160165325	-0.11061766629613226	0.03504774177992777	0.018240646745584253	1.5971731897071704	-1.4315674343402636	1.1190504682085958	-1.1457451517027628	-3.161067296836007	-0.5396233825926333	0.10702321516225577	0.7752642642015855	-0.3618819664761196	-0.5733247077800513	-1.2862473114110913	0.8232578980809695	0.5889012656184254	-0.3963805114026351	0.09191592619498107	0.9269631216264161	0.9016858939031565	-0.5513292046814919	-0.5194682882487133	-1.3884085535154032	0.1391427265005866	0.15346996418276218	-0.9392229644773498	-0.2073622773162114	-0.5799028629077088	-1.6884926751975857	-0.2071334450695508	0.15342141731521647	-0.6545677402858425	-1.0645415015598305	-0.2970818093531031	-1.2163060899638867	-0.398450895919673	-0.7433863030683416	-0.7516229982620469	-0.46851035299492044	0.6219923402614531	2.105020592244655	-0.0881366785899255	1.2531271691682333	0.07370630191365365	0.0394213183615729	-0.06017226916442784	-0.31816055705454727	0.08328889767484972	-0.37033353122863255	0.0017416429038455501	-0.03268597910504116	0.09599022191710041	-0.021926679951991213	-0.12718673988189674	0.012538519007947571	0.10183564122901365	0.5033988836995927	-0.04125094093323121	0.02475949051745399	-0.04463763736638637	0.7332929470736003	0.12287647232913156	0.018400858319991862	-0.061574984440356764	-1.1796101595931203	-0.9348682128433775	1.465150445285231	-0.6047256592789161	-1.5747217475619497	0.2359608033087503	0.5881701623440823	-0.4824067631342426	0.3810358891969564	0.613240331231879	0.21577170788943809	2.2194147378406823	-1.4416437578971752	0.07391721765632059	-0.7276674730690716	0.2381565774061893	-1.277728967309346	-1.7514176617959654	0.041251651199591295	0.775547863567792	-0.21357906742426866
0.9710089336155333	-0.9545346771324298	-0.5028834031543237	-0.9319322156675128	0.5181669217912037	2.2373604130459985	0.5829296115536613	-0.5436102551107727	0.49620413837094013	-0.6724208468725257	-0.7391903860513233	0.2440391446240923	0.20210514371032984	1.8876102673232185	-0.8060729471501483	-0.5423033564357839	-0.550021676298856	0.5399466453775025	-0.17552525298002772	-0.8004244139065279	-0.1858322155460468	0.1929528225029253	0.27155436931059695	0.1663046874199279	-0.18059101326763605	-0.07454797999376604	0.03571299463183947	0.13346162770478695	-0.08616787714092099	-0.12602153505455424	-0.1635984276412127	0.020742164837044674	-0.09228411669599856	-0.014919367991423326	-0.0119227963067272	-0.00611905162310203	0.15927157029892783	-0.1137713918703502	0.04459495963238372	0.02620649299473298	1.600782245455926	-1.4352502925115416	1.1203351812901592	-1.149526223151425	-3.1597052770727534	-0.5509394988394796	0.10687770454236306	0.7763686508613472	-0.36249779895157214	-0.5742441236263328	-1.2885216973305715	0.8148109080961142	0.5978746442709162	-0.4048462751236175	0.0885257629746629	0.9298427776419903	0.903347585087728	-0.5520020124633755	-0.5219453473592225	-1.3875350025791304	0.1419850663123591	0.15524407536206095	-0.9329975912540309	-0.20384481463691553	-0.5878599013699111	-1.6994306609486485	-0.2098027346729131	0.1561230473883768	-0.6603894451003134	-1.0663306654823046	-0.29063670570516154	-1.2157914912252827	-0.40375246725972724	-0.7503333672256183	-0.7529655880367905	-0.47593516969593286	0.6248294770682026	2.0938750721457584	-0.08878326465749141	1.2532805338914117	0.07709567549822534	0.0393551347166118	-0.06494185770732477	-0.3203178039696509	0.08616047357045657	-0.3838302290738015	0.0026331802617519193	-0.031631479886727105	0.09922873749784118	-0.020951167166571433	-0.1279462368230458	0.013977929093934496	0.11179900417568486	0.5169530084205629	-0.04220233395173888	0.02484619526718921	-0.04593522562187073	0.7529619930621267	0.12771073735804206	0.019260670626603662	-0.06844811426496164	-1.1755484323460652	-0.9318125302622046	1.4678502346589213	-0.6080004053063797	-1.5746019881399074	0.23926543284455037	0.5931642025382893	-0.4854847300337449	0.38308907830349964	0.6157384948201947	0.21856877358201598	2.225163726060735	-1.440854786711878	0.07305861086135385	-0.7270750938148053	0.23987639728542656	-1.268450608804885	-1.7454220249922534	0.03852606907964615	0.7675405661440823	-0.21882613140100776
0.9781921889916922	-0.9607673654440521	-0.5017558692988167	-0.9364204104616469	0.5200608119739821	2.2374364617824805	0.5837751516949529	-0.5473511201380824	0.49766711916473644	-0.6755413546248715	-0.7430071964895583	0.24498957656677936	0.20770990138493503	1.8884403921299946	-0.8052834821497584	-0.5467447675465422	-0.5520580308449112	0.5457533728620053	-0.18086952182587554	-0.7886899997928077	-0.1929717143175043	0.1997220088981271	0.27967653533616943	0.1720282256008995	-0.18853123471007366	-0.07740847131557549	0.03631422472108437	0.13741483699440035	-0.08803161643303016	-0.12765545842941772	-0.1640341604730149	0.01729909023560912	-0.09652771632163992	-0.015816430351464933	-0.012443588739122557	-0.0038932008228753073	0.16483918241304268	-0.1161429285656891	0.05043561463823946	0.030386141139542445	1.6028902780779943	-1.437379701355337	1.1216037018154492	-1.1517496526460829	-3.15922573474703	-0.5604283918276377	0.1064929800229144	0.7768347523252148	-0.36338979576429215	-0.5747823453784848	-1.2900858847482728	0.80774771462643	0.604402637291576	-0.4121159414218977	0.08631621947122872	0.9313635852151855	0.9045938791697573	-0.5524193458839373	-0.5229522265518347	-1.385619727901917	0.14420801181849613	0.15682340468612904	-0.9282119692835653	-0.2005279684199574	-0.5930622719111568	-1.708495352519996	-0.21262054341846418	0.15800983451903697	-0.6649629019342118	-1.067806083542802	-0.2858433136572502	-1.2154731356349118	-0.40750556532665294	-0.7551174866848909	-0.7539756287738802	-0.48115216209246137	0.6271467485075168	2.0852199051073415	-0.08942492739324762	1.2534348637189723	0.07964461237250721	0.03848558943368701	-0.06888995326620762	-0.32270323000962364	0.08827423189359124	-0.395412329008895	0.003090760812097247	-0.03117449672504724	0.10152927365530111	-0.020191886100836227	-0.12876997576681143	0.015068403100314718	0.11937138960015113	0.5280921166587821	-0.04291959661155647	0.024196595802003968	-0.046863175252778645	0.7680725978440206	0.13185246307840107	0.019977292397684594	-0.07323735971242913	-1.1724989267652621	-0.929440206829959	1.4693518957078653	-0.6102333481727112	-1.5742982641666297	0.24126487462592972	0.5967736443509166	-0.48747985789832016	0.3846836803663307	0.6172549847940553	0.22072560896916488	2.2295359414770424	-1.4406688690963358	0.07244822042735947	-0.7259861110158847	0.24100500778817294	-1.2610897078189132	-1.7415054801987762	0.03637774101880589	0.7619420044613656	-0.22271044548728391
0.9954006920690399	-0.9760245441727984	-0.4967348771474189	-0.9476816004580844	0.5275491615489606	2.2370828820291084	0.5856580490641394	-0.5561134877447408	0.5015931657199274	-0.6824256633077451	-0.7515704944186602	0.24649332944805788	0.22146826534971806	1.8901389559369344	-0.8033760181290025	-0.5569993112901899	-0.5551781783019027	0.5603745404567829	-0.19249927534144587	-0.7650025776472096	-0.20999891483300234	0.21578159022960716	0.2998837964928932	0.1854595280794155	-0.20857139325220017	-0.08487172385314534	0.037689057836301484	0.14666303924507654	-0.09230960432972006	-0.1312295677292875	-0.16465882845796062	0.008464940719658046	-0.10653261745022823	-0.01847489280641591	-0.013663194194670126	0.0008945248677968741	0.17819470368572632	-0.12140390281520233	0.06549400234464842	0.04061604993411016	1.608086571086924	-1.4426370575463363	1.1254525305578995	-1.1571865762315932	-3.1584067184647195	-0.5809209744626433	0.10565808692839979	0.7781000421239165	-0.3654144200478536	-0.576223051949852	-1.2938457266551369	0.790877953804655	0.6203285596531937	-0.4278445461513652	0.0810917897361834	0.9342272594153554	0.9078082305192254	-0.5532283796597446	-0.5270561121241099	-1.3818919593209764	0.14899357655665438	0.1606786862802987	-0.9167415854280311	-0.19576272615693968	-0.6046623321854092	-1.7294519888640734	-0.2178135565532336	0.1620996166126621	-0.674121162077576	-1.071329534220205	-0.27628974961327474	-1.2148910599041394	-0.4153500678272684	-0.7693649872420691	-0.7561889402697874	-0.491952582412207	0.6322886067657226	2.065649027957495	-0.09084421386154658	1.2538153111854147	0.0851750682273397	0.03566012581866477	-0.07702384743763062	-0.3264917097915193	0.09362597043776193	-0.420623772060214	0.004681274466680763	-0.029769416211125718	0.10754614322664013	-0.018595297369188083	-0.13016287838508758	0.017480332790244274	0.1362760204533714	0.5551385008345525	-0.0445330573939251	0.02336577247273402	-0.04923291972426544	0.8023987841788587	0.1417734227709884	0.02159679985426877	-0.08450940388021809	-1.1679459232279528	-0.9246278120586304	1.4734082670469275	-0.6157422867254424	-1.5740060531216504	0.24731772203454452	0.6047743338244738	-0.4928621033619598	0.38801115978838147	0.6209175247953881	0.22532029556330935	2.2385172653544707	-1.4416186386251906	0.07070760375142815	-0.7239292978471837	0.24408295339800545	-1.244483673393716	-1.7324516934889465	0.03177822662346776	0.7503512194953493	-0.231480865278664
1.010923004241247	-0.9895658335356898	-0.4956170473296784	-0.9574810623037376	0.5330237178015999	2.23655953995992	0.5876425003129175	-0.5640326575193942	0.5049458386951613	-0.6893951564613586	-0.7596268991113393	0.24778099644797189	0.23222332400194032	1.8917013159964529	-0.8015534677879675	-0.5667010314402898	-0.5594881514484781	0.5719882430001456	-0.20377186988541984	-0.7379291238116076	-0.22701610169453257	0.23193515576550292	0.3179970556473505	0.19896547556725006	-0.2261599687812611	-0.09245108303926171	0.03909711927013642	0.15616334078927321	-0.09647279247160134	-0.13495768721376397	-0.16562070084305483	0.0006575111560581442	-0.11709528601221789	-0.021239380033500063	-0.014842862789307201	0.005592576592092979	0.1909005352909962	-0.12739400823935795	0.07919521056011142	0.05119623811568101	1.6133847234999814	-1.4480263598810406	1.1280173327078498	-1.1627744979343926	-3.1568091650394425	-0.6012492395793188	0.10512544420500573	0.7795136247047451	-0.3671298593801058	-0.577733329258402	-1.2976915714363966	0.7763639238901665	0.6349859133810777	-0.44347404822832115	0.07568544991423495	0.9369578091984723	0.9105353020113348	-0.554650082392144	-0.5290807686536538	-1.3785617315381278	0.15417657508793112	0.16442308671275732	-0.9051655492499051	-0.18963380386932238	-0.6157702582394751	-1.7506230966009901	-0.22394077384435104	0.16577689830555778	-0.6828712158897684	-1.0748861458463395	-0.2673832254048992	-1.214407679118303	-0.42363757971212596	-0.7831477634042963	-0.7584310333412568	-0.5032603411460588	0.637264088272096	2.046310320656777	-0.09258783756040762	1.2542675507529188	0.09072744210694796	0.03277870769658221	-0.08507474854721567	-0.3315022590674254	0.09866533658473271	-0.4464543485472664	0.005643380912319386	-0.029198655008386053	0.11341969216901986	-0.0170707185920105	-0.13247241889250563	0.019779282075635833	0.15282922326897683	0.5817836258217925	-0.0461324850383017	0.021392830501122076	-0.05157287125042541	0.8360251117881626	0.15226962263038277	0.023258757728946807	-0.09504997599302317	-1.161971132125032	-0.9198879426637966	1.476818908754152	-0.6206856718682547	-1.573294294885761	0.25294785000696307	0.612116805524354	-0.4978898937240757	0.39138718198490946	0.623581705140453	0.22987244051796984	2.2478935685149963	-1.442631169803802	0.06913922913005892	-0.7206932121234851	0.24698618570293607	-1.2282027906718747	-1.7246729934685172	0.02715804861366531	0.7396859582451979	-0.2401647250367228
1.0239921705621349	-1.001379509558533	-0.4954242142044422	-0.9663438865323747	0.5385478234514376	2.2355193132406104	0.5892179788274954	-0.5692964826974329	0.508001583662966	-0.6951446834188122	-0.7667270506808089	0.24876526643148436	0.241517789434319	1.892734713995958	-0.8000254326766625	-0.5741352914312347	-0.5623771186448603	0.5816360776728953	-0.2118155746390856	-0.7198654517981191	-0.2423596991152035	0.246328376906135	0.33308129951070636	0.2107918615170557	-0.24222304986882262	-0.09938176420340422	0.04017515115220403	0.16388135272359142	-0.09977825767385476	-0.13755185438738832	-0.1654758090269015	-0.006984748813027439	-0.12599214070843887	-0.023931321301762235	-0.015844205874515325	0.009028234227319512	0.20121751712947844	-0.1319835321857349	0.09149603181950097	0.06005242343783504	1.6181047846476309	-1.4528286181333008	1.1305732060698845	-1.1676849046164193	-3.1558919387294404	-0.6166634164320389	0.10470330830731495	0.7806842131845595	-0.3685311299573709	-0.5790752193365495	-1.3008707111502238	0.7651955137179766	0.6465976580027023	-0.45541743405573376	0.07119486283774189	0.9390505549843483	0.9127501306654754	-0.5555564380472278	-0.5318244242723587	-1.3762059034675582	0.15768841501044112	0.16774033845483657	-0.8956595600563935	-0.18501196099071768	-0.6231735270338925	-1.7674357703268153	-0.22987856065271292	0.16744872994091306	-0.6891106291105603	-1.0776082389073747	-0.26241163089640607	-1.213906198440148	-0.4303227635137534	-0.7936166623475956	-0.7602426702064418	-0.512476087155012	0.6411643117750248	2.030999681627997	-0.09442555101670304	1.254614599588725	0.09503062173082738	0.029639801677023646	-0.09172017453268329	-0.33435915145028766	0.10285184091447527	-0.46544234443891697	0.006523656507277336	-0.028399260302384176	0.11806093257906314	-0.01545047806553933	-0.13433408039691533	0.02190877931251122	0.16750872890899268	0.6033866797292881	-0.047389583040768755	0.01951174573746841	-0.053336689722288104	0.8631008729943492	0.16231240144765546	0.024532117926633002	-0.1039750376059004	-1.1586244786295057	-0.9164673376964538	1.4795134550750964	-0.6252466860407353	-1.5739014041364465	0.25705608021809534	0.6175892237857422	-0.5022569067629676	0.3939206260211146	0.6252036667124728	0.23336295282091943	2.2553795957895577	-1.442800620428251	0.06767886089521026	-0.7182734932567172	0.24948328321326213	-1.214650367193382	-1.7194028357499733	0.023734336833929687	0.7319728722124537	-0.24650595827602714
1.030309327838614	-1.0070839285506932	-0.49638044568271655	-0.9706539170873807	0.5411270728567089	2.2347106994886854	0.5901085948455982	-0.5723867959277219	0.509384681893785	-0.698331631260498	-0.7704965772701523	0.24940701792163703	0.24649905376737088	1.8931486168859513	-0.7992085149274031	-0.5776980354458011	-0.5642281907515079	0.585959405280276	-0.2161086763780865	-0.7096036059687566	-0.2504923698651785	0.2539945429054919	0.34091466639485973	0.2170541222917221	-0.2508746719482547	-0.10348993449663925	0.040789967330468045	0.16817575582795666	-0.10162475629617107	-0.13911911535260404	-0.16576332133838637	-0.010417131065633314	-0.13049844122126902	-0.025641389746004772	-0.016346697809328927	0.011107034964187268	0.20678956216007144	-0.1347705341392395	0.09750968988329899	0.06463952978573828	1.6204664180260193	-1.455245219117141	1.1318925897881245	-1.1701654701269812	-3.155425270480344	-0.6249172773589179	0.10432012449836721	0.7814927930465176	-0.3694659460842014	-0.5796040652335831	-1.3024113432667668	0.7592889818379142	0.6527591625203111	-0.46189130430922615	0.06893203891715877	0.9394589950591553	0.9140004447587593	-0.5564325385434682	-0.5330740428943427	-1.3748952527608864	0.15961718591593188	0.16959896195170124	-0.8903984125157077	-0.1831386032588635	-0.6264196529604035	-1.776425793865687	-0.23268823486473017	0.1680972790660073	-0.6919519206478446	-1.0790785534855383	-0.2603777292856552	-1.213648356700191	-0.43340803330705296	-0.7990473381499513	-0.7611702666887374	-0.5166242288901673	0.6431611215006844	2.022837349569343	-0.09518388290206789	1.254798245005879	0.09730064764478688	0.027372480207723805	-0.09529570978350885	-0.3351753630131319	0.10534770723946753	-0.475737263553654	0.007213376552823088	-0.027608466641723662	0.12070640467026526	-0.014522071731868995	-0.1351609077230371	0.02308072330419741	0.17494789289912593	0.6155210645451593	-0.04802788316489886	0.018813928992409724	-0.05433124190559202	0.8773541854589548	0.1669430085813688	0.025217255761779325	-0.10842427083327325	-1.1576257579488411	-0.9147047748930527	1.4811409909660667	-0.6278933249826214	-1.5742558870715908	0.25965509343098253	0.6208214398723683	-0.5047404757123787	0.3952699109782009	0.6260954753762489	0.23522329443593679	2.258942004009905	-1.4431086220650244	0.066862729525699	-0.7172330845344372	0.2508816559672941	-1.2073843823119208	-1.7163581879777832	0.02191194190802289	0.7278570070506223	-0.2497509913029752
